b_intervals,fb,original_u,shifted_u,num_b,weights,weights with 2
"(1, 179737)",0,-182.8056485757223,-182.6112971514446,179736.0,2.678338109142005e-15,3.9911286703177813e-35
"(179737, 179738)",1,-181.8056485757223,-181.6112971514446,1.0,1.9133919785806514e-20,3.661068863696781e-40
"(179738, 521631)",2,-180.8056485757223,-180.6112971514446,341893.0,8.399777426429426e-15,2.063694220517921e-34
"(521631, 814683)",3,-179.8056485757223,-179.6112971514446,293052.0,9.24476507704789e-15,2.9163998652049562e-34
"(814683, 2866047)",4,-178.8056485757223,-178.6112971514446,2051364.0,8.309359331165689e-14,3.365831344141278e-33
"(2866047, 3110257)",5,-177.8056485757223,-177.6112971514446,244210.0,1.2701700687628806e-14,6.606330631755868e-34
"(3110257, 3500993)",6,-176.8056485757223,-176.6112971514446,390736.0,2.6094890428920877e-14,1.7427196534165945e-33
"(3500993, 3500994)",7,-175.8056485757223,-175.6112971514446,1.0,8.575227917677431e-20,7.353453384011441e-39
"(3500994, 3842887)",8,-174.8056485757223,-174.6112971514446,341893.0,3.7645190685301155e-14,4.1450406464381695e-33
"(3842887, 4770885)",9,-173.8056485757223,-173.6112971514446,927998.0,1.3120184824488712e-13,1.8549528105528667e-32
"(4770885, 4917411)",10,-172.8056485757223,-172.6112971514446,146526.0,2.6599974925712056e-14,4.8288949814265734e-33
"(4917411, 5161621)",11,-171.8056485757223,-171.6112971514446,244210.0,5.692507314645148e-14,1.326916978309182e-32
"(5161621, 5161622)",12,-170.8056485757223,-170.6112971514446,1.0,2.993048637109559e-19,8.95834014410339e-38
"(5161622, 5259305)",13,-169.8056485757223,-169.6112971514446,97683.0,3.7541047258033756e-14,1.442758954198708e-32
"(5259305, 5259306)",14,-168.8056485757223,-168.6112971514446,1.0,4.934702952242559e-19,2.435129322687143e-37
"(5259306, 5454673)",15,-167.8056485757223,-167.6112971514446,195367.0,1.237900799057594e-13,7.84369104458496e-32
"(5454673, 5454674)",16,-166.8056485757223,-166.6112971514446,1.0,8.135949721949026e-19,6.619367787808243e-37
"(5454674, 5454675)",17,-165.8056485757223,-165.6112971514446,1.0,1.0446766231876113e-18,1.0913492470346704e-36
"(5454675, 6284987)",18,-164.8056485757223,-164.6112971514446,830312.0,1.113773323302659e-12,1.4940058865831752e-30
"(6284987, 6284988)",19,-163.8056485757223,-163.6112971514446,1.0,1.7223805696525975e-18,2.966594826716806e-36
"(6284988, 6773407)",20,-162.8056485757223,-162.6112971514446,488419.0,1.0801779013774077e-12,2.3889003061389934e-30
"(6773407, 6773408)",21,-161.8056485757223,-161.6112971514446,1.0,2.8397254814268407e-18,8.064040809864904e-36
"(6773408, 6773409)",22,-160.8056485757223,-160.6112971514446,1.0,3.6462796945678965e-18,1.3295355611018155e-35
"(6773409, 7408353)",23,-159.8056485757223,-159.6112971514446,634944.0,2.9727543483677383e-12,1.3918185565560582e-29
"(7408353, 8092141)",24,-158.8056485757223,-158.6112971514446,683788.0,4.110727561522576e-12,2.4712456324272063e-29
"(8092141, 8092142)",25,-157.8056485757223,-157.6112971514446,1.0,7.719174173974695e-18,5.958564992815793e-35
"(8092142, 8140983)",26,-156.8056485757223,-156.6112971514446,48841.0,4.84093229008132e-13,4.798146114361289e-30
"(8140983, 8238667)",27,-155.8056485757223,-155.6112971514446,97684.0,1.2432014737190676e-12,1.5821935058528126e-29
"(8238667, 8238668)",28,-154.8056485757223,-154.6112971514446,1.0,1.634149185454056e-17,2.6704435603201547e-34
"(8238668, 8238669)",29,-153.8056485757223,-153.6112971514446,1.0,2.0982890887825778e-17,4.4028171001040196e-34
"(8238669, 8238670)",30,-152.8056485757223,-152.6112971514446,1.0,2.6942565215553907e-17,7.259018203943753e-34
"(8238670, 8287509)",31,-151.8056485757223,-151.6112971514446,48839.0,1.6895822027464406e-12,5.845099244123579e-29
"(8287509, 8580561)",32,-150.8056485757223,-150.6112971514446,293052.0,1.301759852550459e-11,5.782518848914843e-28
"(8580561, 8580562)",33,-149.8056485757223,-149.6112971514446,1.0,5.703741100891568e-17,3.253266254599976e-33
"(8580562, 8580563)",34,-148.8056485757223,-148.6112971514446,1.0,7.323748543751294e-17,5.36372927320992e-33
"(8580563, 8580564)",35,-147.8056485757223,-147.6112971514446,1.0,9.403879275606494e-17,8.843294543018134e-33
"(8580564, 8727087)",36,-146.8056485757223,-146.6112971514446,146523.0,1.7692388516427033e-11,2.136324068004335e-27
"(8727087, 8727088)",37,-145.8056485757223,-145.6112971514446,1.0,1.550437578878854e-16,2.4038566859997232e-32
"(8727088, 8727089)",38,-144.8056485757223,-144.6112971514446,1.0,1.9908012582682538e-16,3.9632896499224625e-32
"(8727089, 9197925)",39,-143.8056485757223,-143.6112971514446,470836.0,1.2035695412905752e-10,3.0766119003695677e-26
"(9197925, 9197926)",40,-142.8056485757223,-142.6112971514446,1.0,3.2822763802434494e-16,1.077333823630404e-31
"(9197926, 9655085)",41,-141.8056485757223,-141.6112971514446,457159.0,1.9267086273308725e-10,8.12016417620831e-26
"(9655085, 9655086)",42,-140.8056485757223,-140.6112971514446,1.0,5.411558884423997e-16,2.9284969559588294e-31
"(9655086, 9655087)",43,-139.8056485757223,-139.6112971514446,1.0,6.948579151502771e-16,4.828275222469898e-31
"(9655087, 9655088)",44,-138.8056485757223,-138.6112971514446,1.0,8.9221522403961e-16,7.960480060080514e-31
"(9655088, 9801611)",45,-137.8056485757223,-137.6112971514446,146523.0,1.6786070855808283e-10,1.923057641300111e-25
"(9801611, 10241189)",46,-136.8056485757223,-136.6112971514446,439578.0,6.466254878833367e-10,9.51195286343637e-25
"(10241189, 10241190)",47,-135.8056485757223,-135.6112971514446,1.0,1.8888196441139355e-15,3.567639647990694e-30
"(10241190, 10241191)",48,-134.8056485757223,-134.6112971514446,1.0,2.4252924305813877e-15,5.882043373835375e-30
"(10241191, 10241192)",49,-133.8056485757223,-133.6112971514446,1.0,3.1141371237668916e-15,9.69785002562313e-30
"(10241192, 10387715)",50,-132.8056485757223,-132.6112971514446,146523.0,5.85891441950259e-10,2.342763810122327e-24
"(10387715, 10387716)",51,-131.8056485757223,-131.6112971514446,1.0,5.134344115831392e-15,2.636148949977244e-29
"(10387716, 10729609)",52,-130.8056485757223,-130.6112971514446,341893.0,2.2539734819873664e-09,1.485960946115379e-23
"(10729609, 11071503)",53,-129.8056485757223,-129.6112971514446,341894.0,2.8941677045143025e-09,2.4499425850859005e-23
"(11071503, 11706449)",54,-128.8056485757223,-128.6112971514446,634946.0,6.901486229398766e-09,7.501505982332482e-23
"(11706449, 11706450)",55,-127.8056485757223,-127.6112971514446,1.0,1.3956594311120096e-14,1.9478652476518983e-28
"(11706450, 11804133)",56,-126.8056485757223,-126.6112971514446,97683.0,1.7505401018172154e-09,3.137076715569984e-23
"(11804133, 12048343)",57,-125.8056485757223,-125.6112971514446,244210.0,5.619402485495897e-09,1.2930545143113494e-22
"(12048343, 12048344)",58,-124.8056485757223,-124.6112971514446,1.0,2.9546110388497604e-14,8.72972639089286e-28
"(12048344, 13318235)",59,-123.8056485757223,-123.6112971514446,1269891.0,4.817706977564702e-08,1.82773958723037e-21
"(13318235, 13367077)",60,-122.8056485757223,-122.6112971514446,48842.0,2.379255031029624e-09,1.159013656828094e-22
"(13367077, 13367078)",61,-121.8056485757223,-121.6112971514446,1.0,6.254911618328935e-14,3.912391935310629e-27
"(13367078, 13367079)",62,-120.8056485757223,-120.6112971514446,1.0,8.031465497069806e-14,6.450443803062275e-27
"(13367079, 13562445)",63,-119.8056485757223,-119.6112971514446,195366.0,2.0147325508745385e-08,2.0777142653038015e-21
"(13562445, 13953181)",64,-118.8056485757223,-118.6112971514446,390736.0,5.1739885728940704e-08,6.851213543783635e-21
"(13953181, 14050865)",65,-117.8056485757223,-117.6112971514446,97684.0,1.6608832083119806e-08,2.8239353749362214e-21
"(14050865, 14930021)",66,-116.8056485757223,-116.6112971514446,879156.0,1.9193546282602175e-07,4.1902940877659e-20
"(14930021, 14930022)",67,-115.8056485757223,-115.6112971514446,1.0,2.803256903579536e-13,7.858249267466331e-26
"(14930022, 14930023)",68,-114.8056485757223,-114.6112971514446,1.0,3.599453113701502e-13,1.2956062717735438e-25
"(14930023, 14930024)",69,-113.8056485757223,-113.6112971514446,1.0,4.62178928416856e-13,2.136093618725533e-25
"(14930024, 15076547)",70,-112.8056485757223,-112.6112971514446,146523.0,8.695399979100182e-08,5.160280692897049e-20
"(15076547, 15613809)",71,-111.8056485757223,-111.6112971514446,537262.0,4.093959166989903e-07,3.1196142033087497e-19
"(15613809, 15906861)",72,-110.8056485757223,-110.6112971514446,293052.0,2.867316886525532e-07,2.8054768872945657e-19
"(15906861, 15906862)",73,-109.8056485757223,-109.6112971514446,1.0,1.2563325826122134e-12,1.5783715581330742e-24
"(15906862, 15955703)",74,-108.8056485757223,-108.6112971514446,48841.0,7.878849251457061e-08,1.2709867842015007e-19
"(15955703, 16053387)",75,-107.8056485757223,-107.6112971514446,97684.0,2.0233699654694514e-07,4.1910917009580365e-19
"(16053387, 16346439)",76,-106.8056485757223,-106.6112971514446,293052.0,7.79417538907612e-07,2.0729826104472888e-18
"(16346439, 16346440)",77,-105.8056485757223,-105.6112971514446,1.0,3.4150660298158023e-12,1.1662675988001865e-23
"(16346440, 16346441)",78,-104.8056485757223,-104.6112971514446,1.0,4.385031581950386e-12,1.922850197470231e-23
"(16346441, 16786017)",79,-103.8056485757223,-103.6112971514446,439576.0,2.4750291532394285e-06,1.393563185748331e-17
"(16786017, 16786018)",80,-102.8056485757223,-102.6112971514446,1.0,7.229694841853435e-12,5.226848750632215e-23
"(16786018, 16883701)",81,-101.8056485757223,-101.6112971514446,97683.0,9.06802222837543e-07,8.417946534638667e-18
"(16883701, 17665173)",82,-100.8056485757223,-100.6112971514446,781472.0,9.314952174272101e-06,1.1103191670203993e-16
"(17665173, 17714015)",83,-99.8056485757223,-99.6112971514446,48842.0,7.475397091872573e-07,1.144129267457863e-17
"(17714015, 17714016)",84,-98.8056485757223,-98.6112971514446,1.0,1.9652348113914283e-11,3.8621478639047017e-22
"(17714016, 17909383)",85,-97.8056485757223,-97.6112971514446,195367.0,4.929913242805602e-06,1.244019951250213e-16
"(17909383, 17909384)",86,-96.8056485757223,-96.6112971514446,1.0,3.240124435461402e-11,1.0498406357274069e-21
"(17909384, 18251277)",87,-95.8056485757223,-95.6112971514446,341893.0,1.4224123648725685e-05,5.917807430226336e-16
"(18251277, 18251278)",88,-94.8056485757223,-94.6112971514446,1.0,5.342062076460458e-11,2.853762722875702e-21
"(18251278, 18837381)",89,-93.8056485757223,-93.6112971514446,586103.0,4.0202817938263885e-05,2.757649372511645e-15
"(18837381, 18886223)",90,-92.8056485757223,-92.6112971514446,48842.0,4.301794010909537e-06,3.7888357791034686e-16
"(18886223, 18886224)",91,-91.8056485757223,-91.6112971514446,1.0,1.130914550461273e-10,1.278967720445023e-20
"(18886224, 18886225)",92,-90.8056485757223,-90.6112971514446,1.0,1.4521230268942656e-10,2.1086612852365643e-20
"(18886225, 19228117)",93,-89.8056485757223,-89.6112971514446,341892.0,6.374791303534362e-05,1.18861991984654e-14
"(19228117, 19911905)",94,-88.8056485757223,-88.6112971514446,683788.0,0.00016370883885481085,3.919428817000361e-14
"(19911905, 19911906)",95,-87.8056485757223,-87.6112971514446,1.0,3.074144472058808e-10,9.450364235089727e-20
"(19911906, 19911907)",96,-86.8056485757223,-86.6112971514446,1.0,3.947279636693628e-10,1.558101653025618e-19
"(19911907, 20156115)",97,-85.8056485757223,-85.6112971514446,244208.0,0.00012377456295255116,6.273399083607028e-14
"(20156115, 20546851)",98,-84.8056485757223,-84.6112971514446,390736.0,0.0002542895781812356,1.654907394547489e-13
"(20546851, 20546852)",99,-83.8056485757223,-83.6112971514446,1.0,8.356391056455283e-10,6.982927148840584e-19
"(20546852, 21670217)",100,-82.8056485757223,-82.6112971514446,1123365.0,0.0012053502568543525,1.2933189494944688e-12
"(21670217, 21670218)",101,-81.8056485757223,-81.6112971514446,1.0,1.377735968106614e-09,1.898156397814669e-18
"(21670218, 22109795)",102,-80.8056485757223,-80.6112971514446,439577.0,0.0007776328129306391,1.3756697728644093e-12
"(22109795, 22109796)",103,-79.8056485757223,-79.6112971514446,1.0,2.271502596026008e-09,5.159724043752894e-18
"(22109796, 22793583)",104,-78.8056485757223,-78.6112971514446,683787.0,0.0019943790239954438,5.816939619140199e-12
"(22793583, 23037793)",105,-77.8056485757223,-77.6112971514446,244210.0,0.0009145846794263169,3.4251878950138775e-12
"(23037793, 23037794)",106,-76.8056485757223,-76.6112971514446,1.0,4.808771033522792e-09,2.3124278852847864e-17
"(23037794, 23037795)",107,-75.8056485757223,-75.6112971514446,1.0,6.174584230075045e-09,3.812549041429143e-17
"(23037795, 23037796)",108,-74.8056485757223,-74.6112971514446,1.0,7.928323088895666e-09,6.285830700191613e-17
"(23037796, 23037797)",109,-73.8056485757223,-73.6112971514446,1.0,1.0180168357854299e-08,1.0363582779425792e-16
"(23037797, 23428529)",110,-72.8056485757223,-72.6112971514446,390732.0,0.005107490425361356,6.676304588607517e-11
"(23428529, 23428530)",111,-71.8056485757223,-71.6112971514446,1.0,1.6784260110902778e-08,2.8171138747044216e-16
"(23428530, 23428531)",112,-70.8056485757223,-70.6112971514446,1.0,2.155141658269738e-08,4.644635567209635e-16
"(23428531, 23428532)",113,-69.8056485757223,-69.6112971514446,1.0,2.7672566657809102e-08,7.657709454308881e-16
"(23428532, 23672739)",114,-68.8056485757223,-68.6112971514446,244207.0,0.008677231241540741,3.083218008458835e-10
"(23672739, 24356527)",115,-67.8056485757223,-67.6112971514446,683788.0,0.031197382534256482,1.4233602768529592e-09
"(24356527, 24454211)",116,-66.8056485757223,-66.6112971514446,97684.0,0.0057226045868736496,3.3524633775958533e-10
"(24454211, 24454212)",117,-65.8056485757223,-65.6112971514446,1.0,7.522183509274413e-08,5.658324474719994e-15
"(24454212, 24698421)",118,-64.8056485757223,-64.6112971514446,244209.0,0.023587353178713612,2.2782257409733926e-09
"(24698421, 24698422)",119,-63.8056485757223,-63.6112971514446,1.0,1.240198395385046e-07,1.538092059915643e-14
"(24698422, 25235683)",120,-62.8056485757223,-62.6112971514446,537261.0,0.08555592708512649,1.3624321622815504e-08
"(25235683, 25235684)",121,-61.8056485757223,-61.6112971514446,1.0,2.0447414743594931e-07,4.180967696965834e-14
"(25235684, 25431051)",122,-60.8056485757223,-60.6112971514446,195367.0,0.05129360631171386,1.3467136458363448e-08
"(25431051, 25479893)",123,-59.8056485757223,-59.6112971514446,48842.0,0.016465657834672884,5.550916996202542e-09
"(25479893, 26114839)",124,-58.8056485757223,-58.6112971514446,634946.0,0.27485020110864716,1.1897489400588991e-07
"(26114839, 26359049)",125,-57.8056485757223,-57.6112971514446,244210.0,0.135736401540477,7.54447840103092e-08
"(26359049, 26505575)",126,-56.8056485757223,-56.6112971514446,146526.0,0.10457339372862334,7.46324520967042e-08
"(26505575, 26505576)",127,-55.8056485757223,-55.6112971514446,1.0,9.163895517303882e-07,8.397698105206216e-13
"(26505576, 26505577)",128,-54.8056485757223,-54.6112971514446,1.0,1.176667476008904e-06,1.3845463490971652e-12
"(26505577, 26603259)",129,-53.8056485757223,-53.6112971514446,97682.0,0.1475848957652672,2.2298173110752023e-07
"(26603259, 26749785)",130,-52.8056485757223,-52.6112971514446,146526.0,0.2842599559128099,5.514633753433018e-07
"(26749785, 26847469)",131,-51.8056485757223,-51.6112971514446,97684.0,0.24333133889238984,6.061395979603935e-07
"(26847469, 27628941)",132,-50.8056485757223,-50.6112971514446,781472.0,2.4995489905158954,7.994841985367399e-06
"(27628941, 27824309)",133,-49.8056485757223,-49.6112971514446,195368.0,0.802371108519649,3.2953165092904176e-06
"(27824309, 28361571)",134,-48.8056485757223,-48.6112971514446,537262.0,2.833228466626655,1.4940910662030125e-05
"(28361571, 29387253)",135,-47.8056485757223,-47.6112971514446,1025682.0,6.945153146460827,4.7027394677682486e-05
"(29387253, 29533779)",136,-46.8056485757223,-46.6112971514446,146526.0,1.2739647375492205,1.1076437987243587e-05
"(29533779, 29582621)",137,-45.8056485757223,-45.6112971514446,48842.0,0.5452677009923756,6.087319637719805e-06
"(29582621, 30071041)",138,-44.8056485757223,-44.6112971514446,488420.0,7.00137586973102,0.00010036293368259242
"(30071041, 30315251)",139,-43.8056485757223,-43.6112971514446,244210.0,4.494972284259435,8.273525177617825e-05
"(30315251, 30315252)",140,-42.8056485757223,-42.6112971514446,1.0,2.3633998035690884e-05,5.585658631510406e-10
"(30315252, 30510619)",141,-41.8056485757223,-41.6112971514446,195367.0,5.928734786358684,0.00017991726426151575
"(30510619, 30657145)",142,-40.8056485757223,-40.6112971514446,146526.0,5.709513840270442,0.00022247620417017959
"(30657145, 30999039)",143,-39.8056485757223,-39.6112971514446,341894.0,17.10604207162126,0.0008558695834266657
"(30999039, 30999040)",144,-38.8056485757223,-38.6112971514446,1.0,6.42438673942553e-05,4.12727449777066e-09
"(30999040, 30999041)",145,-37.8056485757223,-37.6112971514446,1.0,8.249075860054068e-05,6.804725254492675e-09
"(30999041, 30999042)",146,-36.8056485757223,-36.6112971514446,1.0,0.00010592023068494713,1.1219095268352416e-08
"(30999042, 31096723)",147,-35.8056485757223,-35.6112971514446,97681.0,13.285032935807545,0.0018068211843192763
"(31096723, 31096724)",148,-34.8056485757223,-34.6112971514446,1.0,0.00017463293732773675,3.049666279971323e-08
"(31096724, 31096725)",149,-33.8056485757223,-33.6112971514446,1.0,0.00022423313011965141,5.028049664325652e-08
"(31096725, 31438617)",150,-32.8056485757223,-32.6112971514446,341892.0,98.43789963914162,0.028342342275823117
"(31438617, 31682827)",151,-31.8056485757223,-31.611297151444603,244210.0,90.28393178419812,0.03337778280338126
"(31682827, 32610825)",152,-30.8056485757223,-30.611297151444603,927998.0,440.5220798917679,0.2091165098116258
"(32610825, 32610826)",153,-29.8056485757223,-29.611297151444603,1.0,0.000609528842942741,3.7152541037911667e-07
"(32610826, 32610827)",154,-28.8056485757223,-28.611297151444603,1.0,0.00078265052654275,6.125418466976438e-07
"(32610827, 32806193)",155,-27.8056485757223,-27.611297151444603,195366.0,196.33172705032047,0.1973022278521418
"(32806193, 32806194)",156,-26.8056485757223,-26.611297151444603,1.0,0.001290372570635687,1.6650613710489514e-06
"(32806194, 32952719)",157,-25.8056485757223,-25.611297151444603,146525.0,242.7730493114551,0.40224366812477214
"(32952719, 32952720)",158,-24.8056485757223,-24.611297151444603,1.0,0.0021274647043350607,4.5261060681914686e-06
"(32952720, 33489981)",159,-23.8056485757223,-23.611297151444603,537261.0,1467.6459492092754,4.009195962912618
"(33489981, 33783033)",160,-22.8056485757223,-22.611297151444603,293052.0,1027.908114043542,3.6054867085587237
"(33783033, 33783034)",161,-21.8056485757223,-21.611297151444603,1.0,0.004503842814420202,2.0284600097004496e-05
"(33783034, 33783035)",162,-20.8056485757223,-20.611297151444603,1.0,0.005783048646481992,3.34436516475772e-05
"(33783035, 33978401)",163,-19.8056485757223,-19.611297151444603,195366.0,1450.706145174758,10.772336638144848
"(33978401, 34076085)",164,-18.8056485757223,-18.611297151444603,97684.0,931.3813159100558,8.880381184496411
"(34076085, 34076086)",165,-17.8056485757223,-17.611297151444603,1.0,0.012242714080674282,0.00014988404806114033
"(34076086, 34076087)",166,-16.8056485757223,-16.611297151444603,1.0,0.015719956048826676,0.0002471170181770424
"(34076087, 34173769)",167,-15.805648575722302,-15.611297151444603,97682.0,1971.6938916080912,39.79829244082492
"(34173769, 35297135)",168,-14.805648575722302,-14.611297151444603,1123366.0,29115.204423652653,754.6027996495202
"(35297135, 35297136)",169,-13.805648575722302,-13.611297151444603,1.0,0.033279147216516584,0.0011075016394585836
"(35297136, 35785555)",170,-12.805648575722302,-12.611297151444603,488419.0,20870.764587885038,891.8342949044082
"(35785555, 35834397)",171,-11.805648575722302,-11.611297151444603,48842.0,2679.864706458873,147.03891824503302
"(35834397, 35834398)",172,-10.805648575722302,-10.611297151444603,1.0,0.07045195521022125,0.004963477992943022
"(35834398, 35883239)",173,-9.805648575722302,-9.611297151444603,48841.0,4418.259482036155,399.68503615000475
"(35883239, 35883240)",174,-8.805648575722302,-8.611297151444603,1.0,0.11615563711750451,0.01349213203417339
"(35883240, 36811237)",175,-7.8056485757223015,-7.611297151444603,927997.0,138407.77400483153,20643.07525236883
"(36811237, 37690393)",176,-6.8056485757223015,-6.611297151444603,879156.0,168365.6442925069,32243.413203152755
"(37690393, 38032287)",177,-5.8056485757223015,-5.611297151444603,341894.0,84072.24255445022,20673.489350893284
"(38032287, 38032288)",178,-4.8056485757223015,-4.611297151444603,1.0,0.3157437576495955,0.09969412049468648
"(38032288, 38471865)",179,-3.8056485757223015,-3.611297151444603,439577.0,178214.63045911043,72252.31190366486
"(38471865, 38618391)",180,-2.8056485757223015,-2.611297151444603,146526.0,76277.54523618682,39708.06482984949
"(38618391, 39204495)",181,-1.8056485757223015,-1.611297151444603,586104.0,391769.2272232513,261870.12441325007
"(39204495, 39204496)",182,-0.8056485757223015,-0.6112971514446031,1.0,0.8582805188682721,0.7366454490687905
"(39204496, 39302179)",183,-0.19435142427769847,0.0,97683.0,97683.0,97683.0
"(39302179, 39302180)",184,-1.1943514242776985,-1.0,1.0,0.7788007830714049,0.6065306597126334
"(39302180, 39302181)",185,-2.1943514242776985,-2.0,1.0,0.6065306597126334,0.3678794411714424
"(39302181, 39302182)",186,-3.1943514242776985,-3.0,1.0,0.4723665527410147,0.22313016014842982
"(39302182, 39448705)",187,-4.1943514242776985,-4.0,146523.0,53902.79935876325,19829.731705678198
"(39448705, 39497547)",188,-5.1943514242776985,-5.0,48842.0,13993.467288245405,4009.195502788465
"(39497547, 39546389)",189,-6.1943514242776985,-6.0,48842.0,10898.123281969609,2431.6999932232106
"(39546389, 39888283)",190,-7.1943514242776985,-7.0,341894.0,59412.26862204648,10324.304207790161
"(39888283, 40669755)",191,-8.194351424277698,-8.0,781472.0,105760.73446148218,14313.158953656875
"(40669755, 41011649)",192,-9.194351424277698,-9.0,341894.0,36035.362482354045,3798.0992624458154
"(41011649, 41011650)",193,-10.194351424277698,-10.0,1.0,0.0820849986238988,0.006737946999085467
"(41011650, 41011651)",194,-11.194351424277698,-11.0,1.0,0.06392786120670757,0.004086771438464067
"(41011651, 41011652)",195,-12.194351424277698,-12.0,1.0,0.04978706836786394,0.0024787521766663585
"(41011652, 41011653)",196,-13.194351424277698,-13.0,1.0,0.03877420783172201,0.0015034391929775726
"(41011653, 41011654)",197,-14.194351424277698,-14.0,1.0,0.0301973834223185,0.0009118819655545162
"(41011654, 41011655)",198,-15.194351424277698,-15.0,1.0,0.02351774585600911,0.0005530843701478336
"(41011655, 41890805)",199,-16.1943514242777,-16.0,879150.0,16102.193929030653,294.92196932049325
"(41890805, 42232699)",200,-17.1943514242777,-17.0,341894.0,4876.855988083392,69.56461455452518
"(42232699, 42232700)",201,-18.1943514242777,-18.0,1.0,0.011108996538242308,0.00012340980408667956
"(42232700, 42232701)",202,-19.1943514242777,-19.0,1.0,0.008651695203120634,7.485182988770058e-05
"(42232701, 42232702)",203,-20.1943514242777,-20.0,1.0,0.006737946999085467,4.5399929762484854e-05
"(42232702, 42330383)",204,-21.1943514242777,-21.0,97681.0,512.5828447504368,2.689787908932652
"(42330383, 42330384)",205,-22.1943514242777,-22.0,1.0,0.004086771438464067,1.670170079024566e-05
"(42330384, 42476909)",206,-23.1943514242777,-23.0,146525.0,466.35695620857894,1.4843119645393648
"(42476909, 42623435)",207,-24.1943514242777,-24.0,146526.0,363.20164143821484,0.9002868592837693
"(42623435, 42818803)",208,-25.1943514242777,-25.0,195368.0,377.1489636865351,0.7280687769226659
"(42818803, 43307223)",209,-26.1943514242777,-26.0,488420.0,734.309770634106,1.1039900889576866
"(43307223, 44186379)",210,-27.1943514242777,-27.0,879156.0,1029.3858438962857,1.205286906549086
"(44186379, 44186380)",211,-28.1943514242777,-28.0,1.0,0.0009118819655545162,8.315287191035679e-07
"(44186380, 44186381)",212,-29.1943514242777,-29.0,1.0,0.0007101743888425491,5.04347662567888e-07
"(44186381, 44186382)",213,-30.1943514242777,-30.0,1.0,0.0005530843701478336,3.059023205018258e-07
"(44186382, 44723641)",214,-31.1943514242777,-31.0,537259.0,231.4203066071533,0.09968257080876977
"(44723641, 45212061)",215,-32.1943514242777,-32.0,488420.0,163.8466567201448,0.05496443003638054
"(45212061, 45651639)",216,-33.1943514242777,-33.0,439578.0,114.84351410155242,0.030003850809625296
"(45651639, 46140059)",217,-34.1943514242777,-34.0,488420.0,99.37802079217883,0.020220283806090512
"(46140059, 46188901)",218,-35.1943514242777,-35.0,48842.0,7.739568041303523,0.0012264222076484755
"(46188901, 47312267)",219,-36.1943514242777,-36.0,1123366.0,138.63437797763686,0.017108841425898847
"(47312267, 47556477)",220,-37.1943514242777,-37.0,244210.0,23.471426549913197,0.002255877581949839
"(47556477, 47849529)",221,-38.1943514242777,-38.0,293052.0,21.935478452250432,0.0016419107016131713
"(47849529, 48044897)",222,-39.1943514242777,-39.0,195368.0,11.388911863772378,0.000663912787359113
"(48044897, 48191423)",223,-40.1943514242777,-40.0,146526.0,6.652270108377856,0.0003020125956814321
"(48191423, 48435633)",224,-41.1943514242777,-41.0,244210.0,8.634655282678622,0.0003052998315003064
"(48435633, 48484475)",225,-42.1943514242777,-42.0,48842.0,1.3449352591403507,3.703474164200733e-05
"(48484475, 48533317)",226,-43.1943514242777,-43.0,48842.0,1.047436632998848,2.2462706280413646e-05
"(48533317, 48533318)",227,-44.1943514242777,-44.0,1.0,1.670170079024566e-05,2.7894680928689246e-10
"(48533318, 48582159)",228,-45.1943514242777,-45.0,48841.0,0.6352894247223166,8.263398643844559e-06
"(48582159, 49217105)",229,-46.1943514242777,-46.0,634946.0,6.432062410076175,6.515739424630589e-05
"(49217105, 49217106)",230,-47.1943514242777,-47.0,1.0,7.889324827200223e-06,6.224144622907783e-11
"(49217106, 50193945)",231,-48.1943514242777,-48.0,976839.0,6.001906251012775,3.6876986530990495e-05
"(50193945, 50926575)",232,-49.1943514242777,-49.0,732630.0,3.5057205549954755,1.6775284399653016e-05
"(50926575, 51170785)",233,-50.1943514242777,-50.0,244210.0,0.9100859711533323,3.3915747712628635e-06
"(51170785, 51756889)",234,-51.1943514242777,-51.0,586104.0,1.7010616007916364,4.937025800349092e-06
"(51756889, 51756890)",235,-52.1943514242777,-52.0,1.0,2.2603294069810542e-06,5.109089028063324e-12
"(51756890, 52977939)",236,-53.1943514242777,-53.0,1221049.0,2.1494691041119784,3.783810010517146e-06
"(52977939, 53417517)",237,-54.1943514242777,-54.0,439578.0,0.602643453274543,8.261995181166171e-07
"(53417517, 53612885)",238,-55.1943514242777,-55.0,195368.0,0.20859519703247542,2.2271792834556962e-07
"(53612885, 53612886)",239,-56.1943514242777,-56.0,1.0,8.315287191035679e-07,6.914400106940203e-13
"(53612886, 54296673)",240,-57.1943514242777,-57.0,683787.0,0.44281719104626166,2.8676629518563736e-07
"(54296673, 54638567)",241,-58.1943514242777,-58.0,341894.0,0.17243343974598552,8.696640228442858e-08
"(54638567, 54638568)",242,-59.1943514242777,-59.0,1.0,3.927863545481039e-07,1.5428112031918877e-13
"(54638568, 55078145)",243,-60.1943514242777,-60.0,439577.0,0.13446762433923107,4.113395831773858e-08
"(55078145, 55761933)",244,-61.1943514242777,-61.0,683788.0,0.16290357902017333,3.880965453851464e-08
"(55761933, 55761934)",245,-62.1943514242777,-62.0,1.0,1.855391362615978e-07,3.442477108469976e-14
"(55761934, 56054985)",246,-63.1943514242777,-63.0,293051.0,0.04234529061025603,6.118810844757525e-09
"(56054985, 57129509)",247,-64.1943514242777,-64.0,1074524.0,0.12092174608003718,1.360794982247487e-08
"(57129509, 57178351)",248,-65.1943514242777,-65.0,48842.0,0.004280634115340662,3.751653992346407e-10
"(57178351, 57422561)",249,-66.1943514242777,-66.0,244210.0,0.016668806005347387,1.1377465854957005e-09
"(57422561, 58252875)",250,-67.1943514242777,-67.0,830314.0,0.044137709177421595,2.3462658360941115e-09
"(58252875, 58301717)",251,-68.1943514242777,-68.0,48842.0,0.002022028380609051,8.3710715613375e-11
"(58301717, 58399401)",252,-69.1943514242777,-69.0,97684.0,0.003149514572421867,1.0154623113199396e-10
"(58399401, 59034347)",253,-70.1943514242777,-70.0,634946.0,0.015943488699430183,4.0034086663882906e-10
"(59034347, 59034348)",254,-71.1943514242777,-71.0,1.0,1.9555681087850496e-08,3.824246628097135e-16
"(59034348, 59327399)",255,-72.1943514242777,-72.0,293051.0,0.004463160794167781,6.797384849257081e-11
"(59327399, 60304239)",256,-73.1943514242777,-73.0,976840.0,0.011586416608638708,1.374278795185894e-10
"(60304239, 60988027)",257,-74.1943514242777,-74.0,683788.0,0.006316457229459549,5.834795569912284e-11
"(60988027, 61378763)",258,-75.1943514242777,-75.0,390736.0,0.0028110067637372193,2.022275660746999e-11
"(61378763, 61916025)",259,-76.1943514242777,-76.0,537262.0,0.0030101696196241476,1.6865367621213086e-11
"(61916025, 62013709)",260,-77.1943514242777,-77.0,97684.0,0.00042624044671655246,1.8598840999255383e-12
"(62013709, 62013710)",261,-78.1943514242777,-78.0,1.0,3.398267819495071e-09,1.1548224173015786e-17
"(62013710, 62111393)",262,-79.1943514242777,-79.0,97683.0,0.0002585252527695593,6.842061189722317e-13
"(62111393, 62111394)",263,-80.1943514242777,-80.0,1.0,2.061153622438558e-09,4.248354255291589e-18
"(62111394, 62453287)",264,-81.1943514242777,-81.0,341893.0,0.0005488162354715744,8.809752183203239e-13
"(62453287, 62502129)",265,-82.1943514242777,-82.0,48842.0,6.105996630006127e-05,7.633429189149953e-14
"(62502129, 62502130)",266,-83.1943514242777,-83.0,1.0,9.736200313009565e-10,9.479359653504757e-19
"(62502130, 62502131)",267,-84.1943514242777,-84.0,1.0,7.582560427911907e-10,5.74952226429356e-19
"(62502131, 62502132)",268,-85.1943514242777,-85.0,1.0,5.905303998944039e-10,3.4872615319944465e-19
"(62502132, 62502133)",269,-86.1943514242777,-86.0,1.0,4.599055378652317e-10,2.1151310375910807e-19
"(62502133, 62502134)",270,-87.1943514242777,-87.0,1.0,3.581747930283181e-10,1.282891823608785e-19
"(62502134, 62746339)",271,-88.1943514242777,-88.0,244205.0,6.812020556190557e-05,1.9001913989460787e-14
"(62746339, 63137075)",272,-89.1943514242777,-89.0,390736.0,8.488504904730348e-05,1.8440767044150313e-14
"(63137075, 63527811)",273,-90.1943514242777,-90.0,390736.0,6.610854266909455e-05,1.118489060089548e-14
"(63527811, 63625495)",274,-91.1943514242777,-91.0,97684.0,1.2871346199600057e-05,1.695994768743692e-15
"(63625495, 64406967)",275,-92.1943514242777,-92.0,781472.0,8.019371599545339e-05,8.229382607642293e-15
"(64406967, 64700019)",276,-93.1943514242777,-93.0,293052.0,2.3420598305499355e-05,1.871764823265357e-15
"(64700019, 64700020)",277,-94.1943514242777,-94.0,1.0,6.224144622907783e-11,3.873997628687187e-21
"(64700020, 65237281)",278,-95.1943514242777,-95.0,537261.0,2.6043021584994637e-05,1.262401278478238e-15
"(65237281, 65334965)",279,-96.1943514242777,-96.0,97684.0,3.6877024282335937e-06,1.3921572825846548e-16
"(65334965, 65334966)",280,-97.1943514242777,-97.0,1.0,2.9400777392844726e-11,8.644057113036095e-22
"(65334966, 65334967)",281,-98.1943514242777,-98.0,1.0,2.289734845645553e-11,5.242885663363464e-22
"(65334967, 65334968)",282,-99.1943514242777,-99.0,1.0,1.783247290814639e-11,3.1799709001977496e-22
"(65334968, 65334969)",283,-100.1943514242777,-100.0,1.0,1.3887943864964021e-11,1.9287498479639178e-22
"(65334969, 65334970)",284,-101.1943514242777,-101.0,1.0,1.0815941557285693e-11,1.1698459177061964e-22
"(65334970, 65334971)",285,-102.1943514242777,-102.0,1.0,8.423463754468647e-12,7.095474162284704e-23
"(65334971, 65334972)",286,-103.1943514242777,-103.0,1.0,6.560200168153779e-12,4.3036226246244867e-23
"(65334972, 65334973)",287,-104.1943514242777,-104.0,1.0,5.109089028063324e-12,2.610279069667705e-23
"(65334973, 65481491)",288,-105.1943514242777,-105.0,146518.0,5.829896328258007e-07,2.3196939077953697e-18
"(65481491, 65676859)",289,-106.1943514242777,-106.0,195368.0,6.054100974938055e-07,1.876056396889251e-18
"(65676859, 65676860)",290,-107.1943514242777,-107.0,1.0,2.4133627718332143e-12,5.824319868470494e-24
"(65676860, 65676861)",291,-108.1943514242777,-108.0,1.0,1.8795288165390832e-12,3.532628572200807e-24
"(65676861, 65676862)",292,-109.1943514242777,-109.0,1.0,1.463778514125909e-12,2.1426475384166538e-24
"(65676862, 65676863)",293,-110.1943514242777,-110.0,1.0,1.1399918530443554e-12,1.2995814250075031e-24
"(65676863, 65676864)",294,-111.1943514242777,-111.0,1.0,8.878265478459659e-13,7.882359790600851e-25
"(65676864, 66165279)",295,-112.1943514242777,-112.0,488415.0,3.3770967282311994e-07,2.3350597978829214e-19
"(66165279, 66165280)",296,-113.1943514242777,-113.0,1.0,5.384940217754036e-13,2.899758114878488e-25
"(66165280, 66653699)",297,-114.1943514242777,-114.0,488419.0,2.0483294816700789e-07,8.590275287158798e-20
"(66653699, 66702541)",298,-115.1943514242777,-115.0,48842.0,1.595243870444245e-08,5.2102760046475064e-21
"(66702541, 66849067)",299,-116.1943514242777,-116.0,146526.0,3.7271315264755104e-08,9.480576427151266e-21
"(66849067, 67435171)",300,-117.1943514242777,-117.0,586104.0,1.161077180571699e-07,2.3001041099264397e-20
"(67435171, 67435172)",301,-118.1943514242777,-118.0,1.0,1.5428112031918877e-13,2.3802664086944007e-26
"(67435172, 67874749)",302,-119.1943514242777,-119.0,439577.0,5.2817047968950457e-08,6.346193172423522e-21
"(67874749, 67874750)",303,-120.1943514242777,-120.0,1.0,9.357622968840175e-14,8.75651076269652e-27
"(67874750, 67874751)",304,-121.1943514242777,-121.0,1.0,7.287724095819692e-14,5.311092249679095e-27
"(67874751, 67923591)",305,-122.1943514242777,-122.0,48840.0,2.772004667617822e-09,1.573302595678745e-22
"(67923591, 69046957)",306,-123.1943514242777,-123.0,1123366.0,4.96553396387497e-08,2.1948792776704894e-21
"(69046957, 69046958)",307,-124.1943514242777,-124.0,1.0,3.442477108469976e-14,1.1850648642339812e-27
"(69046958, 69046959)",308,-125.1943514242777,-125.0,1.0,2.6810038677818034e-14,7.187781739060989e-28
"(69046959, 69437693)",309,-126.1943514242777,-126.0,390734.0,8.158400539890623e-09,1.703447853764648e-22
"(69437693, 69437694)",310,-127.1943514242777,-127.0,1.0,1.626111044617819e-14,2.6442371294280543e-28
"(69437694, 69633061)",311,-128.1943514242777,-128.0,195367.0,2.4741600308298818e-09,3.133317222538157e-23
"(69633061, 69877271)",312,-129.1943514242777,-129.0,244210.0,2.408609540395412e-09,2.37557836209975e-23
"(69877271, 70121481)",313,-130.1943514242777,-130.0,244210.0,1.875826996173203e-09,1.4408611111634183e-23
"(70121481, 70121482)",314,-131.1943514242777,-131.0,1.0,5.9821282237671354e-15,3.5785858085591347e-29
"(70121482, 70121483)",315,-132.1943514242777,-132.0,1.0,4.658886145103397e-15,2.1705220113036395e-29
"(70121483, 70121484)",316,-133.1943514242777,-133.0,1.0,3.628344178047045e-15,1.3164881474367886e-29
"(70121484, 70121485)",317,-134.1943514242777,-134.0,1.0,2.825757287115611e-15,7.984904245686979e-30
"(70121485, 70121486)",318,-135.1943514242777,-135.0,1.0,2.200701987975367e-15,4.843089239878731e-30
"(70121486, 70121487)",319,-136.1943514242777,-136.0,1.0,1.713908431542013e-15,2.9374821117108028e-30
"(70121487, 70170323)",320,-137.1943514242777,-137.0,48836.0,6.518596211179255e-11,8.700978082644058e-26
"(70170323, 70170324)",321,-138.1943514242777,-138.0,1.0,1.039538011670222e-15,1.0806392777072785e-30
"(70170324, 70854111)",322,-139.1943514242777,-139.0,683787.0,5.535891806718098e-10,4.481819352472125e-25
"(70854111, 70854112)",323,-140.1943514242777,-140.0,1.0,6.30511676014699e-16,3.975449735908647e-31
"(70854112, 71000637)",324,-141.1943514242777,-141.0,146525.0,7.195007367250644e-11,3.533057909216245e-26
"(71000637, 71098321)",325,-142.1943514242777,-142.0,97684.0,3.735677076190405e-11,1.4286150462280925e-26
"(71098321, 72368213)",326,-143.1943514242777,-143.0,1269892.0,3.7821527019106795e-10,1.126448474403355e-25
"(72368213, 72465897)",327,-144.1943514242777,-144.0,97684.0,2.265802681495128e-11,5.255581048555049e-27
"(72465897, 72465898)",328,-145.1943514242777,-145.0,1.0,1.8064461965456932e-16,3.263247861014401e-32
"(72465898, 72758949)",329,-146.1943514242777,-146.0,293051.0,4.122822316940557e-11,5.800240864922183e-27
"(72758949, 72758950)",330,-147.1943514242777,-147.0,1.0,1.0956650033262368e-16,1.2004817995138824e-32
"(72758950, 73003159)",331,-148.1943514242777,-148.0,244209.0,2.0838470276353328e-11,1.7781565931577504e-27
"(73003159, 73149685)",332,-149.1943514242777,-149.0,146526.0,9.737450054805536e-12,6.471065447076447e-28
"(73149685, 73149686)",333,-150.1943514242777,-150.0,1.0,5.175555005801869e-17,2.6786369618080778e-33
"(73149686, 73296211)",334,-151.1943514242777,-151.0,146525.0,5.906021698397108e-12,2.380555693699877e-28
"(73296211, 73393895)",335,-152.1943514242777,-152.0,97684.0,3.0664304765841972e-12,9.625932463580921e-29
"(73393895, 74028841)",336,-153.1943514242777,-153.0,634946.0,1.552289996658566e-11,3.794975058865244e-28
"(74028841, 74370735)",337,-154.1943514242777,-154.0,341894.0,6.509594349739384e-12,1.2394139294096682e-28
"(74370735, 74370736)",338,-155.1943514242777,-155.0,1.0,1.4828213355760042e-17,2.1987591132394053e-34
"(74370736, 74370737)",339,-156.1943514242777,-156.0,1.0,1.1548224173015786e-17,1.3336148155022614e-34
"(74370737, 74370738)",340,-157.1943514242777,-157.0,1.0,8.993766029028821e-18,8.088782738491285e-35
"(74370738, 74468419)",341,-158.1943514242777,-158.0,97681.0,6.841921102681794e-13,4.792322393845524e-30
"(74468419, 74468420)",342,-159.1943514242777,-159.0,1.0,5.454994842887922e-18,2.9756968735933825e-35
"(74468420, 74468421)",343,-160.1943514242777,-160.0,1.0,4.248354255291589e-18,1.8048513878454153e-35
"(74468421, 74468422)",344,-161.1943514242777,-161.0,1.0,3.308621620785825e-18,1.0946977029531417e-35
"(74468422, 74468423)",345,-162.1943514242777,-162.0,1.0,2.576757109154981e-18,6.639677199580735e-36
"(74468423, 74614945)",346,-163.1943514242777,-163.0,146522.0,2.9403748573882145e-13,5.900686792400299e-31
"(74614945, 74614946)",347,-164.1943514242777,-164.0,1.0,1.5628821893349888e-18,2.4426007377405277e-36
"(74614946, 74614947)",348,-165.1943514242777,-165.0,1.0,1.2171738729024408e-18,1.4815122368763274e-36
"(74614947, 74614948)",349,-166.1943514242777,-166.0,1.0,9.479359653504757e-19,8.985825944049381e-37
"(74614948, 74712629)",350,-167.1943514242777,-167.0,97681.0,7.211331787361169e-14,5.323789288337101e-32
"(74712629, 74712630)",351,-168.1943514242777,-168.0,1.0,5.74952226429356e-19,3.3057006267607343e-37
"(74712630, 75103365)",352,-169.1943514242777,-169.0,390735.0,1.7496067856148005e-13,7.834271064197868e-32
"(75103365, 75103366)",353,-170.1943514242777,-170.0,1.0,3.4872615319944465e-19,1.2160992992528256e-37
"(75103366, 76226731)",354,-171.1943514242777,-171.0,1123365.0,3.050926796289126e-13,8.285957205641115e-32
"(76226731, 76373257)",355,-172.1943514242777,-172.0,146526.0,3.099216904140707e-14,6.555249866174949e-33
"(76373257, 76422099)",356,-173.1943514242777,-173.0,48842.0,8.045575172843059e-15,1.3253200086374145e-33
"(76422099, 76422100)",357,-174.1943514242777,-174.0,1.0,1.282891823608785e-19,1.6458114310822734e-38
"(76422100, 76763993)",358,-175.1943514242777,-175.0,341893.0,3.415911620974891e-14,3.4128959067051115e-33
"(76763993, 76763994)",359,-176.1943514242777,-176.0,1.0,7.781132241133797e-20,6.054601895401186e-39
"(76763994, 76763995)",360,-177.1943514242777,-177.0,1.0,6.059951882577157e-20,3.6723016819150416e-39
"(76763995, 76861677)",361,-178.1943514242777,-178.0,97682.0,4.610097371132147e-15,2.1757332744333186e-34
"(76861677, 76861678)",362,-179.1943514242777,-179.0,1.0,3.675546613166337e-20,1.3509642905558533e-39
"(76861678, 77008203)",363,-180.1943514242777,-180.0,146525.0,4.194305350149999e-15,1.2006276997302104e-34
"(77008203, 77545465)",364,-181.1943514242777,-181.0,537262.0,1.1977352142999918e-14,2.6701490959238645e-34
"(77545465, 77545466)",365,-182.1943514242777,-182.0,1.0,1.7362052831002947e-20,3.0144087850653746e-40
"(77545466, 77545467)",366,-183.1943514242777,-183.0,1.0,1.3521580340512199e-20,1.8283313490492596e-40
"(77545467, 77545468)",367,-184.1943514242777,-184.0,1.0,1.0530617357553812e-20,1.1089390193121363e-40
"(77545468, 77740833)",368,-185.1943514242777,-185.0,195365.0,1.6022378009973716e-15,1.3140357643103385e-35
"(77740833, 78131569)",369,-186.1943514242777,-186.0,390736.0,2.495686431020476e-15,1.5940304353782913e-35
"(78131569, 78326937)",370,-187.1943514242777,-187.0,195368.0,9.71821273389713e-16,4.834141657860055e-36
"(78326937, 78326938)",371,-188.1943514242777,-188.0,1.0,3.873997628687187e-21,1.5007857627073948e-41
"(78326938, 78864199)",372,-189.1943514242777,-189.0,537261.0,1.620955327625157e-15,4.890539559276367e-36
"(78864199, 78913041)",373,-190.1943514242777,-190.0,48842.0,1.1476396619787048e-16,2.6966070057462763e-37
"(78913041, 79010725)",374,-191.1943514242777,-191.0,97684.0,1.7875653348656355e-16,3.2711496523619955e-37
"(79010725, 79352619)",375,-192.1943514242777,-192.0,341894.0,4.872550489046292e-16,6.944183948330555e-37
"(79352619, 79547987)",376,-193.1943514242777,-193.0,195368.0,2.1684263636709768e-16,2.4067774121981776e-37
"(79547987, 79547988)",377,-194.1943514242777,-194.0,1.0,8.644057113036095e-22,7.47197233734299e-43
"(79547988, 79987565)",378,-195.1943514242777,-195.0,439577.0,2.9592316820167063e-16,1.992154309222599e-37
"(79987565, 79987566)",379,-196.1943514242777,-196.0,1.0,5.242885663363464e-22,2.748785007910215e-43
"(79987566, 80475985)",380,-197.1943514242777,-197.0,488419.0,1.994294614058294e-16,8.14303089695921e-38
"(80475985, 81257457)",381,-198.1943514242777,-198.0,781472.0,2.4850582193193355e-16,7.902412822732724e-38
"(81257457, 81355141)",382,-199.1943514242777,-199.0,97684.0,2.419206608979912e-17,5.991319578367066e-39
"(81355141, 81550509)",383,-200.1943514242777,-200.0,195368.0,3.768160002970147e-17,7.267838032832387e-39
"(81550509, 82087771)",384,-201.1943514242777,-201.0,537262.0,8.07027639289162e-17,1.2122458141030588e-38
"(82087771, 82087772)",385,-202.1943514242777,-202.0,1.0,1.1698459177061964e-22,1.368539471173853e-44
"(82087772, 83894925)",386,-203.1943514242777,-203.0,1807153.0,1.6464553833941948e-16,1.500047494322686e-38
"(83894925, 84041451)",387,-204.1943514242777,-204.0,146526.0,1.0396714471029284e-17,7.376961890183978e-40
"(84041451, 84139135)",388,-205.1943514242777,-205.0,97684.0,5.397979580938276e-18,2.9829023746188288e-40
"(84139135, 84285661)",389,-206.1943514242777,-206.0,146526.0,6.3059260869572755e-18,2.7138326177039087e-40
"(84285661, 84285662)",390,-207.1943514242777,-207.0,1.0,3.351664670101365e-23,1.1233656060805691e-45
"(84285662, 84285663)",391,-208.1943514242777,-208.0,1.0,2.610279069667705e-23,6.813556821545299e-46
"(84285663, 84285664)",392,-209.1943514242777,-209.0,1.0,2.0328873834921067e-23,4.132631113961383e-46
"(84285664, 84578713)",393,-210.1943514242777,-210.0,293049.0,4.6395936334479405e-18,7.345470922450055e-41
"(84578713, 84676397)",394,-211.1943514242777,-211.0,97684.0,1.2044520483727119e-18,1.4850996445981133e-41
"(84676397, 84676398)",395,-212.1943514242777,-212.0,1.0,9.602680054508677e-24,9.221146422925874e-47
"(84676398, 85604395)",396,-213.1943514242777,-213.0,927997.0,6.940094928596723e-18,5.190201866809261e-41
"(85604395, 86532393)",397,-214.1943514242777,-214.0,927998.0,5.404957189300882e-18,3.148019954587756e-41
"(86532393, 88193021)",398,-215.1943514242777,-215.0,1660628.0,7.532583490043587e-18,3.416768477616735e-41
"(88193021, 88290705)",399,-216.1943514242777,-216.0,97684.0,3.4508128944686366e-19,1.2190440228318871e-42
"(88290705, 88290706)",400,-217.1943514242777,-217.0,1.0,2.7512138983304072e-24,7.569177914366397e-48
"(88290706, 88388389)",401,-218.1943514242777,-218.0,97683.0,2.09300239495154e-19,4.484566429443078e-43
"(88388389, 88486073)",402,-219.1943514242777,-219.0,97684.0,1.6300485911143926e-19,2.720054880424652e-43
"(88486073, 89365229)",403,-220.1943514242777,-220.0,879156.0,1.1425348072838964e-18,1.4848170129706792e-42
"(89365229, 89755965)",404,-221.1943514242777,-221.0,390736.0,3.954697789329045e-19,4.002609077465101e-43
"(89755965, 89755966)",405,-222.1943514242777,-222.0,1.0,7.882359790600851e-25,6.213159586848109e-49
"(89755966, 89951333)",406,-223.1943514242777,-223.0,195367.0,1.199316590774942e-19,7.362350268510188e-44
"(89951333, 90244385)",407,-224.1943514242777,-224.0,293052.0,1.4010502214084043e-19,6.698271033497602e-44
"(90244385, 91025857)",408,-225.1943514242777,-225.0,781472.0,2.909704025480615e-19,1.0833884663683529e-43
"(91025857, 91172383)",409,-226.1943514242777,-226.0,146526.0,4.2488995754068536e-20,1.2320781023089787e-44
"(91172383, 91172384)",410,-227.1943514242777,-227.0,1.0,2.2583338905850276e-25,5.100071961364906e-50
"(91172384, 91172385)",411,-228.1943514242777,-228.0,1.0,1.7587922024243116e-25,3.093350011308561e-50
"(91172385, 91611961)",412,-229.1943514242777,-229.0,439576.0,6.021086741158199e-20,8.247376004274816e-45
"(91611961, 91611962)",413,-230.1943514242777,-230.0,1.0,1.0667613948338533e-25,1.1379798735078682e-50
"(91611962, 92246907)",414,-231.1943514242777,-231.0,634945.0,5.2750888342228205e-20,4.382515368881127e-45
"(92246907, 92246908)",415,-232.1943514242777,-232.0,1.0,6.47023492564546e-26,4.1863939993042314e-51
"(92246908, 92588801)",416,-233.1943514242777,-233.0,341893.0,1.7228070415771722e-20,8.681266075959108e-46
"(92588801, 93223747)",417,-234.1943514242777,-234.0,634946.0,2.4917794524203098e-20,9.77872896199686e-46
"(93223747, 93223748)",418,-235.1943514242777,-235.0,1.0,3.056322567251662e-26,9.341107635091788e-52
"(93223748, 93223749)",419,-236.1943514242777,-236.0,1.0,2.3802664086944007e-26,5.665668176358939e-52
"(93223749, 93223750)",420,-237.1943514242777,-237.0,1.0,1.85375334300976e-26,3.43640145671986e-52
"(93223750, 93223751)",421,-238.1943514242777,-238.0,1.0,1.4437045551572357e-26,2.0842828425817514e-52
"(93223751, 93223752)",422,-239.1943514242777,-239.0,1.0,1.1243582380802092e-26,1.2641814475388326e-52
"(93223752, 93223753)",423,-240.1943514242777,-240.0,1.0,8.75651076269652e-27,7.667648073722e-53
"(93223753, 93614483)",424,-241.1943514242777,-241.0,390730.0,2.664613492725323e-21,1.8171538058541314e-47
"(93614483, 93614484)",425,-242.1943514242777,-242.0,1.0,5.311092249679095e-27,2.8207700884601357e-53
"(93614484, 93614485)",426,-243.1943514242777,-243.0,1.0,4.136282803014549e-27,1.7108835426513892e-53
"(93614485, 93614486)",427,-244.1943514242777,-244.0,1.0,3.2213402859925163e-27,1.0377033238158347e-53
"(93614486, 93614487)",428,-245.1943514242777,-245.0,1.0,2.5087823372704347e-27,6.293988815800106e-54
"(93614487, 93614488)",429,-246.1943514242777,-246.0,1.0,1.953841648821924e-27,3.817497188671175e-54
"(93614488, 93712167)",430,-247.1943514242777,-247.0,97679.0,1.4863358305444574e-22,2.261687979156504e-49
"(93712167, 93712168)",431,-248.1943514242777,-248.0,1.0,1.1850648642339812e-27,1.4043787324419038e-54
"(93712168, 94542481)",432,-249.1943514242777,-249.0,830313.0,7.66320315648393e-22,7.072595830433256e-49
"(94542481, 94689007)",433,-250.1943514242777,-250.0,146526.0,1.0531969070976505e-22,7.570149496472004e-50
"(94689007, 95372795)",434,-251.1943514242777,-251.0,683788.0,3.827742687888148e-22,2.1427129585019315e-49
"(95372795, 95372796)",435,-252.1943514242777,-252.0,1.0,4.359610000063081e-28,1.9006199352650016e-55
"(95372796, 95372797)",436,-253.1943514242777,-253.0,1.0,3.3952676819350547e-28,1.152784263199264e-55
"(95372797, 95372798)",437,-254.1943514242777,-254.0,1.0,2.6442371294280543e-28,6.991989996645917e-56
"(95372798, 95372799)",438,-255.19435142427767,-254.99999999999997,1.0,2.059333947025067e-28,4.240856305369842e-56
"(95372799, 95519321)",439,-256.19435142427767,-255.99999999999997,146522.0,2.3499357930496917e-23,3.768852616983173e-51
"(95519321, 95714689)",440,-257.19435142427767,-257.0,195368.0,2.440242397015611e-23,3.0479827587898195e-51
"(95714689, 96300793)",441,-258.19435142427767,-258.0,586104.0,5.7013880690394e-23,5.546084980444564e-51
"(96300793, 96398477)",442,-259.19435142427767,-259.0,97684.0,7.400409154603082e-24,5.606450970018949e-52
"(96398477, 96691529)",443,-260.19435142427767,-260.0,293052.0,1.729033333396102e-23,1.020145321647638e-51
"(96691529, 97082265)",444,-261.19435142427767,-261.0,390736.0,1.7954300186739275e-23,8.249992199222646e-52
"(97082265, 97375317)",445,-262.19435142427767,-262.0,293052.0,1.0487117283698716e-23,3.752904908413944e-52
"(97375317, 97424159)",446,-263.19435142427767,-263.0,48842.0,1.3612291921177038e-24,3.7937531498984817e-53
"(97424159, 97424160)",447,-264.19435142427767,-264.0,1.0,2.1705220113036395e-29,4.7111658015535965e-58
"(97424160, 97424161)",448,-265.19435142427767,-265.0,1.0,1.690404242076995e-29,2.8574665016319002e-58
"(97424161, 97424162)",449,-266.19435142427767,-266.0,1.0,1.3164881474367886e-29,1.733141042341547e-58
"(97424162, 97619527)",450,-267.19435142427767,-267.0,195365.0,2.0030421795500554e-24,2.0536830921898172e-53
"(97619527, 98010263)",451,-268.19435142427767,-268.0,390736.0,3.1199895453427474e-24,2.491281776710629e-53
"(98010263, 98010264)",452,-269.19435142427767,-269.0,1.0,6.218649679291205e-30,3.8671603833748603e-59
"(98010264, 98596367)",453,-270.19435142427767,-270.0,586103.0,2.838549132760644e-24,1.3747346761740176e-53
"(98596367, 98889419)",454,-271.19435142427767,-271.0,293052.0,1.1053340295911694e-24,4.169100763592306e-54
"(98889419, 99524365)",455,-272.19435142427767,-272.0,634946.0,1.8651425169023276e-24,5.478822779191851e-54
"(99524365, 99817417)",456,-273.19435142427767,-273.0,293052.0,6.704189781707556e-25,1.533726459097771e-54
"(99817417, 99963943)",457,-274.19435142427767,-274.0,146526.0,2.6106141259265774e-25,4.6512606052764615e-55
"(99963943, 99963944)",458,-275.19435142427767,-275.0,1.0,1.3875682988472282e-30,1.925345783965791e-60
"(99963944, 100208153)",459,-276.19435142427767,-276.0,244209.0,2.6390183736961678e-25,2.8518269092072638e-55
"(100208153, 100208154)",460,-277.19435142427767,-277.0,1.0,8.416027156961458e-31,7.082951310671277e-61
"(100208154, 100208155)",461,-278.19435142427767,-278.0,1.0,6.554408540191793e-31,4.296027131173911e-61
"(100208155, 100745415)",462,-279.19435142427767,-279.0,537260.0,2.7424858468824276e-25,1.3999234300618745e-55
"(100745415, 100989625)",463,-280.19435142427767,-280.0,244210.0,9.708445800062506e-26,3.85954382919419e-56
"(100989625, 100989626)",464,-281.19435142427767,-281.0,1.0,3.0960833673866636e-31,9.585732217808344e-62
"(100989626, 100989627)",465,-282.19435142427767,-282.0,1.0,2.411232150975086e-31,5.814040485895939e-62
"(100989627, 101038467)",466,-283.19435142427767,-283.0,48840.0,9.171514576199547e-27,1.7222907375397373e-57
"(101038467, 101429203)",467,-284.19435142427767,-284.0,390736.0,5.71446018491237e-26,8.357319316609863e-57
"(101429203, 101429204)",468,-285.19435142427767,-285.0,1.0,1.1389854190144031e-31,1.2972877847274156e-62
"(101429204, 102357201)",469,-286.19435142427767,-286.0,927997.0,8.23172998098177e-26,7.301896286280466e-57
"(102357201, 102357202)",470,-287.19435142427767,-287.0,1.0,6.908295775978761e-32,4.772455052840601e-63
"(102357202, 102552569)",471,-288.19435142427767,-288.0,195367.0,1.0511108295248498e-26,5.6551719376579346e-58
"(102552569, 102699095)",472,-289.19435142427767,-289.0,146526.0,6.1395759541648604e-27,2.572539542262763e-58
"(102699095, 102699096)",473,-290.19435142427767,-290.0,1.0,3.263247861014401e-32,1.0648786602415064e-63
"(102699096, 102747937)",474,-291.19435142427767,-291.0,48841.0,1.241254937078583e-27,3.1545501091745794e-59
"(102747937, 103480567)",475,-292.19435142427767,-292.0,732630.0,1.4500651643802407e-26,2.870055800266293e-58
"(103480567, 103920145)",476,-293.19435142427767,-293.0,439578.0,6.775871313143381e-27,1.044466102768551e-58
"(103920145, 103920146)",477,-294.19435142427767,-294.0,1.0,1.2004817995138824e-32,1.4411565509640892e-64
"(103920146, 103920147)",478,-295.19435142427767,-295.0,1.0,9.349361655243808e-33,8.741056336054323e-65
"(103920147, 103968987)",479,-296.19435142427767,-296.0,48840.0,3.5561821230922907e-28,2.589359396519491e-60
"(103968987, 104213197)",480,-297.19435142427767,-297.0,244210.0,1.38483541784933e-27,7.852950880512381e-60
"(104213197, 104262039)",481,-298.19435142427767,-298.0,48842.0,2.157021815692149e-28,9.52611095649616e-61
"(104262039, 104359723)",482,-299.19435142427767,-299.0,97684.0,3.3597805583262986e-28,1.1555756725878723e-60
"(104359723, 104506249)",483,-300.19435142427767,-300.0,146526.0,3.924899594658904e-28,1.0513381125638884e-60
"(104506249, 104555091)",484,-301.19435142427767,-301.0,48842.0,1.0189049592656648e-28,2.1255626633147e-61
"(104555091, 104555092)",485,-302.19435142427767,-302.0,1.0,1.6246754435760975e-33,2.6395702969591894e-66
"(104555092, 104555093)",486,-303.19435142427767,-303.0,1.0,1.265298507693947e-33,1.600980313572529e-66
"(104555093, 104750459)",487,-304.19435142427767,-304.0,195366.0,1.925166784406812e-28,1.8970891290108127e-61
"(104750459, 105141195)",488,-305.19435142427767,-305.0,390736.0,2.998673496171712e-28,2.3013090006149103e-61
"(105141195, 105287721)",489,-306.19435142427767,-306.0,146526.0,8.757634751227485e-29,5.234304248795935e-62
"(105287721, 105287722)",490,-307.19435142427767,-307.0,1.0,4.654773079255091e-34,2.1666912419357922e-67
"(105287722, 105287723)",491,-308.19435142427767,-308.0,1.0,3.6251409191435593e-34,1.3141646683649009e-67
"(105287723, 105483089)",492,-309.19435142427767,-309.0,195366.0,5.515695184884591e-29,1.5572255854426592e-62
"(105483089, 105483090)",493,-310.19435142427767,-310.0,1.0,2.1987591132394053e-34,4.834541638053336e-68
"(105483090, 105483091)",494,-311.19435142427767,-311.0,1.0,1.7123953191762365e-34,2.932297729136685e-68
"(105483091, 105483092)",495,-312.19435142427767,-312.0,1.0,1.3336148155022614e-34,1.7785284761271306e-68
"(105483092, 105483093)",496,-313.19435142427767,-313.0,1.0,1.0386202626287881e-34,1.078732049943093e-68
"(105483093, 105776141)",497,-314.19435142427767,-314.0,293048.0,2.370401603949394e-29,1.9173663577317915e-63
"(105776141, 105971509)",498,-315.19435142427767,-315.0,195368.0,1.2307305490338837e-29,7.753049037330805e-64
"(105971509, 106166877)",499,-316.19435142427767,-316.0,195368.0,9.584939153374887e-30,4.7024619473966504e-64
"(106166877, 106166878)",500,-317.19435142427767,-317.0,1.0,3.820870418052153e-35,1.4599050751546033e-69
"(106166878, 106215719)",501,-318.19435142427767,-318.0,48841.0,1.453360110031744e-30,4.324759135626796e-65
"(106215719, 106215720)",502,-319.19435142427767,-319.0,1.0,2.3174750553376578e-35,5.3706906321122794e-70
"(106215720, 107241401)",503,-320.19435142427767,-320.0,1025681.0,1.8512017763366735e-29,3.341144095203143e-64
"(107241401, 107241402)",504,-321.19435142427767,-321.0,1.0,1.4056196741815211e-35,1.9757666684461656e-70
"(107241402, 107241403)",505,-322.19435142427767,-322.0,1.0,1.0946977029531417e-35,1.1983630608508849e-70
"(107241403, 107241404)",506,-323.19435142427767,-323.0,1.0,8.52551428286375e-36,7.268439378731378e-71
"(107241404, 107241405)",507,-324.19435142427767,-324.0,1.0,6.639677199580735e-36,4.408531331463226e-71
"(107241405, 107241406)",508,-325.19435142427767,-325.0,1.0,5.170985802374828e-36,2.673909416836205e-71
"(107241406, 107387927)",509,-326.19435142427767,-326.0,146521.0,5.900646520722377e-31,2.376289362105985e-66
"(107387927, 107387928)",510,-327.19435142427767,-327.0,1.0,3.136361430079066e-36,9.836763020087603e-72
"(107387928, 107387929)",511,-328.19435142427767,-328.0,1.0,2.4426007377405277e-36,5.96629836401057e-72
"(107387929, 107387930)",512,-329.19435142427767,-329.0,1.0,1.9022993672831142e-36,3.6187428827657366e-72
"(107387930, 108364767)",513,-330.19435142427767,-330.0,976837.0,1.447195968933561e-30,2.144038537133164e-66
"(108364767, 108950871)",514,-331.19435142427767,-331.0,586104.0,6.762484891631452e-31,7.802574612960095e-67
"(108950871, 109341607)",515,-332.19435142427767,-332.0,390736.0,3.511085686074079e-31,3.155000484970488e-67
"(109341607, 109390449)",516,-333.19435142427767,-333.0,48842.0,3.4180453521816165e-32,2.3920056569285354e-68
"(109390449, 109976553)",517,-334.19435142427767,-334.0,586104.0,3.194371676223143e-31,1.7409897229598587e-67
"(109976553, 110269605)",518,-335.19435142427767,-335.0,293052.0,1.24388958143185e-31,5.27981822609879e-68
"(110269605, 110562657)",519,-336.19435142427767,-336.0,293052.0,9.687421800734868e-32,3.2023716318384852e-68
"(110562657, 111099919)",520,-337.19435142427767,-337.0,537262.0,1.3831714754651407e-31,3.560950393924035e-68
"(111099919, 111099920)",521,-338.19435142427767,-338.0,1.0,2.0050087819616537e-37,4.020060215743355e-74
"(111099920, 111099921)",522,-339.19435142427767,-339.0,1.0,1.5615024094567797e-37,2.4382897747393286e-74
"(111099921, 111148761)",523,-340.19435142427767,-340.0,48840.0,5.9394289775508e-33,7.222935417561453e-70
"(111148761, 111148762)",524,-341.19435142427767,-341.0,1.0,9.470990865506873e-38,8.969966797451463e-75
"(111148762, 111295287)",525,-342.19435142427767,-342.0,146525.0,1.0807706128965781e-32,7.971780363083742e-70
"(111295287, 111441813)",526,-343.19435142427767,-343.0,146526.0,8.41710744090755e-33,4.835162201369126e-70
"(111441813, 111539497)",527,-344.19435142427767,-344.0,97684.0,4.370166577449966e-33,1.955116079876003e-70
"(111539497, 112125601)",528,-345.19435142427767,-345.0,586104.0,2.042093491602309e-32,7.115027074451819e-70
"(112125601, 112125602)",529,-346.19435142427767,-346.0,1.0,2.7134843139867624e-38,7.362997122252211e-76
"(112125602, 112467495)",530,-347.19435142427767,-347.0,341893.0,7.22510069119205e-33,1.526854308156758e-70
"(112467495, 112467496)",531,-348.19435142427767,-348.0,1.0,1.6458114310822734e-38,2.708695266681082e-76
"(112467496, 112614021)",532,-349.19435142427767,-349.0,146525.0,1.878097713683929e-33,2.4072690818254912e-71
"(112614021, 112907073)",533,-350.19435142427767,-350.0,293052.0,2.9253479049051793e-33,2.920184938076902e-71
"(112907073, 113883913)",534,-351.19435142427767,-351.0,976840.0,7.594210796988157e-33,5.903938989915595e-71
"(113883913, 113981597)",535,-352.19435142427767,-352.0,97684.0,5.914377315503695e-34,3.5809200104566446e-72
"(113981597, 113981598)",536,-353.19435142427767,-353.0,1.0,4.715328697324056e-39,2.2234324723807775e-77
"(113981598, 113981599)",537,-354.19435142427767,-354.0,1.0,3.6723016819150416e-39,1.3485799642996046e-77
"(113981599, 113981600)",538,-355.19435142427767,-355.0,1.0,2.859991425549872e-39,8.179550954218788e-78
"(113981600, 113981601)",539,-356.19435142427767,-356.0,1.0,2.2273635617957438e-39,4.961148436415421e-78
"(113981601, 114958437)",540,-357.19435142427767,-357.0,976836.0,1.6944905326429577e-33,2.9393861049517166e-72
"(114958437, 114958438)",541,-358.19435142427767,-358.0,1.0,1.3509642905558533e-39,1.8251045143570802e-78
"(114958438, 114958439)",542,-359.19435142427767,-359.0,1.0,1.0521320473864037e-39,1.1069818451375053e-78
"(114958439, 115349173)",543,-360.19435142427767,-360.0,390734.0,3.2016793286223103e-34,2.6234600836700682e-73
"(115349173, 115691067)",544,-361.19435142427767,-361.0,341894.0,2.1817977398712956e-34,1.3923149799959915e-73
"(115691067, 115788751)",545,-362.19435142427767,-362.0,97684.0,4.854816538043389e-35,2.4128049238421446e-74
"(115788751, 116179487)",546,-363.19435142427767,-363.0,390736.0,1.5123739685984796e-34,5.853760648863465e-74
"(116179487, 116179488)",547,-364.19435142427767,-364.0,1.0,3.0144087850653746e-40,9.086660323479307e-80
"(116179488, 116667907)",548,-365.19435142427767,-365.0,488419.0,1.1466241285088894e-34,2.6918422339810082e-74
"(116667907, 116667908)",549,-366.19435142427767,-366.0,1.0,1.8283313490492596e-40,3.342795521916285e-80
"(116667908, 116667909)",550,-367.19435142427767,-367.0,1.0,1.4239058863535613e-40,2.027507973192321e-80
"(116667909, 117009801)",551,-368.19435142427767,-368.0,341892.0,3.791373791906649e-35,4.204402334642696e-75
"(117009801, 117595905)",552,-369.19435142427767,-369.0,586104.0,5.061843687265426e-35,4.371623724511154e-75
"(117595905, 117595906)",553,-370.19435142427767,-370.0,1.0,6.726055149644708e-41,4.52398178760621e-81
"(117595906, 117595907)",554,-371.19435142427767,-371.0,1.0,5.238257017524753e-41,2.743933658164733e-81
"(117595907, 117595908)",555,-372.19435142427767,-372.0,1.0,4.0795586671775603e-41,1.664279891894355e-81
"(117595908, 117693589)",556,-373.19435142427767,-373.0,97681.0,3.103485063376126e-36,9.860279418309313e-77
"(117693589, 117693590)",557,-374.19435142427767,-374.0,1.0,2.4743774097395967e-41,6.122543565829638e-82
"(117693590, 118621587)",558,-375.19435142427767,-375.0,927997.0,1.7882938945472035e-35,3.446126499627482e-76
"(118621587, 118621588)",559,-376.19435142427767,-376.0,1.0,1.5007857627073948e-41,2.2523579055452168e-82
"(118621588, 118719271)",560,-377.19435142427767,-377.0,97683.0,1.1417317270612721e-36,1.3344710303515606e-77
"(118719271, 118719272)",561,-378.19435142427767,-378.0,1.0,9.102725787422439e-42,8.285961676100547e-83
"(118719272, 119940321)",562,-379.19435142427767,-379.0,1221049.0,8.65627274628114e-36,6.136613506747858e-77
"(119940321, 119940322)",563,-380.19435142427767,-380.0,1.0,5.521082277028533e-42,3.0482349509718567e-83
"(119940322, 119940323)",564,-381.19435142427767,-381.0,1.0,4.299823200751476e-42,1.8488479557720672e-83
"(119940323, 119940324)",565,-382.19435142427767,-382.0,1.0,3.348705675813844e-42,1.1213829703227854e-83
"(119940324, 119940325)",566,-383.19435142427767,-383.0,1.0,2.6079746025994798e-42,6.801531527803915e-84
"(119940325, 119940326)",567,-384.19435142427767,-384.0,1.0,2.031092662734811e-42,4.125337404615185e-84
"(119940326, 120135689)",568,-385.19435142427767,-385.0,195363.0,3.090284278744598e-37,4.888262835570716e-79
"(120135689, 120135690)",569,-386.19435142427767,-386.0,1.0,1.2319199726660341e-42,1.5176268190534825e-84
"(120135690, 120331057)",570,-387.19435142427767,-387.0,195367.0,1.8743905390961163e-37,1.7983282197367155e-79
"(120331057, 120331058)",571,-388.19435142427767,-388.0,1.0,7.47197233734299e-43,5.583037061001886e-85
"(120331058, 120428741)",572,-389.19435142427767,-389.0,97683.0,5.684347555295893e-38,3.3078229711821286e-80
"(120428741, 120428742)",573,-390.19435142427767,-390.0,1.0,4.5319803111231915e-43,2.0538845540408258e-85
"(120428742, 120428743)",574,-391.19435142427767,-391.0,1.0,3.529509815166931e-43,1.2457439535359701e-85
"(120428743, 121161371)",575,-392.19435142427767,-392.0,732628.0,2.013836862775245e-37,5.535604576773533e-80
"(121161371, 121161372)",576,-393.19435142427767,-393.0,1.0,2.140755916655413e-43,4.582835894695159e-86
"(121161372, 121552107)",577,-394.19435142427767,-394.0,390735.0,6.514421383122599e-38,1.0860989150417792e-80
"(121552107, 121552108)",578,-395.19435142427767,-395.0,1.0,1.2984340984127312e-43,1.6859311079208818e-86
"(121552108, 121747475)",579,-396.19435142427767,-396.0,195367.0,1.975593093468255e-38,1.997762196767862e-81
"(121747475, 122187053)",580,-397.19435142427767,-397.0,439578.0,3.461852978154988e-38,2.7263480070341465e-81
"(122187053, 122284737)",581,-398.19435142427767,-398.0,97684.0,5.991319578367066e-39,3.674697011805876e-82
"(122284737, 122724315)",582,-399.19435142427767,-399.0,439578.0,2.0997199706684896e-38,1.0029673812665973e-81
"(122724315, 122724316)",583,-400.19435142427767,-400.0,1.0,3.720075976020836e-44,1.3838965267367376e-87
"(122724316, 122724317)",584,-401.19435142427767,-401.0,1.0,2.897198083210148e-44,8.393756733356555e-88
"(122724317, 122724318)",585,-402.19435142427767,-402.0,1.0,2.256340135917036e-44,5.09107080895011e-88
"(122724318, 122724319)",586,-403.19435142427767,-403.0,1.0,1.7572394647276278e-44,3.0878905363962403e-88
"(122724319, 123261577)",587,-404.19435142427767,-404.0,537258.0,7.352587792039219e-39,1.006230660867668e-82
"(123261577, 123261578)",588,-405.19435142427767,-405.0,1.0,1.065819611814323e-44,1.1359714449280343e-88
"(123261578, 123261579)",589,-406.19435142427767,-406.0,1.0,8.300611482938556e-45,6.89001509906914e-89
"(123261579, 123261580)",590,-407.19435142427767,-407.0,1.0,6.464522722884041e-45,4.179005403468411e-89
"(123261580, 123896523)",591,-408.19435142427767,-408.0,634943.0,3.196668382020314e-39,1.60938678662626e-83
"(123896523, 124189575)",592,-409.19435142427767,-409.0,293052.0,1.1490367393526386e-39,4.505294037857253e-84
"(124189575, 124189576)",593,-410.19435142427767,-410.0,1.0,3.0536243137246927e-45,9.324621449370601e-90
"(124189576, 124189577)",594,-411.19435142427767,-411.0,1.0,2.3781650067346718e-45,5.655668799257323e-90
"(124189577, 124189578)",595,-412.19435142427767,-412.0,1.0,1.8521167695179754e-45,3.430336527929701e-90
"(124189578, 124384943)",596,-413.19435142427767,-413.0,195365.0,2.818003350823653e-40,4.0647725463892387e-85
"(124384943, 124384944)",597,-414.19435142427767,-414.0,1.0,1.1233656060805691e-45,1.2619502849247644e-90
"(124384944, 124629153)",598,-415.19435142427767,-415.0,244209.0,2.136530848454729e-40,1.869203864885685e-85
"(124629153, 124629154)",599,-416.19435142427767,-416.0,1.0,6.813556821545299e-46,4.642455656042647e-91
"(124629154, 124629155)",600,-417.19435142427767,-417.0,1.0,5.306403388120991e-46,2.8157916917461927e-91
"(124629155, 125557151)",601,-418.19435142427767,-418.0,927996.0,3.835065143231708e-40,1.5848909534988127e-85
"(125557151, 125557152)",602,-419.19435142427767,-419.0,1.0,3.2184963476983778e-46,1.0358718740147796e-91
"(125557152, 126094413)",603,-420.19435142427767,-420.0,537261.0,1.346680948669485e-40,3.375546666349025e-86
"(126094413, 126485149)",604,-421.19435142427767,-421.0,390736.0,7.627622759911637e-41,1.4890009870480841e-86
"(126485149, 127413147)",605,-422.19435142427767,-422.0,927998.0,1.4108446623682077e-40,2.1449212835942127e-86
"(127413147, 127706199)",606,-423.19435142427767,-423.0,293052.0,3.469790298456227e-41,4.108296382642314e-87
"(127706199, 127706200)",607,-424.19435142427767,-424.0,1.0,9.221146422925874e-47,8.502954135303866e-93
"(127706200, 127706201)",608,-425.19435142427767,-425.0,1.0,7.181436054990755e-47,5.1573023811921184e-93
"(127706201, 127706202)",609,-426.19435142427767,-426.0,1.0,5.592908023204021e-47,3.1280620156019908e-93
"(127706202, 128048093)",610,-427.19435142427767,-427.0,341891.0,1.4891955346910863e-41,6.4865800519577e-88
"(128048093, 128341145)",611,-428.19435142427767,-428.0,293052.0,9.941115646066598e-42,3.3722950291576276e-88
"(128341145, 128683039)",612,-429.19435142427767,-429.0,341894.0,9.032506758053405e-42,2.386300383577379e-88
"(128683039, 128731881)",613,-430.19435142427767,-430.0,48842.0,1.0049319051813926e-42,2.067663351319568e-89
"(128731881, 128731882)",614,-431.19435142427767,-431.0,1.0,1.6023949770457954e-47,2.5676696624615946e-94
"(128731882, 128927249)",615,-432.19435142427767,-432.0,195367.0,2.438075566199145e-42,3.042587779152714e-89
"(128927249, 129513353)",616,-433.19435142427767,-433.0,586104.0,5.6963546374799365e-42,5.5362966565556924e-89
"(129513353, 129708721)",617,-434.19435142427767,-434.0,195368.0,1.4787751507739344e-42,1.1193112211551904e-89
"(129708721, 129952931)",618,-435.19435142427767,-435.0,244210.0,1.4395890567615936e-42,8.486207167387636e-90
"(129952931, 130001773)",619,-436.19435142427767,-436.0,48842.0,2.2423061694139084e-43,1.0294289663387402e-90
"(130001773, 130099457)",620,-437.19435142427767,-437.0,97684.0,3.4926196012507883e-43,1.248760460161461e-90
"(130099457, 130099458)",621,-438.19435142427767,-438.0,1.0,2.7845449412643336e-48,7.753690529920792e-96
"(130099458, 131564717)",622,-439.19435142427767,-439.0,1465259.0,3.177569137702092e-42,6.890894800766839e-90
"(131564717, 132639241)",623,-440.19435142427767,-440.0,1074524.0,1.8147763491863856e-42,3.0649973360913904e-90
"(132639241, 132639242)",624,-441.19435142427767,-441.0,1.0,1.3153258948574646e-48,1.7300822096825897e-96
"(132639242, 132639243)",625,-442.19435142427767,-442.0,1.0,1.0243768369090897e-48,1.049347903995872e-96
"(132639243, 133078819)",626,-443.19435142427767,-443.0,439576.0,3.5068735136311957e-43,2.797732778997945e-91
"(133078819, 133127661)",627,-444.19435142427767,-444.0,48842.0,3.0346314054083534e-44,1.885464920906326e-92
"(133127661, 133225345)",628,-445.19435142427767,-445.0,97684.0,4.726746629730207e-44,2.2871845646846845e-92
"(133225345, 133225346)",629,-446.19435142427767,-446.0,1.0,3.768471783110857e-49,1.4201379580102718e-97
"(133225346, 133225347)",630,-447.19435142427767,-447.0,1.0,2.9348887756692284e-49,8.613572125549223e-98
"(133225347, 133713765)",631,-448.19435142427767,-448.0,488418.0,1.1163739341955802e-43,2.5516888422443842e-92
"(133713765, 133713766)",632,-449.19435142427767,-449.0,1.0,1.78010002528986e-49,3.1687561000369604e-98
"(133713766, 133860291)",633,-450.19435142427767,-450.0,146525.0,2.0313395110077252e-44,2.816133908193895e-93
"(133860291, 133957975)",634,-451.1943514242778,-451.0000000000001,97684.0,1.054679732472722e-44,1.1387221429187303e-93
"(133957975, 134592921)",635,-452.1943514242778,-452.0000000000001,634946.0,5.339005110005422e-44,4.489354301730228e-93
"(134592921, 135179025)",636,-453.1943514242778,-453.0000000000001,586104.0,3.838173563533343e-44,2.5134747935189385e-93
"(135179025, 135423235)",637,-454.1943514242778,-454.0000000000001,244210.0,1.2454885736848882e-44,6.352081352850488e-94
"(135423235, 135472077)",638,-455.1943514242778,-455.0000000000001,48842.0,1.9399749529845563e-45,7.705464186985446e-95
"(135472077, 135618603)",639,-456.1943514242778,-456.0000000000001,146526.0,4.532562037569853e-45,1.402080083017306e-94
"(135618603, 135618604)",640,-457.1943514242778,-457.0000000000001,1.0,2.409103411120978e-50,5.803779245474731e-100
"(135618604, 136009339)",641,-458.1943514242778,-458.0000000000001,390735.0,7.331015485445585e-45,1.375453646277988e-94
"(136009339, 136009340)",642,-459.1943514242778,-459.0000000000001,1.0,1.4611950812631621e-50,2.1350910655076592e-100
"(136009340, 136155865)",643,-460.1943514242778,-460.0000000000001,146525.0,1.6674250096573562e-45,1.8974961015736804e-95
"(136155865, 136155866)",644,-461.1943514242778,-461.0000000000001,1.0,8.862596166074008e-51,7.85456108029097e-101
"(136155866, 137035021)",645,-462.1943514242778,-462.0000000000001,879155.0,6.068100857757094e-45,4.188322652992064e-95
"(137035021, 137279231)",646,-463.1943514242778,-463.0000000000001,244210.0,1.3127352986704967e-45,7.0565249759449576e-96
"(137279231, 137328073)",647,-464.1943514242778,-464.0000000000001,48842.0,2.0447185571401145e-46,8.559997497877138e-97
"(137328073, 137425757)",648,-465.1943514242778,-465.0000000000001,97684.0,3.1848568269227085e-46,1.0383801859051826e-96
"(137425757, 138353755)",649,-466.1943514242778,-466.0000000000001,927998.0,2.3563505412388296e-45,5.983189482301174e-96
"(138353755, 138549123)",650,-467.1943514242778,-467.0000000000001,195368.0,3.8634266246474295e-46,7.639974450285939e-97
"(138549123, 138793333)",651,-468.1943514242778,-468.0000000000001,244210.0,3.761049600767916e-46,5.792348429399493e-97
"(138793333, 138793334)",652,-469.1943514242778,-469.0000000000001,1.0,1.1994219623473437e-51,1.4386130437611525e-102
"(138793334, 138793335)",653,-470.1943514242778,-470.0000000000001,1.0,9.341107635091522e-52,8.725629185036515e-103
"(138793335, 138793336)",654,-471.1943514242778,-471.0000000000001,1.0,7.274861940963557e-52,5.292361626008005e-103
"(138793336, 138793337)",655,-472.1943514242778,-472.0000000000001,1.0,5.665668176358778e-52,3.2099795884604606e-103
"(138793337, 138793338)",656,-473.1943514242778,-473.0000000000001,1.0,4.412426812370955e-52,1.9469510374530107e-103
"(138793338, 138939859)",657,-474.1943514242778,-474.0000000000001,146521.0,5.035049778400363e-47,1.7302452393151526e-98
"(138939859, 139916699)",658,-475.1943514242778,-475.0000000000001,976840.0,2.6142896825526523e-46,6.996550657529633e-98
"(139916699, 140209751)",659,-476.1943514242778,-476.0000000000001,293052.0,6.1080325558425e-47,1.2730867458072924e-98
"(140209751, 140258593)",660,-477.1943514242778,-477.0000000000001,48842.0,7.928234229192956e-48,1.2869435730098445e-99
"(140258593, 140258594)",661,-478.1943514242778,-478.0000000000001,1.0,1.2641814475387966e-52,1.598154732301287e-104
"(140258594, 140258595)",662,-479.1943514242778,-479.0000000000001,1.0,9.845455012875569e-53,9.693298441055667e-105
"(140258595, 140502803)",663,-480.1943514242778,-480.0000000000001,244208.0,1.872501000787449e-47,1.435767869172999e-99
"(140502803, 140502804)",664,-481.1943514242778,-481.0000000000001,1.0,5.9715703241304735e-53,3.565965213603572e-105
"(140502804, 140502805)",665,-482.1943514242778,-482.0000000000001,1.0,4.650663644598775e-53,2.162867233519276e-105
"(140502805, 140893539)",666,-483.1943514242778,-483.0000000000001,390734.0,1.4152152947222934e-47,5.125825575496139e-100
"(140893539, 141040065)",667,-484.1943514242778,-484.0000000000001,146526.0,4.133161579816981e-48,1.1658698555120046e-100
"(141040065, 141088907)",668,-485.1943514242778,-485.0000000000001,48842.0,1.0729698249740364e-48,2.3571193753425623e-101
"(141088907, 141137749)",669,-486.1943514242778,-486.0000000000001,48842.0,8.356297399017677e-49,1.429665169747955e-101
"(141137749, 142163431)",670,-487.1943514242778,-487.0000000000001,1025682.0,1.3666571011658272e-47,1.8209850930083423e-100
"(142163431, 142163432)",671,-488.1943514242778,-488.0000000000001,1.0,1.0377033238158051e-53,1.0768281882583696e-106
"(142163432, 142603009)",672,-489.1943514242778,-489.0000000000001,439577.0,3.552503774805807e-48,2.8710062332673247e-101
"(142603009, 142700693)",673,-490.1943514242778,-490.0000000000001,97684.0,6.148220034826e-49,3.869682813627189e-102
"(142700693, 142944903)",674,-491.1943514242778,-491.0000000000001,244210.0,1.1970596444044474e-48,5.867703174569845e-102
"(142944903, 143482165)",675,-492.1943514242778,-492.0000000000001,537262.0,2.0509961745797943e-48,7.829672130433475e-102
"(143482165, 143775217)",676,-493.1943514242778,-493.0000000000001,293052.0,8.712640510031997e-49,2.5903288377847834e-102
"(143775217, 143970585)",677,-494.1943514242778,-494.0000000000001,195368.0,4.5236075012217096e-49,1.0474092392361758e-102
"(143970585, 143970586)",678,-495.1943514242778,-495.0000000000001,1.0,1.8032579871110664e-54,3.2517393680798556e-108
"(143970586, 143970587)",679,-496.1943514242778,-496.0000000000001,1.0,1.4043787324418638e-54,1.9722796241350162e-108
"(143970587, 143970588)",680,-497.1943514242778,-497.0000000000001,1.0,1.0937312565545507e-54,1.1962480615643962e-108
"(143970588, 143970589)",681,-498.1943514242778,-498.0000000000001,1.0,8.517987590743555e-55,7.255611259606121e-109
"(143970589, 143970590)",682,-499.1943514242778,-499.0000000000001,1.0,6.633815405863591e-55,4.400750683907312e-109
"(143970590, 143970591)",683,-500.1943514242778,-500.0000000000001,1.0,5.166420632837714e-55,2.6691902155411246e-109
"(143970591, 143970592)",684,-501.1943514242778,-501.0000000000001,1.0,4.023612434530275e-55,1.6189457023306645e-109
"(143970592, 143970593)",685,-502.1943514242778,-502.0000000000001,1.0,3.13359251478802e-55,9.819402048735506e-110
"(143970593, 143970594)",686,-503.1943514242778,-503.0000000000001,1.0,2.440444304343603e-55,5.955768402603131e-110
"(143970594, 143970595)",687,-504.1943514242778,-504.0000000000001,1.0,1.9006199352649476e-55,3.612356138326534e-110
"(143970595, 144214795)",688,-505.1943514242778,-505.0000000000001,244200.0,3.614658885717143e-50,5.350433603642055e-105
"(144214795, 144214796)",689,-506.1943514242778,-506.0000000000001,1.0,1.1527842631992313e-55,1.3289115574797948e-110
"(144214796, 144361321)",690,-507.1943514242778,-507.0000000000001,146525.0,1.3154857526184355e-50,1.1810290157598303e-105
"(144361321, 144361322)",691,-508.1943514242778,-508.0000000000001,1.0,6.991989996645718e-56,4.8887924113193795e-111
"(144361322, 145289319)",692,-509.1943514242778,-509.0000000000001,927997.0,5.0532845040209725e-50,2.7516990118048323e-105
"(145289319, 145338161)",693,-510.1943514242778,-510.0000000000001,48842.0,2.0713190366686498e-51,8.784166397088456e-107
"(145338161, 145826581)",694,-511.1943514242778,-511.0000000000001,488420.0,1.6131448877482524e-50,5.327866239851607e-106
"(145826581, 145875423)",695,-512.1943514242778,-512.0000000000001,48842.0,1.2563185017859724e-51,3.231514225317863e-107
"(145875423, 145973107)",696,-513.1943514242778,-513.0000000000001,97684.0,1.9568436659560194e-51,3.9200249099056064e-107
"(145973107, 145973108)",697,-514.1943514242778,-514.0000000000001,1.0,1.5601238477077785e-56,2.4339864201865233e-112
"(145973108, 145973109)",698,-515.1943514242778,-515.0000000000001,1.0,1.215025674283191e-56,1.4762873891673233e-112
"(145973109, 146315001)",699,-516.1943514242778,-516.0000000000001,341892.0,3.235197313333639e-51,3.0613473424944705e-107
"(146315001, 146315002)",700,-517.1943514242778,-517.0000000000001,1.0,7.369503237907712e-57,5.430957797353223e-113
"(146315002, 146315003)",701,-518.1943514242778,-518.0000000000001,1.0,5.73937489252978e-57,3.2940424157001217e-113
"(146315003, 146656895)",702,-519.1943514242778,-519.0000000000001,341892.0,1.5281990023364036e-51,6.830789228007613e-108
"(146656895, 146949947)",703,-520.1943514242778,-520.0000000000001,293052.0,1.020145321647609e-51,3.551234856883774e-108
"(146949947, 146998789)",704,-521.1943514242778,-521.0000000000001,48842.0,1.3241499589096467e-52,3.5898880342336915e-109
"(146998789, 146998790)",705,-522.1943514242778,-522.0000000000001,1.0,2.111398028137262e-57,4.458001633221918e-114
"(146998790, 147584893)",706,-523.1943514242778,-523.0000000000001,586103.0,9.637634134046717e-52,1.5847725007676536e-108
"(147584893, 148268681)",707,-524.1943514242778,-524.0000000000001,683788.0,8.756778119632285e-52,1.1214172087908937e-108
"(148268681, 149098995)",708,-525.1943514242778,-525.0000000000001,830314.0,8.281168297484775e-52,8.259254736312637e-109
"(149098995, 149294363)",709,-526.1943514242778,-526.0000000000001,195368.0,1.5175012599593496e-52,1.178703817400093e-109
"(149294363, 149294364)",710,-527.1943514242778,-527.0000000000001,1.0,6.049256631424722e-58,3.6593505792835974e-115
"(149294364, 149880467)",711,-528.1943514242778,-528.0000000000001,586103.0,2.7612284097878887e-52,1.300860485447055e-109
"(149880467, 149880468)",712,-529.1943514242778,-529.0000000000001,1.0,3.669059615429059e-58,1.3461998461572436e-115
"(149880468, 150222361)",713,-530.1943514242778,-530.0000000000001,341893.0,9.769477946424074e-53,2.791595597033761e-110
"(150222361, 150271203)",714,-531.1943514242778,-531.0000000000001,48842.0,1.08692847554934e-53,2.4188475307317725e-111
"(150271203, 150271204)",715,-532.1943514242778,-532.0000000000001,1.0,1.733141042341498e-58,3.0037778726485735e-116
"(150271204, 150271205)",716,-533.1943514242778,-533.0000000000001,1.0,1.3497716009487493e-58,1.8218833747277502e-116
"(150271205, 150857307)",717,-534.1943514242778,-534.0000000000001,586102.0,6.161122860791861e-53,6.476591942319269e-111
"(150857307, 151345727)",718,-535.1943514242778,-535.0000000000001,488420.0,3.99858640178419e-53,3.2735541567776564e-111
"(151345727, 151345728)",719,-536.1943514242778,-536.0000000000001,1.0,6.3758695812788125e-59,4.065171291747646e-117
"(151345728, 151345729)",720,-537.1943514242778,-537.0000000000001,1.0,4.9655322226610896e-59,2.465651025428558e-117
"(151345729, 151345730)",721,-538.1943514242778,-538.0000000000001,1.0,3.8671603833747502e-59,1.4954929430743145e-117
"(151345730, 151541095)",722,-539.1943514242778,-539.0000000000001,195365.0,5.88390057143034e-54,1.7720823041219388e-112
"(151541095, 152469093)",723,-540.1943514242778,-540.0000000000001,927998.0,2.1766669510650856e-53,5.10548408063269e-112
"(152469093, 152469094)",724,-541.1943514242778,-541.0000000000001,1.0,1.8267172191913515e-59,3.336895798890184e-118
"(152469094, 152469095)",725,-542.1943514242778,-542.0000000000001,1.0,1.4226488007562438e-59,2.0239296102931786e-118
"(152469095, 152469096)",726,-543.1943514242778,-543.0000000000001,1.0,1.1079600000645577e-59,1.2275753617430547e-118
"(152469096, 153201723)",727,-544.1943514242778,-544.0000000000001,732627.0,6.321692704971563e-54,5.454862932445934e-113
"(153201723, 153201724)",728,-545.1943514242778,-545.0000000000001,1.0,6.720117097743655e-60,4.515997380738661e-119
"(153201724, 153299407)",729,-546.1943514242778,-546.0000000000001,97683.0,5.112369194001177e-55,2.6756261351281443e-114
"(153299407, 153397091)",730,-547.1943514242778,-547.0000000000001,97684.0,3.981557891208811e-55,1.6228658983095645e-114
"(153397091, 153738985)",731,-548.1943514242778,-548.0000000000001,341894.0,1.0852941412311434e-54,3.445112733743924e-114
"(153738985, 153738986)",732,-549.1943514242778,-549.0000000000001,1.0,2.472192922524591e-60,6.111737846180677e-120
"(153738986, 153738987)",733,-550.1943514242778,-550.0000000000001,1.0,1.9253457839657362e-60,3.7069563878346356e-120
"(153738987, 154227405)",734,-551.1943514242778,-551.0000000000001,488418.0,7.323636470832133e-55,1.098150583248417e-114
"(154227405, 154520457)",735,-552.1943514242778,-552.0000000000001,293052.0,3.422206304423601e-55,3.996388350885386e-115
"(154520457, 154520458)",736,-553.1943514242778,-553.0000000000001,1.0,9.094689508063413e-61,8.27133772480787e-121
"(154520458, 154520459)",737,-554.1943514242778,-554.0000000000001,1.0,7.082951310671075e-61,5.016819926933711e-121
"(154520459, 154520460)",738,-555.1943514242778,-555.0000000000001,1.0,5.516208027207267e-61,3.042855099942589e-121
"(154520460, 154520461)",739,-556.1943514242778,-556.0000000000001,1.0,4.296027131173789e-61,1.8455849111781296e-121
"(154520461, 154715825)",740,-557.1943514242778,-557.0000000000001,195364.0,6.536389650445217e-56,2.1869121057332643e-116
"(154715825, 154813509)",741,-558.1943514242778,-558.0000000000001,97684.0,2.545324802556681e-56,6.632282001668859e-117
"(154813509, 155008877)",742,-559.1943514242778,-559.0000000000001,195368.0,3.9646018988044244e-56,8.045364755744875e-117
"(155008877, 155008878)",743,-560.1943514242778,-560.0000000000001,1.0,1.580420060273568e-61,2.4977275669151086e-122
"(155008878, 155253087)",744,-561.1943514242778,-561.0000000000001,244209.0,3.0058034481509533e-56,3.699640213471313e-117
"(155253087, 155985717)",745,-562.1943514242778,-562.0000000000001,732630.0,7.022794994732727e-56,6.731863224007076e-117
"(155985717, 156229927)",746,-563.1943514242778,-563.0000000000001,244210.0,1.8231194137492636e-56,1.3610271474507425e-117
"(156229927, 156327611)",747,-564.1943514242778,-564.0000000000001,97684.0,5.679387308242429e-57,3.30201877452041e-118
"(156327611, 156767189)",748,-565.1943514242778,-565.0000000000001,439578.0,1.9904000773612504e-56,9.012490315620144e-118
"(156767189, 157255609)",749,-566.1943514242778,-566.0000000000001,488420.0,1.7223612654159186e-56,6.0737241075408954e-118
"(157255609, 157255610)",750,-567.1943514242778,-567.0000000000001,1.0,2.7463582618192807e-62,7.542483702263023e-124
"(157255610, 157255611)",751,-568.1943514242778,-568.0000000000001,1.0,2.1388659648994783e-62,4.574747615805376e-124
"(157255611, 157255612)",752,-569.1943514242778,-569.0000000000001,1.0,1.6657504883484897e-62,2.774724689433232e-124
"(157255612, 157597503)",753,-570.1943514242778,-570.0000000000001,341891.0,4.435310180082283e-57,5.753873718097736e-119
"(157597503, 157695187)",754,-571.1943514242778,-571.0000000000001,97684.0,9.869295289356954e-58,9.971232700188706e-120
"(157695187, 157695188)",755,-572.1943514242778,-572.0000000000001,1.0,7.868448159078379e-63,6.191247643210392e-125
"(157695188, 157695189)",756,-573.1943514242778,-573.0000000000001,1.0,6.127953587846995e-63,3.755181517480686e-125
"(157695189, 157695190)",757,-574.1943514242778,-574.0000000000001,1.0,4.7724550528404654e-63,2.2776327231382488e-125
"(157695190, 157695191)",758,-575.1943514242778,-575.0000000000001,1.0,3.716791732325237e-63,1.3814540781481235e-125
"(157695191, 157695192)",759,-576.1943514242778,-576.0000000000001,1.0,2.8946403116482177e-63,8.378942533818893e-126
"(157695192, 158183607)",760,-577.1943514242778,-577.0000000000001,488415.0,1.1010574474924736e-57,2.4821668103531653e-120
"(158183607, 158183608)",761,-578.1943514242778,-578.0000000000001,1.0,1.7556880978547766e-63,3.0824406969489236e-126
"(158183608, 158281291)",762,-579.1943514242778,-579.0000000000001,97683.0,1.3356502000182365e-58,1.8262762781740477e-121
"(158281291, 158476659)",763,-580.1943514242778,-580.0000000000001,195368.0,2.0804321409405673e-58,2.2154077909680968e-121
"(158476659, 158476660)",764,-581.1943514242778,-581.0000000000001,1.0,8.2932833447209e-64,6.877854863582509e-127
"(158476660, 158476661)",765,-582.1943514242778,-582.0000000000001,1.0,6.458815563101676e-64,4.171629847816444e-127
"(158476661, 159306973)",766,-583.1943514242778,-583.0000000000001,830312.0,4.1765778139065074e-58,2.1008731941265525e-121
"(159306973, 159453499)",767,-584.1943514242778,-584.0000000000001,146526.0,5.740111600532423e-59,2.2486713065644936e-122
"(159453499, 159697709)",768,-585.1943514242778,-585.0000000000001,244210.0,7.450672349019844e-59,2.2731468184123862e-122
"(159697709, 160723391)",769,-586.1943514242778,-586.0000000000001,1025682.0,2.4370875731265495e-58,5.79067960546042e-122
"(160723391, 160772233)",770,-587.1943514242778,-587.0000000000001,48842.0,9.038122430307364e-60,1.6724879625163815e-123
"(160772233, 161993283)",771,-588.1943514242778,-588.0000000000001,1221050.0,1.759724206554651e-58,2.536038068166247e-122
"(161993283, 162286335)",772,-589.1943514242778,-589.0000000000001,293052.0,3.2891390161307254e-59,3.691643622098943e-123
"(162286335, 162286336)",773,-590.1943514242778,-590.0000000000001,1.0,8.741056336054075e-65,7.64060658700711e-129
"(162286336, 163214333)",774,-591.1943514242778,-591.0000000000001,927997.0,6.317378107369528e-59,4.300581375960461e-123
"(163214333, 163653911)",775,-592.1943514242778,-592.0000000000001,439578.0,2.330518887803465e-59,1.2355755489148004e-123
"(163653911, 163849279)",776,-593.1943514242778,-593.0000000000001,195368.0,8.066710821262391e-60,3.3307309013693014e-124
"(163849279, 164337699)",777,-594.1943514242778,-594.0000000000001,488420.0,1.5705901761024315e-59,5.050476027331942e-124
"(164337699, 165314539)",778,-595.1943514242778,-595.0000000000001,976840.0,2.446353718065659e-59,6.126537113440966e-124
"(165314539, 165314540)",779,-596.1943514242778,-596.0000000000001,1.0,1.9503933001301932e-65,3.804034025192746e-130
"(165314540, 165412223)",780,-597.1943514242778,-597.0000000000001,97683.0,1.4837733448305232e-60,2.253803976976095e-125
"(165412223, 166193695)",781,-598.1943514242778,-598.0000000000001,781472.0,9.244605380702715e-60,1.0936121658219053e-124
"(166193695, 166242537)",782,-599.1943514242778,-599.0000000000001,48842.0,4.4998161935483736e-61,4.145683177535763e-126
"(166242537, 166535589)",783,-600.1943514242778,-600.0000000000001,293052.0,2.1026762251277174e-60,1.5086903715781997e-125
"(166535589, 166535590)",784,-601.1943514242778,-601.0000000000001,1.0,5.587970362512768e-66,3.1225412772321074e-131
"(166535590, 166535591)",785,-602.1943514242778,-602.0000000000001,1.0,4.351915694104746e-66,1.8939170208595191e-131
"(166535591, 166730957)",786,-603.1943514242778,-603.0000000000001,195366.0,6.621491681120122e-61,2.24420585378945e-126
"(166730957, 166730958)",787,-604.1943514242778,-604.0000000000001,1.0,2.6395702969591145e-66,6.967331352588827e-132
"(166730958, 166730959)",788,-605.1943514242778,-605.0000000000001,1.0,2.0556994142437788e-66,4.225900081722216e-132
"(166730959, 166926325)",789,-606.1943514242778,-606.0000000000001,195366.0,3.1277711994140176e-61,5.0075001156208366e-127
"(166926325, 167170535)",790,-607.1943514242778,-607.0000000000001,244210.0,3.0449194953328275e-61,3.796541801342256e-127
"(167170535, 167463587)",791,-608.1943514242778,-608.0000000000001,293052.0,2.845662824825512e-61,2.7632628040736497e-127
"(167463587, 167658955)",792,-609.1943514242778,-609.0000000000001,195368.0,1.4774696242208632e-61,1.117335741009448e-127
"(167658955, 167756639)",793,-610.1943514242778,-610.0000000000001,97684.0,5.753272501537112e-62,3.388491920574823e-128
"(167756639, 167854323)",794,-611.1943514242778,-611.0000000000001,97684.0,4.480653129420283e-62,2.0552242400171756e-128
"(167854323, 168098533)",795,-612.1943514242778,-612.0000000000001,244210.0,8.723840414659644e-62,3.116391285387533e-128
"(168098533, 168293901)",796,-613.1943514242778,-613.0000000000001,195368.0,5.43530699706152e-62,1.5121494897990417e-128
"(168293901, 168684637)",797,-614.1943514242778,-614.0000000000001,390736.0,8.466042691089996e-62,1.8343300552638692e-128
"(168684637, 168684638)",798,-615.1943514242778,-615.0000000000001,1.0,1.6874208358935016e-67,2.8473890774075235e-134
"(168684638, 168733479)",799,-616.1943514242778,-616.0000000000001,48841.0,6.41851165676083e-63,8.434981242803107e-130
"(168733479, 169221899)",800,-617.1943514242778,-617.0000000000001,488420.0,4.998844251685555e-62,5.116179487451317e-129
"(169221899, 169466109)",801,-618.1943514242778,-618.0000000000001,244210.0,1.946551908832351e-62,1.551559859866045e-129
"(169466109, 170198739)",802,-619.1943514242778,-619.0000000000001,732630.0,4.547928452663318e-62,2.82320587616458e-129
"(170198739, 170833685)",803,-620.1943514242778,-620.0000000000001,634946.0,3.069672874915326e-62,1.4840461328980612e-129
"(170833685, 171322105)",804,-621.1943514242778,-621.0000000000001,488420.0,1.838972029813159e-62,6.92399600023572e-130
"(171322105, 171322106)",805,-622.1943514242778,-622.0000000000001,1.0,2.932297729136602e-68,8.598369972299672e-136
"(171322106, 171370947)",806,-623.1943514242778,-623.0000000000001,48841.0,1.1153700816779794e-63,2.547143627489901e-131
"(171370947, 171370948)",807,-624.1943514242778,-624.0000000000001,1.0,1.7785284761270801e-68,3.1631635403949133e-136
"(171370948, 171370949)",808,-625.1943514242778,-625.0000000000001,1.0,1.3851193699225623e-68,1.918555668934676e-136
"(171370949, 171517473)",809,-626.1943514242778,-626.0000000000001,146524.0,1.5806013488585726e-63,1.7050453331969778e-131
"(171517473, 171615157)",810,-627.1943514242778,-627.0000000000001,97684.0,8.206602470413864e-64,6.894509244851045e-132
"(171615157, 171712841)",811,-628.1943514242778,-628.0000000000001,97684.0,6.391308430314043e-64,4.1817312406743545e-132
"(171712841, 171712842)",812,-629.1943514242778,-629.0000000000001,1.0,5.095569397628525e-69,2.596482748604833e-137
"(171712842, 171712843)",813,-630.1943514242778,-630.0000000000001,1.0,3.968433437067782e-69,1.5748463944437613e-137
"(171712843, 171712844)",814,-631.1943514242778,-631.0000000000001,1.0,3.0906190683551355e-69,9.551926225680366e-138
"(171712844, 171712845)",815,-632.1943514242778,-632.0000000000001,1.0,2.406976550610395e-69,5.793536115188316e-138
"(171712845, 171810525)",816,-633.1943514242778,-633.0000000000001,97680.0,1.8310655412890477e-64,3.432433473071409e-133
"(171810525, 171810526)",817,-634.1943514242778,-634.0000000000001,1.0,1.459905075154562e-69,2.1313228284620467e-138
"(171810526, 172005893)",818,-635.1943514242778,-635.0000000000001,195367.0,2.2212743697353342e-64,2.5255339057482105e-133
"(172005893, 172054735)",819,-636.1943514242778,-636.0000000000001,48842.0,4.324847683345508e-65,3.829553966696491e-134
"(172054735, 172054736)",820,-637.1943514242778,-637.0000000000001,1.0,6.896103276798724e-70,4.75562404042741e-139
"(172054736, 172054737)",821,-638.1943514242778,-638.0000000000001,1.0,5.370690632112127e-70,2.8844317865856958e-139
"(172054737, 172054738)",822,-639.1943514242778,-639.0000000000001,1.0,4.1826980699231836e-70,1.7494963144139123e-139
"(172054738, 172103577)",823,-640.1943514242778,-640.0000000000001,48839.0,1.590924824244786e-65,5.1824193705815094e-135
"(172103577, 172494313)",824,-641.1943514242778,-641.0000000000001,390736.0,9.912716855745347e-65,2.5147914566914216e-134
"(172494313, 172591997)",825,-642.1943514242778,-642.0000000000001,97684.0,1.9300079124048977e-65,3.813245303166856e-135
"(172591997, 172591998)",826,-643.1943514242778,-643.0000000000001,1.0,1.5387286285522108e-70,2.367685792326168e-140
"(172591998, 173275785)",827,-644.1943514242778,-644.0000000000001,683787.0,8.194250822900208e-65,9.819687497510294e-135
"(173275785, 173959573)",828,-645.1943514242778,-645.0000000000001,683788.0,6.381698290419086e-65,5.955950246266079e-135
"(173959573, 173959574)",829,-646.1943514242778,-646.0000000000001,1.0,7.268439378731172e-71,5.283021100228998e-141
"(173959574, 173959575)",830,-647.1943514242778,-647.0000000000001,1.0,5.660666279862872e-71,3.2043142731976566e-141
"(173959575, 173959576)",831,-648.1943514242778,-648.0000000000001,1.0,4.408531331463101e-71,1.9435148500491824e-141
"(173959576, 173959577)",832,-649.1943514242778,-649.0000000000001,1.0,3.433367653138286e-71,1.1788013441616304e-141
"(173959577, 173959578)",833,-650.1943514242778,-650.0000000000001,1.0,2.673909416836129e-71,7.149791569444926e-142
"(173959578, 173959579)",834,-651.1943514242778,-651.0000000000001,1.0,2.0824427476939806e-71,4.336567797423256e-142
"(173959579, 174301467)",835,-652.1943514242778,-652.0000000000001,341888.0,5.544767080702887e-66,8.99254784585783e-137
"(174301467, 174496835)",836,-653.1943514242778,-653.0000000000001,195368.0,2.4676255590413544e-66,3.1167723985679117e-137
"(174496835, 174545677)",837,-654.1943514242778,-654.0000000000001,48842.0,4.8044717942710506e-67,4.726045047693806e-138
"(174545677, 174545678)",838,-655.1943514242778,-655.0000000000001,1.0,7.660878742931845e-72,5.8689063113905e-143
"(174545678, 174741045)",839,-656.1943514242778,-656.0000000000001,195367.0,1.1656178124816198e-66,6.95442364767047e-138
"(174741045, 174741046)",840,-657.1943514242778,-657.0000000000001,1.0,4.646557837928941e-72,2.159049974121888e-143
"(174741046, 174838729)",841,-658.1943514242778,-658.0000000000001,97683.0,3.534896610171954e-67,1.2791881949372123e-138
"(174838729, 176206305)",842,-659.1943514242778,-659.0000000000001,1367576.0,3.854211803226793e-66,1.0862247234620033e-137
"(176206305, 176401673)",843,-660.1943514242778,-660.0000000000001,195368.0,4.2880902435372544e-67,9.411837115965453e-139
"(176401673, 176401674)",844,-661.1943514242778,-661.0000000000001,1.0,1.7093731007880843e-72,2.92195639769787e-144
"(176401674, 176401675)",845,-662.1943514242778,-662.0000000000001,1.0,1.3312611094549554e-72,1.772256141547239e-144
"(176401675, 176548199)",846,-663.1943514242778,-663.0000000000001,146524.0,1.519142068892663e-67,1.5750270436784963e-139
"(176548199, 176548200)",847,-664.1943514242778,-664.0000000000001,1.0,8.074506789674866e-73,6.519765989650549e-145
"(176548200, 176548201)",848,-665.1943514242778,-665.0000000000001,1.0,6.28843221071416e-73,3.954437966874738e-145
"(176548201, 176548202)",849,-666.1943514242778,-666.0000000000001,1.0,4.897435929995633e-73,2.39848786884122e-145
"(176548202, 176694725)",850,-667.1943514242778,-667.0000000000001,146523.0,5.588573212373242e-68,2.1315527630512465e-140
"(176694725, 176694726)",851,-668.1943514242778,-668.0000000000001,1.0,2.970445045520606e-73,8.823543768457916e-146
"(176694726, 176743567)",852,-669.1943514242778,-669.0000000000001,48841.0,1.1298803324510312e-68,2.613848130995788e-141
"(176743567, 176743568)",853,-670.1943514242778,-670.0000000000001,1.0,1.8016659930997365e-73,3.24600035069206e-146
"(176743568, 177231987)",854,-671.1943514242778,-671.0000000000001,488419.0,6.853196916878299e-68,9.615987089263567e-141
"(177231987, 177231988)",855,-672.1943514242778,-672.0000000000001,1.0,1.0927656633766e-73,1.1941367950549008e-146
"(177231988, 177280829)",856,-673.1943514242778,-673.0000000000001,48841.0,4.156597452926888e-69,3.537458771458057e-142
"(177280829, 177427355)",857,-674.1943514242778,-674.0000000000001,146526.0,9.711682892519818e-69,6.436863396589144e-142
"(177427355, 177427356)",858,-675.1943514242778,-675.0000000000001,1.0,5.161859493629528e-74,2.6644793431973275e-147
"(177427356, 177427357)",859,-676.1943514242778,-676.0000000000001,1.0,4.020060215743241e-74,1.6160884138201594e-147
"(177427357, 177671565)",860,-677.1943514242778,-677.0000000000001,244208.0,7.645727665568241e-69,2.3937443300807338e-142
"(177671565, 177720407)",861,-678.1943514242778,-678.0000000000001,48842.0,1.1909094917781491e-69,2.9037824364425887e-143
"(177720407, 178404195)",862,-679.1943514242778,-679.0000000000001,683788.0,1.2984737426695877e-68,2.465726307572474e-142
"(178404195, 178404196)",863,-680.1943514242778,-680.0000000000001,1.0,1.4788975056431713e-74,2.187137832197594e-148
"(178404196, 179087983)",864,-681.1943514242778,-681.0000000000001,683787.0,7.875629839943818e-69,9.070886895453335e-143
"(179087983, 179283351)",865,-682.1943514242778,-682.0000000000001,195368.0,1.7524444732844476e-69,1.5719368739738362e-143
"(179283351, 179283352)",866,-683.1943514242778,-683.0000000000001,1.0,6.985817165979502e-75,4.880164147649388e-149
"(179283352, 179283353)",867,-684.1943514242778,-684.0000000000001,1.0,5.440559879258498e-75,2.959969179979725e-149
"(179283353, 179576403)",868,-685.1943514242778,-685.0000000000001,293050.0,1.241685757848538e-69,5.261161990253874e-144
"(179576403, 179576404)",869,-686.1943514242778,-686.0000000000001,1.0,3.299866372772742e-75,1.0889118078156335e-149
"(179576404, 179576405)",870,-687.1943514242778,-687.0000000000001,1.0,2.569938515146408e-75,6.604583971632925e-150
"(179576405, 179576406)",871,-688.1943514242778,-688.0000000000001,1.0,2.0014701280413862e-75,4.005882673442003e-150
"(179576406, 179576407)",872,-689.1943514242778,-689.0000000000001,1.0,1.5587465030126564e-75,2.4296906606541856e-150
"(179576407, 179576408)",873,-690.1943514242778,-690.0000000000001,1.0,1.213952997156071e-75,1.473681879304207e-150
"(179576408, 179576409)",874,-691.1943514242778,-691.0000000000001,1.0,9.454275447970269e-76,8.938332424609343e-151
"(179576409, 179674087)",875,-692.1943514242778,-692.0000000000001,97678.0,7.192028329073311e-71,5.2954883890121665e-146
"(179674087, 179674088)",876,-693.1943514242778,-693.0000000000001,1.0,5.73430792456236e-76,3.288228737369868e-151
"(179674088, 179771771)",877,-694.1943514242778,-694.0000000000001,97683.0,4.362408981279885e-71,1.9482010298569253e-146
"(179771771, 179771772)",878,-695.1943514242778,-695.0000000000001,1.0,3.47803356848019e-76,1.2096717503475044e-151
"(179771772, 179967139)",879,-696.1943514242778,-696.0000000000001,195367.0,5.291896681656679e-71,1.433413549336836e-146
"(179967139, 180455559)",880,-697.1943514242778,-697.0000000000001,488420.0,1.0303385937367845e-70,2.173534289634934e-146
"(180455559, 181285873)",881,-698.1943514242778,-698.0000000000001,830314.0,1.3641284561725263e-70,2.2411358172205215e-146
"(181285873, 181676609)",882,-699.1943514242778,-699.0000000000001,390736.0,4.9994555758924714e-71,6.39678863870294e-147
"(181676609, 183288395)",883,-700.1943514242778,-700.0000000000001,1611786.0,1.6061017159422502e-70,1.6004374786433436e-146
"(183288395, 183288396)",884,-701.1943514242778,-701.0000000000001,1.0,7.760541871365997e-77,6.022601013722484e-153
"(183288396, 183532605)",885,-702.1943514242778,-702.0000000000001,244209.0,1.4759787035627703e-71,8.920691429762361e-148
"(183532605, 183581447)",886,-703.1943514242778,-703.0000000000001,48842.0,2.298996154275967e-72,1.0821390027795106e-148
"(183581447, 184069867)",887,-704.1943514242778,-704.0000000000001,488420.0,1.7904600052282713e-71,6.563504832566278e-148
"(184069867, 184265235)",888,-705.1943514242778,-705.0000000000001,195368.0,5.577646616519238e-72,1.5923867664493927e-148
"(184265235, 184265236)",889,-706.1943514242778,-706.0000000000001,1.0,2.2234324723807142e-77,4.9436519592370166e-154
"(184265236, 184460603)",890,-707.1943514242778,-707.0000000000001,195367.0,3.3829963658518447e-72,5.858033552937186e-149
"(184460603, 184900181)",891,-708.1943514242778,-708.0000000000001,439578.0,5.928060835468747e-72,7.994464069862102e-149
"(184900181, 185144391)",892,-709.1943514242778,-709.0000000000001,244210.0,2.564876900421104e-72,2.6938264257457805e-149
"(185144391, 185437443)",893,-710.1943514242778,-710.0000000000001,293052.0,2.397033766235656e-72,1.960665982990696e-149
"(185437443, 185583969)",894,-711.1943514242778,-711.0000000000001,146526.0,9.334058870964641e-73,5.946020160697328e-150
"(185583969, 185583970)",895,-712.1943514242778,-712.0000000000001,1.0,4.96114843641528e-78,2.4612993808145786e-155
"(185583970, 186072389)",896,-713.1943514242778,-713.0000000000001,488419.0,1.8871270978546265e-72,7.291380317836171e-150
"(186072389, 186121231)",897,-714.1943514242778,-714.0000000000001,48842.0,1.4696990706530848e-73,4.4224547690072915e-151
"(186121231, 186609651)",898,-715.1943514242778,-715.0000000000001,488420.0,1.1446027871039384e-72,2.682354408595274e-150
"(186609651, 186902703)",899,-716.1943514242778,-716.0000000000001,293052.0,5.3485052814135583e-73,9.761581134170295e-151
"(186902703, 186902704)",900,-717.1943514242778,-717.0000000000001,1.0,1.4213928249684098e-78,2.0203575628716764e-156
"(186902704, 186902705)",901,-718.1943514242778,-718.0000000000001,1.0,1.106981845137474e-78,1.225408805463966e-156
