rank,data,discretized_data,Their u,Their weights,our u,our weights,std_our weights
1,1.0,1003.0,-501.0,1.2075794854247982e-221,-500.0,2.669190215541312e-109,6.517791598120101e-113
2,1.0,1004.0,-500.0,3.289106454393453e-218,-499.0,4.409552185275436e-106,1.0767513689102813e-109
3,2.0,2006.0,-499.0,8.949641179406806e-218,-498.0,7.27737809338545e-106,1.7770346046241468e-109
4,3.0,3009.0,-498.0,2.4327646989210297e-217,-497.0,1.1998368057491735e-105,2.9298347514140233e-109
5,4.0,4012.0,-497.0,6.612940073993675e-217,-496.0,1.97819646300756e-105,4.830480874292722e-109
6,5.0,5015.0,-496.0,1.797583483582562e-216,-495.0,3.2614945861843232e-105,7.964116565156562e-109
7,6.0,6018.0,-495.0,4.8863385185605865e-216,-494.0,5.377295498515406e-105,1.3130608383308868e-108
8,7.0,7021.0,-494.0,1.3282445202702732e-215,-493.0,8.865661467242399e-105,2.1648713338794753e-108
9,8.0,8024.0,-493.0,3.6105429432009854e-215,-492.0,1.461700463986905e-104,3.56926941649605e-108
10,9.0,9027.0,-492.0,9.814473273374278e-215,-491.0,2.4099366463674567e-104,5.884730407836471e-108
11,10.0,10030.0,-491.0,2.667850435491026e-214,-490.0,3.973313809905759e-104,9.70228019573583e-108
12,11.0,11033.0,-490.0,7.251969359841806e-214,-489.0,6.55088699355819e-104,1.5996355733002266e-107
13,12.0,12036.0,-489.0,1.9712896531399758e-213,-488.0,1.0800586728232201e-103,2.6373531950686777e-107
14,13.0,13039.0,-488.0,5.3585208427597296e-213,-487.0,1.7807157074877934e-103,4.348260311058673e-107
15,14.0,14042.0,-487.0,1.456596983429282e-212,-486.0,2.935903864004952e-103,7.16906926538359e-107
16,15.0,15045.0,-486.0,3.959441111444078e-212,-485.0,4.840487149315661e-103,1.1819796988960465e-106
17,16.0,16048.0,-485.0,1.0762876824092123e-211,-484.0,7.980614123627358e-103,1.9487550711056446e-106
18,17.0,17051.0,-484.0,2.9256532492872612e-211,-483.0,1.3157808258874286e-102,3.212953937116617e-106
19,18.0,18054.0,-483.0,7.952750063909723e-211,-482.0,2.169355835219985e-102,5.297265497903888e-106
20,19.0,19057.0,-482.0,2.1617815985002314e-210,-481.0,3.576663109244632e-102,8.733714302940047e-106
21,20.0,20060.0,-481.0,5.8763316363003257e-210,-480.0,5.896920546340081e-102,1.4399460543475196e-105
22,21.0,21063.0,-480.0,1.5973525504954182e-209,-479.0,9.722378336379511e-102,2.374069688463478e-105
23,22.0,22066.0,-479.0,4.3420544116544036e-209,-478.0,1.6029491964983024e-101,3.914179193494163e-105
24,23.0,23069.0,-478.0,1.1802927605380598e-208,-477.0,2.6428164361184306e-101,6.4533904936456986e-105
25,24.0,24072.0,-477.0,3.208368363232371e-208,-476.0,4.3572676727843624e-101,1.0639842175007662e-104
26,25.0,25075.0,-476.0,8.721249420777441e-208,-475.0,7.183919894253625e-101,1.754213411082745e-104
27,26.0,26078.0,-475.0,2.3706813821958294e-207,-474.0,1.1844281536661765e-100,2.8922089641995493e-104
28,27.0,27081.0,-474.0,6.444180122289095e-207,-473.0,1.952791890565505e-100,4.768446438585382e-104
29,28.0,28084.0,-473.0,1.7517097725735437e-206,-472.0,3.219609527226065e-100,7.861839071489992e-104
30,29.0,29087.0,-472.0,4.7616408435207897e-206,-471.0,5.308238710886397e-100,1.2961981303986895e-103
31,30.0,30090.0,-471.0,1.2943481778590962e-205,-470.0,8.751806072592231e-100,2.1370694286300578e-103
32,31.0,31093.0,-470.0,3.518403131573458e-205,-469.0,1.442928882892536e-99,3.523431823945345e-103
33,32.0,32096.0,-469.0,9.564011297749528e-205,-468.0,2.3789875413324984e-99,5.80915699400044e-103
34,33.0,33099.0,-468.0,2.5997678117849554e-204,-467.0,3.92228736212549e-99,9.577680700844942e-103
35,34.0,34102.0,-467.0,7.066901600987778e-204,-466.0,6.466758603734591e-99,1.5790925895457164e-102
36,35.0,35105.0,-466.0,1.9209830205473212e-203,-465.0,1.0661882462460282e-98,2.60348354078897e-102
37,36.0,36108.0,-465.0,5.221773237532152e-203,-464.0,1.7578472401562927e-98,4.292418691616459e-102
38,37.0,37111.0,-464.0,1.4194251303917404e-202,-463.0,2.898200135487196e-98,7.0770019996188694e-102
39,38.0,38114.0,-463.0,3.858397538801979e-202,-462.0,4.7783242101237336e-98,1.166800372955897e-101
40,39.0,39117.0,-462.0,1.0488211916696525e-201,-461.0,7.878124763532387e-98,1.9237285935532296e-101
41,40.0,40120.0,-461.0,2.850991586618377e-201,-460.0,1.2988831870865266e-97,3.171692251245252e-101
42,41.0,41123.0,-460.0,7.749798622994355e-201,-459.0,2.1414963387043302e-97,5.229236478742821e-101
43,42.0,42126.0,-459.0,2.1066136771102487e-200,-458.0,3.530730564748275e-97,8.621553412024326e-101
44,43.0,43129.0,-458.0,5.726369678072078e-200,-457.0,5.821190583211556e-97,1.421453849688177e-100
45,44.0,44132.0,-457.0,1.5565886638942206e-199,-456.0,9.597520735340178e-97,2.3435811972994804e-100
46,45.0,45135.0,-456.0,4.2312466794490035e-199,-455.0,1.5823636582340886e-96,3.8639121696005275e-100
47,46.0,46138.0,-455.0,1.15017209604739e-198,-454.0,2.60887662131341e-96,6.370514182137472e-100
48,47.0,47141.0,-454.0,3.1264919082862723e-198,-453.0,4.301310378191702e-96,1.0503202237386877e-99
49,48.0,48144.0,-453.0,8.498686141118817e-198,-452.0,7.091661912407871e-96,1.731685293924492e-99
50,49.0,49147.0,-452.0,2.3101824103180002e-197,-451.0,1.1692173839600806e-95,2.8550663782519135e-99
51,50.0,50150.0,-451.0,6.279726866393138e-197,-450.0,1.9277135710073438e-95,4.7072086670847074e-99
52,51.0,51153.0,-450.0,1.7070067428602529e-196,-449.0,3.178262368337109e-95,7.760875055046554e-99
53,52.0,52156.0,-449.0,4.640125410174087e-196,-448.0,5.240068770543158e-95,1.2795519782501284e-98
54,53.0,53159.0,-448.0,1.2613168584247294e-195,-447.0,8.639412841925973e-95,2.1096245635074144e-98
55,54.0,54162.0,-447.0,3.428614696184992e-195,-446.0,1.4243983718843194e-94,3.478182891046147e-98
56,55.0,55165.0,-446.0,9.319941025427293e-195,-445.0,2.3484358936763087e-94,5.7345541158530485e-98
57,56.0,56168.0,-445.0,2.5334226331728968e-194,-444.0,3.8719162107797946e-94,9.454681348787888e-98
58,57.0,57171.0,-444.0,6.886556707560752e-194,-443.0,6.383710615081289e-94,1.558813424743837e-97
59,58.0,58174.0,-443.0,1.871960195881514e-193,-442.0,1.0524959477078718e-93,2.570048850428077e-97
60,59.0,59177.0,-442.0,5.088515384063354e-193,-441.0,1.735272456311658e-93,4.237294206439183e-97
61,60.0,60180.0,-441.0,1.3832018902333715e-192,-440.0,2.860980609181089e-93,6.9861170883707e-97
62,61.0,61183.0,-440.0,3.7599325633115766e-192,-439.0,4.716959585417472e-93,1.1518159843198421e-96
63,62.0,62186.0,-439.0,1.0220556363081294e-191,-438.0,7.776951601510645e-93,1.8990235132805288e-96
64,63.0,63189.0,-438.0,2.7782352638505354e-191,-437.0,1.2822025526616024e-92,3.1309604599052947e-96
65,64.0,64192.0,-437.0,7.55202643290903e-191,-436.0,2.113994621919185e-92,5.162081107966915e-96
66,65.0,65195.0,-436.0,2.0528536220619e-190,-435.0,3.485387899303836e-92,8.510832923784338e-96
67,66.0,66198.0,-435.0,5.580234697337195e-190,-434.0,5.74643316622307e-92,1.4031991272818199e-95
68,67.0,67201.0,-434.0,1.5168650576308356e-189,-433.0,9.47426659180866e-92,2.313484248177393e-95
69,68.0,68204.0,-433.0,4.123266722382383e-189,-432.0,1.562042485419855e-91,3.8142906893997625e-95
70,69.0,69207.0,-432.0,1.1208201005341918e-188,-431.0,2.5753726714490094e-91,6.288702192246843e-95
71,70.0,70210.0,-431.0,3.046704912253733e-188,-430.0,4.246071703397794e-91,1.0368317069455896e-94
72,71.0,71213.0,-430.0,8.281802599656233e-188,-429.0,7.00058873430987e-91,1.7094464893775156e-94
73,72.0,72216.0,-429.0,2.2512273513530419e-187,-428.0,1.154201955368037e-90,2.8184007881603705e-94
74,73.0,73219.0,-428.0,6.11947040091296e-187,-427.0,1.9029573144989622e-90,4.646757328798008e-94
75,74.0,74222.0,-427.0,1.6634445190594685e-186,-426.0,3.137446201648832e-90,7.661207647770985e-94
76,75.0,75225.0,-426.0,4.521711008809149e-186,-425.0,5.172774288335753e-90,1.2631196008130516e-93
77,76.0,76228.0,-425.0,1.2291284868789127e-185,-424.0,8.528462997709874e-90,2.0825321532987335e-93
78,77.0,77231.0,-424.0,3.34111763072431e-185,-423.0,1.4061058350703248e-89,3.433515058060562e-93
79,78.0,78234.0,-423.0,9.08209934234203e-185,-422.0,2.3182765991360104e-89,5.660909309493633e-93
80,79.0,79237.0,-422.0,2.4687705606548185e-184,-421.0,3.8221919403618946e-89,9.333261590066528e-93
81,80.0,80240.0,-421.0,6.710814153662642e-184,-420.0,6.30172915277325e-89,1.5387946908551182e-92
82,81.0,81243.0,-420.0,1.8241884168066927e-183,-419.0,1.0389794896368356e-88,2.5370435380532614e-92
83,82.0,82246.0,-419.0,4.958658225091107e-183,-418.0,1.7129875843854143e-88,4.1828776458807224e-92
84,83.0,83249.0,-418.0,1.3479030546804138e-182,-417.0,2.824239066821463e-88,6.896399347499625e-92
85,84.0,84252.0,-417.0,3.6639803800622074e-182,-416.0,4.656383023010827e-88,1.1370240295465116e-91
86,85.0,85255.0,-416.0,9.959731286953564e-182,-415.0,7.677077734564914e-88,1.8746357028105047e-91
87,86.0,86258.0,-415.0,2.7073356573660895e-181,-414.0,1.2657361357795525e-87,3.0907517580375625e-91
88,87.0,87261.0,-414.0,7.359301320957463e-181,-413.0,2.086846090153534e-87,5.095788165930347e-91
89,88.0,88264.0,-413.0,2.000465505091332e-180,-412.0,3.4406275375135284e-87,8.401534340151354e-91
90,89.0,89267.0,-412.0,5.437829030948914e-180,-411.0,5.672635805655157e-87,1.3851788373125104e-90
91,90.0,90270.0,-411.0,1.478155184109549e-179,-410.0,9.352595313718815e-87,2.283773812800808e-90
92,91.0,91273.0,-410.0,4.018042376607521e-179,-409.0,1.5419822829978549e-86,3.765306462632625e-90
93,92.0,92276.0,-409.0,1.092217157831062e-178,-408.0,2.542298989021308e-86,6.207940855647066e-90
94,93.0,93279.0,-408.0,2.9689540528633605e-178,-407.0,4.191542419678862e-86,1.023516413595367e-89
95,94.0,94282.0,-407.0,8.070453851428308e-178,-406.0,6.910685144366422e-86,1.6874932820053915e-89
96,95.0,95285.0,-406.0,2.193776805175488e-177,-405.0,1.1393793592628305e-85,2.7822060682058583e-89
97,96.0,96288.0,-405.0,5.963303625203469e-177,-404.0,1.878518985013312e-85,4.58708232412197e-89
98,97.0,97291.0,-404.0,1.6209939881974537e-176,-403.0,3.097154208005463e-85,7.562820198232472e-89
99,98.0,98294.0,-403.0,4.406318502158494e-176,-402.0,5.1063440213770146e-85,1.2468982527306435e-88
100,99.0,99297.0,-402.0,1.1977615514820313e-175,-401.0,8.418938003556715e-85,2.0557876716758363e-88
101,100.0,100300.0,-401.0,3.2558534602205186e-175,-400.0,1.3880482163169627e-84,3.389420862335043e-88
102,101.0,101303.0,-400.0,8.850327297042941e-175,-399.0,2.2885046189991484e-84,5.588210271086555e-88
103,102.0,102306.0,-399.0,2.405768386746688e-174,-398.0,3.773106243439389e-84,9.213401139085332e-88
104,103.0,103309.0,-398.0,6.539556489174756e-174,-397.0,6.220800520169976e-84,1.5190330433502777e-87
105,104.0,104312.0,-397.0,1.7776357570705168e-173,-396.0,1.0256366138386662e-83,2.504462089467953e-87
106,105.0,105315.0,-396.0,4.8321149760638236e-173,-395.0,1.6909889012446624e-83,4.129159918567901e-87
107,106.0,106318.0,-395.0,1.3135050332459104e-172,-394.0,2.7879693699999128e-83,6.807833787865306e-87
108,107.0,107321.0,-394.0,3.570476863461852e-172,-393.0,4.5965844023792925e-83,1.1224220373444555e-86
109,108.0,108324.0,-393.0,9.7055623768818e-172,-392.0,7.578486476771176e-83,1.8505610876723776e-86
110,109.0,109327.0,-392.0,2.6382453844053573e-171,-391.0,1.249481185396591e-82,3.051059427975413e-86
111,110.0,110330.0,-391.0,7.1714944874450305e-171,-390.0,2.0600462077029696e-82,5.0303465770732286e-86
112,111.0,111333.0,-390.0,1.9494143148116042e-170,-389.0,3.3964420012650205e-82,8.293639400614214e-86
113,112.0,112336.0,-389.0,5.2990575080903236e-170,-388.0,5.59978617218495e-82,1.3673899691309314e-85
114,113.0,113339.0,-388.0,1.4404331732201396e-169,-387.0,9.232486573453778e-82,2.2544449274481585e-85
115,114.0,114342.0,-387.0,3.9155033198739053e-169,-386.0,1.5221796995106583e-81,3.7169513055057853e-85
116,115.0,115345.0,-386.0,1.06434415236843e-168,-385.0,2.509650048411152e-81,6.128216679543999e-85
117,116.0,116348.0,-385.0,2.8931873686097487e-168,-384.0,4.137713416829072e-81,1.0103721191023503e-84
118,117.0,117351.0,-384.0,7.864498650419121e-168,-383.0,6.821936122387397e-81,1.665822004086408e-84
119,118.0,118354.0,-383.0,2.137792377137498e-167,-382.0,1.1247471192337653e-80,2.7464761713375766e-84
120,119.0,119357.0,-382.0,5.811122171791127e-167,-381.0,1.854394499639402e-80,4.528173683155312e-84
121,120.0,120360.0,-381.0,1.579626780253528e-166,-380.0,3.0573796558248032e-80,7.465696268842705e-84
122,121.0,121363.0,-380.0,4.2938707725104347e-166,-379.0,5.04076687116419e-80,1.230885223902755e-83
123,122.0,122366.0,-379.0,1.1671950894666518e-165,-378.0,8.310819561128932e-80,2.0293866504389618e-83
124,123.0,123369.0,-378.0,3.172765201963829e-165,-377.0,1.3702224987383974e-79,3.345892937053602e-83
125,124.0,124372.0,-377.0,8.624469994465466e-165,-376.0,2.2591149792618755e-79,5.516444854805599e-83
126,125.0,125375.0,-376.0,2.344374006604576e-164,-375.0,3.724650919266333e-79,9.095079970762271e-83
127,126.0,126378.0,-375.0,6.372669261264945e-164,-374.0,6.140911196527188e-79,1.4995251806514454e-82
128,127.0,127381.0,-374.0,1.7322711051676028e-163,-373.0,1.0124650911194948e-78,2.47229906129049e-82
129,128.0,128384.0,-373.0,4.7088010671417614e-163,-372.0,1.6692727315700547e-78,4.076132049881591e-82
130,129.0,129387.0,-372.0,1.2799848374640013e-162,-371.0,2.7521654591392544e-78,6.720405612822294e-82
131,130.0,130390.0,-371.0,3.4793595243814983e-162,-370.0,4.537553732969073e-78,1.1080075681592647e-81
132,131.0,131393.0,-370.0,9.457879769802133e-162,-369.0,7.481161356490879e-78,1.8267956457209016e-81
133,132.0,132396.0,-369.0,2.5709182714003555e-161,-368.0,1.2334349857986337e-77,3.011876838322426e-81
134,133.0,133399.0,-368.0,6.988480419600926e-161,-367.0,2.033590497111918e-77,4.965745408071234e-81
135,134.0,134402.0,-367.0,1.899665933314304e-160,-366.0,3.3528239084820662e-77,8.187130079168531e-81
136,135.0,135405.0,-366.0,5.1638273866709646e-160,-365.0,5.527872094826322e-77,1.349829550751398e-80
137,136.0,136408.0,-365.0,1.403673815048684e-159,-364.0,9.113920304449835e-77,2.2254926921434284e-80
138,137.0,137411.0,-364.0,3.8155810245306204e-159,-363.0,1.5026314265412227e-76,3.669217139324562e-80
139,138.0,138414.0,-363.0,1.0371824563994732e-158,-362.0,2.4774203949609908e-76,6.0495163444218805e-80
140,139.0,139417.0,-362.0,2.8193542240272037e-158,-361.0,4.0845757016384986e-76,9.973966274496438e-80
141,140.0,140420.0,-361.0,7.6637993551624e-158,-360.0,6.734326841076292e-76,1.6444290350007986e-79
142,141.0,141423.0,-360.0,2.0832366524094096e-157,-359.0,1.1103027906729283e-75,2.711205128162702e-79
143,142.0,142426.0,-359.0,5.6628243366243514e-157,-358.0,1.830579827900169e-75,4.470021564033115e-79
144,143.0,143429.0,-358.0,1.539315249200162e-156,-357.0,3.0181158999735885e-75,7.369819633109652e-79
145,144.0,144432.0,-357.0,4.184292670170707e-156,-356.0,4.976031881724716e-75,1.2150778390331295e-78
146,145.0,145435.0,-356.0,1.137408673027941e-155,-355.0,8.204089607081523e-75,2.0033246787702673e-78
147,146.0,146438.0,-355.0,3.0917973274235675e-155,-354.0,1.3526257041925162e-74,3.3029240100070405e-78
148,147.0,147441.0,-354.0,8.404376492413723e-155,-353.0,2.230102769797941e-74,5.445601070804771e-78
149,148.0,148444.0,-353.0,2.2845463898856593e-154,-352.0,3.676817872413136e-74,8.97827831718322e-78
150,149.0,149447.0,-352.0,6.2100409378979e-154,-351.0,6.062047834737928e-74,1.4802678435805726e-77
151,150.0,150450.0,-351.0,1.688064143547463e-153,-350.0,9.994627209134077e-74,2.4405490800447005e-77
152,151.0,151453.0,-350.0,4.5886340866783493e-153,-349.0,1.647835447241761e-73,4.0237851804573266e-77
153,152.0,152456.0,-349.0,1.2473200655265523e-152,-348.0,2.71682135248115e-73,6.634100215747948e-77
154,153.0,153459.0,-348.0,3.390567468393173e-152,-347.0,4.479281152527962e-73,1.0937782137659951e-76
155,154.0,154462.0,-347.0,9.216517937497548e-152,-346.0,7.385086113619036e-73,1.8033354064643877e-76
156,155.0,155465.0,-346.0,2.5053093231166427e-151,-345.0,1.2175948561475849e-72,2.9731974428444977e-76
157,156.0,156468.0,-345.0,6.810136807696999e-151,-344.0,2.0074745384255857e-72,4.901973866008951e-76
158,157.0,157471.0,-344.0,1.8511871133682842e-150,-343.0,3.309765971891185e-72,8.081988581305098e-76
159,158.0,158474.0,-343.0,5.032048291346562e-150,-342.0,5.456881558896479e-72,1.3324946483553266e-75
160,159.0,159477.0,-342.0,1.3678525430295746e-149,-341.0,8.996876697843898e-72,2.1969122698375144e-75
161,160.0,160480.0,-341.0,3.7182087117287873e-149,-340.0,1.4833341981601563e-71,3.622095989143209e-75
162,161.0,161483.0,-340.0,1.0107139175510475e-148,-339.0,2.4456046440635685e-71,5.971826701818029e-75
163,162.0,162486.0,-339.0,2.7474052758496665e-148,-338.0,4.032120396390621e-71,9.845877708222376e-75
164,163.0,163489.0,-338.0,7.468221836754659e-148,-337.0,6.64784266355305e-71,1.6233108006258463e-74
165,164.0,164492.0,-337.0,2.0300731709751222e-147,-336.0,1.0960439603667708e-70,2.6763870459490874e-74
166,165.0,165495.0,-336.0,5.518311011103907e-147,-335.0,1.8070709910791033e-70,4.4126162512825415e-74
167,166.0,166498.0,-335.0,1.5000324545269208e-146,-334.0,2.979356380657279e-70,7.275174272926588e-74
168,167.0,167501.0,-334.0,4.077510963239348e-146,-333.0,4.912128237785804e-70,1.1994734571824405e-73
169,168.0,168504.0,-333.0,1.1083823956716058e-145,-332.0,8.098730310044192e-70,1.977597402496909e-73
170,169.0,169507.0,-332.0,3.0128957251380294e-145,-331.0,1.3352548927833702e-69,3.260506902377977e-73
171,170.0,170510.0,-331.0,8.189899700684643e-145,-330.0,2.2014631435383613e-69,5.3756670832151557e-73
172,171.0,171513.0,-330.0,2.2262455533273234e-144,-329.0,3.6295991114140654e-69,8.862976664299343e-73
173,172.0,172516.0,-329.0,6.051562833297416e-144,-328.0,5.984197259102654e-69,1.4612578148149196e-72
174,173.0,173519.0,-328.0,1.6449853283530497e-143,-327.0,9.86627330914795e-69,2.4092068412621464e-72
175,174.0,174522.0,-327.0,4.471533726143831e-143,-326.0,1.626673466733317e-68,3.9721105647051687e-72
176,175.0,175525.0,-326.0,1.215488887311854e-142,-325.0,2.6819311450867368e-68,6.548903177602109e-72
177,176.0,176528.0,-325.0,3.304041355073716e-142,-324.0,4.421756925457654e-68,1.0797315968668253e-71
178,177.0,177531.0,-324.0,8.981315575974084e-142,-323.0,7.2902446968676356e-68,1.780176450401351e-71
179,178.0,178534.0,-323.0,2.4413746925826534e-141,-322.0,1.2019581500334477e-67,2.9350147793761588e-71
180,179.0,179537.0,-322.0,6.636344463307214e-141,-321.0,1.981693968451521e-67,4.839021296576717e-71
181,180.0,180540.0,-321.0,1.8039454562002794e-140,-320.0,3.267260997804171e-67,7.978197341036945e-71
182,181.0,181543.0,-320.0,4.903632153120482e-140,-319.0,5.386802704008662e-67,1.3153823658010816e-70
183,182.0,182546.0,-319.0,1.3329454175274906e-139,-318.0,8.881336199164048e-67,2.1686988856001003e-70
184,183.0,183549.0,-318.0,3.623321306792732e-139,-317.0,1.4642847903800795e-66,3.575579982432549e-70
185,184.0,184552.0,-317.0,9.849208466923166e-139,-316.0,2.414197480262315e-66,5.895134772126133e-70
186,185.0,185555.0,-316.0,2.6772924400342215e-138,-315.0,3.980338737379132e-66,9.71943409244831e-70
187,186.0,186558.0,-315.0,7.277635389215801e-138,-314.0,6.562469140908667e-66,1.6024637727387526e-69
188,187.0,187561.0,-314.0,1.9782664032655784e-137,-313.0,1.0819682460929314e-65,2.642016107640757e-69
189,188.0,188564.0,-313.0,5.377485615847855e-137,-312.0,1.783864061555527e-65,4.3559481541996756e-69
190,189.0,189567.0,-312.0,1.4617521432359121e-136,-311.0,2.9410946223241195e-65,7.181744375895966e-69
191,190.0,190570.0,-311.0,3.973454288669243e-136,-310.0,4.8490452629675365e-65,1.1840694713270697e-68
192,191.0,191573.0,-310.0,1.0800968589102264e-135,-309.0,7.994724067642272e-65,1.952200523363595e-68
193,192.0,192576.0,-309.0,2.936007664551362e-135,-308.0,1.3181071623700065e-64,3.2186345275414815e-68
194,193.0,193579.0,-308.0,7.980896282766446e-135,-307.0,2.173191315661617e-64,5.306631208167498e-68
195,194.0,194582.0,-307.0,2.169432534026037e-134,-306.0,3.582986747432105e-64,8.749155748666875e-68
196,195.0,195585.0,-306.0,5.897129035310836e-134,-305.0,5.907346463127978e-64,1.4424919183495378e-67
197,196.0,196588.0,-305.0,1.6030058696763663e-133,-304.0,9.739567767154268e-64,2.3782671085959153e-67
198,197.0,197591.0,-304.0,4.357421726454455e-133,-303.0,1.6057832545132596e-63,3.921099569348577e-67
199,198.0,198594.0,-303.0,1.1844700297953783e-132,-302.0,2.647489007850088e-63,6.464800264518111e-67
200,199.0,199597.0,-302.0,3.219723358347121e-132,-301.0,4.364971441187219e-63,1.0658653706938824e-66
201,200.0,200600.0,-301.0,8.752115497660109e-132,-300.0,7.196621261083961e-63,1.7573149083656808e-66
202,201.0,201603.0,-300.0,2.3790716517864265e-131,-299.0,1.1865222550321905e-62,2.897322468740944e-66
203,202.0,202606.0,-299.0,6.466987239653088e-131,-298.0,1.956244480030655e-62,4.776877182290602e-66
204,203.0,203609.0,-298.0,1.757909389842551e-130,-297.0,3.2253018849162526e-62,7.875739017964609e-66
205,204.0,204612.0,-297.0,4.778493150486534e-130,-296.0,5.317623822090642e-62,1.2984898441401188e-65
206,205.0,205615.0,-296.0,1.2989291098383558e-129,-295.0,8.767279505062556e-62,2.1408478258219083e-65
207,206.0,206618.0,-295.0,3.5308553957300857e-129,-294.0,1.4454800206169928e-61,3.5296613477647032e-65
208,207.0,207621.0,-294.0,9.597860061129662e-129,-293.0,2.3831936563632953e-61,5.819427742427747e-65
209,208.0,208624.0,-293.0,2.6089688596261576e-128,-292.0,3.929222073443778e-61,9.594614302243056e-65
210,209.0,209627.0,-292.0,7.091912642137303e-128,-291.0,6.478192009791216e-61,1.581884468427179e-64
211,210.0,210630.0,-291.0,1.9277817264140807e-127,-290.0,1.0680732962222391e-60,2.6080865708860556e-64
212,211.0,211633.0,-290.0,5.240254036146802e-127,-289.0,1.7609551621484046e-60,4.300007805247198e-64
213,212.0,212636.0,-289.0,1.424448732296702e-126,-288.0,2.9033242325832674e-60,7.089514332687628e-64
214,213.0,213639.0,-288.0,3.8720531045736475e-126,-287.0,4.786772417999159e-60,1.1688633079235517e-63
215,214.0,214642.0,-287.0,1.0525331592990977e-125,-286.0,7.892053503555898e-60,1.9271297983144733e-63
216,215.0,215645.0,-286.0,2.861081760773326e-125,-285.0,1.3011796480816078e-59,3.17729988988112e-63
217,216.0,216648.0,-285.0,7.777226560045742e-125,-284.0,2.145282562794254e-59,5.238481911840177e-63
218,217.0,217651.0,-284.0,2.114069363398139e-124,-283.0,3.53697299294097e-59,8.636796554228773e-63
219,218.0,218654.0,-283.0,5.746636334627142e-124,-282.0,5.831482607353671e-59,1.423967018966655e-62
220,219.0,219657.0,-282.0,1.5620977123179456e-123,-281.0,9.614489414461839e-59,2.3477247129457765e-62
221,220.0,220660.0,-281.0,4.246221825671316e-123,-280.0,1.5851613204544457e-58,3.870743671982055e-62
222,221.0,221663.0,-280.0,1.1542427628328528e-122,-279.0,2.6134891865243467e-58,6.381777425424734e-62
223,222.0,222666.0,-279.0,3.1375571278389075e-122,-278.0,4.308915212567465e-58,1.052177218617166e-61
224,223.0,223669.0,-278.0,8.528764526356655e-122,-277.0,7.104200164603342e-58,1.73474696088022e-61
225,224.0,224672.0,-277.0,2.3183585631201412e-121,-276.0,1.1712845922692883e-57,2.860114213685622e-61
226,225.0,225675.0,-276.0,6.301951953981902e-121,-275.0,1.9311218213177024e-57,4.7155311407352564e-61
227,226.0,226678.0,-275.0,1.7130481480330975e-120,-274.0,3.1838816231196683e-57,7.774596494379057e-61
228,227.0,227681.0,-274.0,4.656547652073789e-120,-273.0,5.249333355428645e-57,1.2818142611393397e-60
229,228.0,228684.0,-273.0,1.2657808865985815e-119,-272.0,8.654687560090883e-57,2.1133544374271984e-60
230,229.0,229687.0,-272.0,3.440749182851703e-119,-271.0,1.4269167471585633e-56,3.484332413514725e-60
231,230.0,230690.0,-271.0,9.352925980031092e-119,-270.0,2.35258799255856e-56,5.744692964351642e-60
232,231.0,231693.0,-270.0,2.542388873444102e-118,-269.0,3.8787618645250123e-56,9.471397483967924e-60
233,232.0,232696.0,-269.0,6.910929475559566e-118,-268.0,6.394997190022877e-56,1.5615694495073594e-59
234,233.0,233699.0,-268.0,1.8785854011175567e-117,-267.0,1.0543567893258265e-55,2.5745927670782727e-59
235,234.0,234702.0,-267.0,5.106524559066301e-117,-266.0,1.738340465468584e-55,4.244785858472649e-59
236,235.0,235705.0,-266.0,1.3880972915489764e-116,-265.0,2.866038901136816e-55,6.99846873443096e-59
237,236.0,236708.0,-265.0,3.7732396437508e-116,-264.0,4.72529929895829e-55,1.153852426478613e-58
238,237.0,237711.0,-264.0,1.0256728758029078e-115,-263.0,7.790701464616937e-55,1.902381038784245e-58
239,238.0,238714.0,-263.0,2.7880679402383753e-115,-262.0,1.2844695218388584e-54,3.1364960836201897e-58
240,239.0,239717.0,-262.0,7.5787544184592165e-115,-261.0,2.117732222221749e-54,5.171207808532255e-58
241,240.0,240720.0,-261.0,2.0601190418051383e-114,-260.0,3.491550160424048e-54,8.525880309137724e-58
242,241.0,241723.0,-260.0,5.599984155801368e-114,-259.0,5.756593017207572e-54,1.405680021711875e-57
243,242.0,242726.0,-259.0,1.5222335170373423e-113,-258.0,9.491017354233953e-54,2.317574551594586e-57
244,243.0,243729.0,-258.0,4.1378597080339095e-113,-257.0,1.564804219250957e-53,3.821034459647306e-57
245,244.0,244732.0,-257.0,1.1247868853061426e-112,-256.0,2.5799260007603597e-53,6.299820789698683e-57
246,245.0,245735.0,-256.0,3.0574877512167356e-112,-255.0,4.253578874285921e-53,1.0386648537575098e-56
247,246.0,246738.0,-255.0,8.311113394868562e-112,-254.0,7.012965966635902e-53,1.7124688375186442e-56
248,247.0,247741.0,-254.0,2.2591948515533775e-111,-253.0,1.1562426159888697e-52,2.8233837978281103e-56
249,248.0,248744.0,-253.0,6.141128311925777e-111,-252.0,1.9063217950708093e-52,4.654972922829315e-56
250,249.0,249747.0,-252.0,1.669331749654321e-110,-251.0,3.142993292332494e-52,7.674752872401838e-56
251,250.0,250750.0,-251.0,4.537714160755084e-110,-250.0,5.181919894736409e-52,1.2653528308095817e-55
252,251.0,251753.0,-250.0,1.2334785945921833e-109,-249.0,8.543541553516087e-52,2.086214127096378e-55
253,252.0,252756.0,-249.0,3.3529424494731328e-109,-248.0,1.4085918686392387e-51,3.439585606578898e-55
254,253.0,253759.0,-248.0,9.114242532271778e-109,-247.0,2.3223753755607537e-51,5.670917951960632e-55
255,254.0,254762.0,-247.0,2.4775079855642923e-108,-246.0,3.8289496802372133e-51,9.349763051792701e-55
256,255.0,255765.0,-246.0,6.7345649370215904e-108,-245.0,6.312870782247546e-51,1.5415153219496769e-54
257,256.0,256768.0,-245.0,1.830644549088322e-107,-244.0,1.0408164337872888e-50,2.5415291004085888e-54
258,257.0,257771.0,-244.0,4.9762078121543886e-107,-243.0,1.7160161932793547e-50,4.190273087947002e-54
259,258.0,258774.0,-243.0,1.3526735270415215e-106,-242.0,2.8292323987255343e-50,6.908592370140532e-54
260,259.0,259777.0,-242.0,3.676947868394573e-106,-241.0,4.664615635532734e-50,1.1390343191247305e-53
261,260.0,260780.0,-241.0,9.994980574848187e-106,-240.0,7.690651017943215e-50,1.877950109998381e-53
262,261.0,261783.0,-240.0,2.716917407241097e-105,-239.0,1.267973991881457e-49,3.0962162916679755e-53
263,262.0,262786.0,-239.0,7.385347217527537e-105,-238.0,2.0905356911095095e-49,5.104797658761263e-53
264,263.0,263789.0,-238.0,2.0075455138265673e-104,-237.0,3.4467106610900414e-49,8.41638848261991e-53
265,264.0,264792.0,-237.0,5.4570744900392344e-104,-236.0,5.682665180888052e-49,1.387627871377102e-52
266,265.0,265795.0,-236.0,1.4833866422821062e-103,-235.0,9.369130957997123e-49,2.2878115873557698e-52
267,266.0,266798.0,-235.0,4.0322629542943273e-103,-234.0,1.5447085498424923e-48,3.7719636274276815e-52
268,267.0,267801.0,-234.0,1.0960827116226856e-102,-233.0,2.5467938431576662e-48,6.218916664847232e-52
269,268.0,268804.0,-233.0,2.9794617174920615e-102,-232.0,4.1989531813021706e-48,1.0253260186045132e-51
270,269.0,269807.0,-232.0,8.099016645248048e-102,-231.0,6.92290342468686e-48,1.690476816275536e-51
271,270.0,270810.0,-231.0,2.2015409775165107e-101,-230.0,1.1413938131283988e-47,2.7871250846189085e-51
272,271.0,271813.0,-230.0,5.984408833791094e-101,-229.0,1.881840257950318e-47,4.595192411113089e-51
273,272.0,272816.0,-229.0,1.6267309786964115e-100,-228.0,3.1026300613425053e-47,7.576191471161958e-51
274,273.0,273819.0,-228.0,4.4219132591818535e-100,-227.0,5.115372177249032e-47,1.2491028029401617e-50
275,274.0,274822.0,-227.0,1.2020006459456146e-99,-226.0,8.433822916178104e-47,2.059422360498595e-50
276,275.0,275825.0,-226.0,3.267376513669998e-99,-225.0,1.3905023235221024e-46,3.3954134511095005e-50
277,276.0,276828.0,-225.0,8.881650203843024e-99,-224.0,2.2925507577488414e-46,5.598090379665563e-50
278,277.0,277831.0,-224.0,2.4142828355836066e-98,-223.0,3.7797771984602114e-46,9.22969068425637e-50
279,278.0,278834.0,-223.0,6.562701160727493e-98,-222.0,6.23179906560869e-46,1.5217187353116297e-49
280,279.0,279837.0,-222.0,1.7839271310812628e-97,-221.0,1.0274499674198229e-45,2.508890046931182e-49
281,280.0,280840.0,-221.0,4.849216703713274e-97,-220.0,1.6939786158652157e-45,4.136460386223282e-49
282,281.0,281843.0,-220.0,1.3181537647963861e-96,-219.0,2.792898576088143e-45,6.819870224174794e-49
283,282.0,282846.0,-219.0,3.5831134259608948e-96,-218.0,4.6047112893046215e-45,1.1244065102011433e-48
284,283.0,283849.0,-218.0,9.739912115097134e-96,-217.0,7.59188544810954e-45,1.8538329302823254e-48
285,284.0,284852.0,-217.0,2.647582611325664e-95,-216.0,1.2516903023016972e-44,3.056453784480817e-48
286,285.0,285855.0,-216.0,7.1968757017107e-95,-215.0,2.063688425733882e-44,5.0392403673854296e-48
287,286.0,286858.0,-215.0,1.9563136441638634e-94,-214.0,3.402447003605113e-44,8.308302781879086e-48
288,287.0,287861.0,-214.0,5.317811829697125e-94,-213.0,5.609686747273665e-44,1.3698075519901095e-47
289,288.0,288864.0,-213.0,1.4455311263830238e-93,-212.0,9.248809862194704e-44,2.2584308477317647e-47
290,289.0,289867.0,-212.0,3.929360993318909e-93,-211.0,1.524870954846153e-43,3.7235229770606835e-47
291,290.0,290870.0,-211.0,1.0681110585594574e-92,-210.0,2.514087178327667e-43,6.139051534220614e-47
292,291.0,291873.0,-210.0,2.9034268812583275e-92,-209.0,4.1450290073032904e-43,1.012158484639378e-46
293,292.0,292876.0,-209.0,7.892332531584032e-92,-208.0,6.833997492009972e-43,1.6687672229445515e-46
294,293.0,293879.0,-208.0,2.1453584104761046e-91,-207.0,1.126735702898817e-42,2.751332016315865e-46
295,294.0,294882.0,-207.0,5.831688782728975e-91,-206.0,1.8576731198265397e-42,4.536179618058239e-46
296,295.0,295885.0,-206.0,1.5852173647320624e-90,-205.0,3.0627851866658835e-42,7.478895824009e-46
297,296.0,296888.0,-205.0,4.3090675567088995e-90,-204.0,5.049679084841305e-42,1.2330614626394e-45
298,297.0,297891.0,-204.0,1.1713260037004218e-89,-203.0,8.325513317387416e-42,2.0329746615341903e-45
299,298.0,298894.0,-203.0,3.183994191060408e-89,-202.0,1.372645089587382e-41,3.351808567265813e-45
300,299.0,299897.0,-202.0,8.654993551478665e-89,-201.0,2.2631091563247998e-41,5.526198080166068e-45
301,300.0,300900.0,-201.0,2.352671169641467e-88,-200.0,3.7312362039489183e-41,9.111160320872006e-45
302,301.0,301903.0,-200.0,6.395223288775888e-88,-199.0,6.151768495456983e-41,1.5021763821780682e-44
303,302.0,302906.0,-199.0,1.7384019254817587e-87,-198.0,1.0142551570882852e-40,2.476670153640346e-44
304,303.0,303909.0,-198.0,4.72546636459528e-87,-197.0,1.6722240514087557e-40,4.0833387628149924e-44
305,304.0,304912.0,-197.0,1.2845149349873773e-86,-196.0,2.75703136293396e-40,6.732287473727423e-44
306,305.0,305915.0,-196.0,3.4916736061604396e-86,-195.0,4.545576252056584e-40,1.1099665558402432e-43
307,306.0,306918.0,-195.0,9.491352914535987e-86,-194.0,7.494388254355058e-40,1.8300254703795707e-43
308,307.0,307921.0,-194.0,2.580017215507497e-85,-193.0,1.2356157325840386e-39,3.017201918937805e-43
309,308.0,308924.0,-193.0,7.013213914025533e-85,-192.0,2.0371859407230258e-39,4.974524981750003e-43
310,309.0,309927.0,-192.0,1.9063891941591743e-84,-191.0,3.3587517928413027e-39,8.201605149040397e-43
311,310.0,310930.0,-191.0,5.182103104453566e-84,-190.0,5.537645523859646e-39,1.3522160863106596e-42
312,311.0,311933.0,-190.0,1.4086416702037332e-83,-189.0,9.130033964784752e-39,2.2294274240832646e-42
313,312.0,312936.0,-189.0,3.829085054925007e-83,-188.0,1.5052881199955245e-38,3.675704415568274e-42
314,313.0,313939.0,-188.0,1.0408532324426753e-82,-187.0,2.481800541968828e-38,6.060212054753796e-42
315,314.0,314942.0,-187.0,2.8293324278417825e-82,-186.0,4.091797343179113e-38,9.991600519625913e-42
316,315.0,315945.0,-186.0,7.69092292527223e-82,-185.0,6.746233315093675e-38,1.6473364305045694e-41
317,316.0,316948.0,-185.0,2.0906096031846584e-81,-184.0,1.1122658363700781e-37,2.715998612972107e-41
318,317.0,317951.0,-184.0,5.682866094738832e-81,-183.0,1.8338163430964161e-37,4.477924684399158e-41
319,318.0,318954.0,-183.0,1.5447631638894584e-80,-182.0,3.0234520114205856e-37,7.38284967576205e-41
320,319.0,319957.0,-182.0,4.199101637673617e-80,-181.0,4.984829642170206e-37,1.2172261298810437e-40
321,320.0,320960.0,-181.0,1.1414341677540808e-79,-180.0,8.218594661862525e-37,2.006866611586873e-40
322,321.0,321963.0,-180.0,3.1027397565881914e-79,-179.0,1.3550171834275275e-36,3.3087636699811702e-40
323,322.0,322966.0,-179.0,8.434121098771123e-79,-178.0,2.2340456524811416e-36,5.455229042417775e-40
324,323.0,323969.0,-178.0,2.2926318121812577e-78,-177.0,3.6833185869608045e-36,8.994152158775275e-40
325,324.0,324972.0,-177.0,6.232019394399443e-78,-176.0,6.072765701087419e-36,1.4828849976086276e-39
326,325.0,325975.0,-176.0,1.6940385074400348e-77,-175.0,1.0012297983361002e-35,2.4448640375594525e-39
327,326.0,326978.0,-175.0,4.60487409148413e-77,-174.0,1.650748865375528e-35,4.0308993426940656e-39
328,327.0,327981.0,-174.0,1.2517345565223165e-76,-173.0,2.721624766928735e-35,6.645829486350872e-39
329,328.0,328984.0,-173.0,3.4025672990488546e-76,-172.0,4.4872006440996845e-35,1.0957120435592788e-38
330,329.0,329987.0,-172.0,9.249136859113474e-76,-171.0,7.398143147826466e-35,1.8065237527784886e-38
331,330.0,330990.0,-171.0,2.5141760653058923e-75,-170.0,1.2197475971505896e-34,2.978454137230914e-38
332,331.0,331993.0,-170.0,6.834239111867668e-75,-169.0,2.0110238083075477e-34,4.910640689857405e-38
333,332.0,332996.0,-169.0,1.8577387989133966e-74,-168.0,3.315617728641031e-34,8.096277758133455e-38
334,333.0,333999.0,-168.0,5.049857619109618e-74,-167.0,5.466529474720914e-34,1.3348505353330976e-37
335,334.0,335002.0,-167.0,1.3726936202331134e-73,-166.0,9.01278342188157e-34,2.200796470809131e-37
336,335.0,336005.0,-166.0,3.731368123921333e-73,-165.0,1.4859567735869629e-33,3.6284999539047874e-37
337,336.0,337008.0,-165.0,1.0142910166546678e-72,-164.0,2.44992853995376e-33,5.982385054737257e-37
338,337.0,338011.0,-164.0,2.7571288393416343e-72,-163.0,4.039249295517072e-33,9.863285489263865e-37
339,338.0,339014.0,-163.0,7.494653222702743e-72,-162.0,6.659596231179506e-33,1.6261808585137256e-36
340,339.0,340017.0,-162.0,2.037257966587488e-71,-161.0,1.0979817960620058e-32,2.6811189714369748e-36
341,340.0,341020.0,-161.0,5.537841310458194e-71,-160.0,1.8102659420089592e-32,4.42041787748579e-36
342,341.0,342023.0,-160.0,1.5053413403108332e-70,-159.0,2.9846239642141757e-32,7.288036979993935e-36
343,342.0,343026.0,-159.0,4.091942010995122e-70,-158.0,4.920813014841249e-32,1.2015941590565125e-35
344,343.0,344029.0,-158.0,1.1123051611596202e-69,-157.0,8.113049086706792e-32,1.981093848785505e-35
345,344.0,345032.0,-157.0,3.023558907281406e-69,-156.0,1.3376156599487738e-31,3.2662715677458453e-35
346,345.0,346035.0,-156.0,8.218885234938531e-69,-155.0,2.2053553905791327e-31,5.38517140962563e-35
347,346.0,347038.0,-155.0,2.2341246384323763e-68,-154.0,3.636016341901005e-31,8.878646649415968e-35
348,347.0,348041.0,-154.0,6.072980407163362e-68,-153.0,5.994777483505456e-31,1.4638413585922529e-34
349,348.0,349044.0,-153.0,1.6508072285379982e-67,-152.0,9.883717150169632e-31,2.413466384841621e-34
350,349.0,350047.0,-152.0,4.487359291623678e-67,-151.0,1.6295494699068324e-30,3.979133364808122e-34
351,350.0,351050.0,-151.0,1.2197907220187495e-66,-150.0,2.686672872693513e-30,6.560481817511723e-34
352,351.0,352053.0,-150.0,3.315734954186505e-66,-149.0,4.429574712622812e-30,1.0816405918573015e-33
353,352.0,353056.0,-149.0,9.013102073951662e-66,-148.0,7.303134048856637e-30,1.7833238510478086e-33
354,353.0,354059.0,-148.0,2.450015158566933e-65,-147.0,1.2040832449124287e-29,2.940203965769389e-33
355,354.0,355062.0,-147.0,6.659831684981701e-65,-146.0,1.9851976575807528e-29,4.8475768185608626e-33
356,355.0,356065.0,-146.0,1.8103299449881545e-64,-145.0,3.2730376045974565e-29,7.992303012114149e-33
357,356.0,357068.0,-145.0,4.920986992976563e-64,-144.0,5.396326718501222e-29,1.3177079977953304e-32
358,357.0,358071.0,-144.0,1.337662952109151e-63,-143.0,8.897038644440389e-29,2.1725332045368387e-32
359,358.0,359074.0,-143.0,3.636144895321187e-63,-142.0,1.46687368593299e-28,3.5819017056221973e-32
360,359.0,360077.0,-142.0,9.884066594595697e-63,-141.0,2.4184658474280204e-28,5.905557531616387e-32
361,360.0,361080.0,-141.0,2.686767861536856e-62,-140.0,3.987376085116388e-28,9.736618317719281e-32
362,361.0,362083.0,-140.0,7.3033922553034045e-62,-139.0,6.574071765812393e-28,1.6052969725112277e-31
363,362.0,363086.0,-139.0,1.9852678453699768e-61,-138.0,1.0838811955404044e-27,2.6466872643697797e-31
364,363.0,364089.0,-138.0,5.3965175086932486e-61,-137.0,1.7870179819993496e-27,4.36364958965759e-31
365,364.0,365092.0,-137.0,1.4669255480841935e-60,-136.0,2.9462945580459462e-27,7.194441896350353e-31
366,365.0,366095.0,-136.0,3.9875170610595884e-60,-135.0,4.857618507598384e-27,1.1861629385328992e-30
367,366.0,367098.0,-135.0,1.0839195167748697e-59,-134.0,8.008858958424068e-27,1.95565206727536e-30
368,367.0,368101.0,-134.0,2.946398725961237e-59,-133.0,1.3204376118791035e-26,3.2243251614055634e-30
369,368.0,369104.0,-133.0,8.009142116175312e-59,-132.0,2.177033577337558e-26,5.316013477262976e-30
370,369.0,370107.0,-132.0,2.1771105475945374e-58,-131.0,3.5893215659848247e-26,8.764624495292022e-30
371,370.0,371110.0,-131.0,5.918000040072751e-58,-130.0,5.917790813221873e-26,1.445042283508733e-29
372,371.0,372113.0,-130.0,1.6086791969749663e-57,-129.0,9.75678758931271e-26,2.382471949881933e-29
373,372.0,373116.0,-129.0,4.37284342895714e-57,-128.0,1.6086223232202892e-25,3.9280321806167523e-29
374,373.0,374119.0,-128.0,1.1886620831630734e-56,-127.0,2.6521698408163475e-25,6.476230208177447e-29
375,374.0,375122.0,-127.0,3.2311185408404566e-56,-126.0,4.372688830063285e-25,1.0677498498172876e-28
376,375.0,376125.0,-126.0,8.783090815163717e-56,-125.0,7.209345084278195e-25,1.7604218891806292e-28
377,376.0,377128.0,-125.0,2.3874916160565075e-55,-124.0,1.1886200588266869e-24,2.902445014098207e-28
378,377.0,378131.0,-124.0,6.4898750755247235e-55,-123.0,1.9597031737683965e-24,4.785322831781248e-28
379,378.0,379134.0,-123.0,1.764130948676813e-54,-122.0,3.2310043068505043e-24,7.889663539924714e-28
380,379.0,380137.0,-122.0,4.7954051008103975e-54,-121.0,5.32702552642815e-24,1.3007856096941144e-27
381,380.0,381140.0,-121.0,1.3035262545632719e-53,-120.0,8.782780294984639e-24,2.1446329033233215e-27
382,381.0,382143.0,-120.0,3.5433517306986214e-53,-119.0,1.4480356688227117e-23,3.535901885552531e-27
383,382.0,383146.0,-119.0,9.631828621396969e-53,-118.0,2.3874072079204915e-23,5.829716649819149e-27
384,383.0,384149.0,-118.0,2.618202471637512e-52,-117.0,3.936169045521317e-23,9.61157784271152e-27
385,384.0,385152.0,-117.0,7.117012201878806e-52,-116.0,6.489645630422417e-23,1.5846812834268534e-26
386,385.0,386155.0,-116.0,1.934604494128846e-51,-115.0,1.069961679018358e-22,2.6126977392662316e-26
387,386.0,387158.0,-115.0,5.258800241645645e-51,-114.0,1.7640685790315899e-22,4.307610336638373e-26
388,387.0,388161.0,-114.0,1.4294901136361392e-50,-113.0,2.9084573892231323e-22,7.102048787903425e-26
389,388.0,389164.0,-113.0,3.885756999858972e-50,-112.0,4.79523556253714e-22,1.170929890216644e-25
390,389.0,390167.0,-112.0,1.056258264252418e-49,-111.0,7.906006869972677e-22,1.9305370164987468e-25
391,390.0,391170.0,-111.0,2.8712076458770403e-49,-110.0,1.3034801692825293e-21,3.1829174429754474e-25
392,391.0,392173.0,-110.0,7.80475156952023e-49,-109.0,2.14907548103191e-21,5.247743691116083e-25
393,392.0,393176.0,-109.0,2.1215514367064058e-48,-108.0,3.54322645791742e-21,8.65206664672549e-25
394,393.0,394179.0,-108.0,5.766974718540202e-48,-107.0,5.841792828075922e-21,1.4264846315971443e-24
395,394.0,395182.0,-107.0,1.567626258259055e-47,-106.0,9.63148809467223e-21,2.3518755544410483e-24
396,395.0,396185.0,-106.0,4.261249971640835e-47,-105.0,1.5879639290181154e-20,3.877587252646613e-24
397,396.0,397188.0,-105.0,1.1583278364432903e-46,-104.0,2.618109906876715e-20,6.393060582434143e-24
398,397.0,398191.0,-104.0,3.148661509202077e-46,-103.0,4.316533492498372e-20,1.0540374967133721e-23
399,398.0,399194.0,-103.0,8.558949364432438e-46,-102.0,7.116760584771577e-20,1.737814040946853e-23
400,399.0,400197.0,-102.0,2.326563652803779e-45,-101.0,1.173355455459318e-19,2.8651709738304195e-23
401,400.0,401200.0,-101.0,6.324255700169811e-45,-100.0,1.9345360975078147e-19,4.723868328746813e-23
402,401.0,402203.0,-100.0,1.7191109348300133e-44,-99.0,3.1895108128983515e-19,7.788342193591537e-23
403,402.0,403206.0,-99.0,4.673028015253667e-44,-98.0,5.258614320353568e-19,1.2840805438065662e-22
404,403.0,404209.0,-98.0,1.270260713774408e-43,-97.0,8.669989284375224e-19,2.117090905866073e-22
405,404.0,405212.0,-97.0,3.45292661565839e-43,-96.0,1.4294395749891616e-18,3.4904928085071976e-22
406,405.0,406215.0,-96.0,9.386027674346789e-43,-95.0,2.3567474324651817e-18,5.754849738611646e-22
407,406.0,407218.0,-95.0,2.551386846859059e-42,-94.0,3.8856196215732585e-18,9.488143173732092e-22
408,407.0,408221.0,-94.0,6.9353885031864e-42,-93.0,6.406303719937614e-18,1.5643303469980321e-21
409,408.0,409224.0,-93.0,1.8852340541515366e-41,-92.0,1.05622092096265e-17,2.579144717497368e-21
410,409.0,410227.0,-92.0,5.124597471792297e-41,-91.0,1.7414138989495998e-17,4.2522907559517835e-21
411,410.0,411230.0,-91.0,1.393010018574017e-40,-90.0,2.8711061362910483e-17,7.010842218539232e-21
412,411.0,412233.0,-90.0,3.7865938203511456e-40,-89.0,4.733653757340713e-17,1.1558924691228108e-20
413,412.0,413236.0,-89.0,1.0293029173615835e-39,-88.0,7.804475637857216e-17,1.9057445004848693e-20
414,413.0,414239.0,-88.0,2.797935416243875e-39,-87.0,1.2867404990796142e-16,3.142041494469194e-20
415,414.0,415242.0,-87.0,7.605576999177719e-39,-86.0,2.1214764307038586e-16,5.18035064535378e-20
416,415.0,416245.0,-86.0,2.0674101751810868e-38,-85.0,3.497723316590438e-16,8.540954298679913e-20
417,416.0,417248.0,-85.0,5.619803511166079e-38,-84.0,5.766770831086453e-16,1.4081653024311265e-19
418,417.0,418251.0,-84.0,1.527620976391309e-37,-83.0,9.507797732465291e-16,2.3216720867800777e-19
419,418.0,419254.0,-83.0,4.15250434089736e-37,-82.0,1.5675708359029972e-15,3.8277901530650676e-19
420,419.0,420257.0,-82.0,1.1287677092458596e-36,-81.0,2.5844873804824515e-15,6.310959045134876e-19
421,420.0,421260.0,-81.0,3.0683087525943633e-36,-80.0,4.261099318057473e-15,1.0405012416231241e-18
422,421.0,422263.0,-80.0,8.340527926279098e-36,-79.0,7.025365082247165e-15,1.7154965292539377e-18
423,422.0,423266.0,-79.0,2.2671905501759674e-35,-78.0,1.1582868845534857e-14,2.828375617593212e-18
424,423.0,424269.0,-78.0,6.162862874197397e-35,-77.0,1.9096922241363155e-14,4.66320304225554e-18
425,424.0,425272.0,-77.0,1.6752398162215665e-34,-76.0,3.14855019042418e-14,7.688322045360256e-18
426,425.0,426275.0,-76.0,4.553773950746155e-34,-75.0,5.191081670819284e-14,1.267590009217817e-17
427,426.0,427278.0,-75.0,1.2378440981223427e-33,-74.0,8.558646768621315e-14,2.0899026107243867e-17
428,427.0,428281.0,-74.0,3.364809118391239e-33,-73.0,1.4110822975834878e-13,3.445666887993025e-17
429,428.0,429284.0,-73.0,9.146499482756205e-33,-72.0,2.326481398734305e-13,5.680944289981218e-17
430,429.0,430287.0,-72.0,2.486276333798625e-32,-71.0,3.8357193679814337e-13,9.36629368855447e-17
431,430.0,431290.0,-71.0,6.758399778692577e-32,-70.0,6.324032110427442e-13,1.5442407631944114e-16
432,431.0,432293.0,-70.0,1.8371235307881666e-31,-69.0,1.0426566257052347e-12,2.546022593360826e-16
433,432.0,433296.0,-69.0,4.993819510375994e-31,-68.0,1.7190501568366422e-12,4.1976816053570967e-16
434,433.0,434299.0,-68.0,1.357460882965931e-30,-67.0,2.834234558976963e-12,6.920806950378905e-16
435,434.0,435302.0,-67.0,3.689961251010261e-30,-66.0,4.672862803538716e-12,1.1410481629498988e-15
436,435.0,436305.0,-66.0,1.0030354616339195e-29,-65.0,7.704248299257713e-12,1.8812703771488037e-15
437,436.0,437308.0,-65.0,2.7265330686595135e-29,-64.0,1.2702158045741481e-11,3.1016904867432852e-15
438,437.0,438311.0,-64.0,7.411485295229833e-29,-63.0,2.094231815380875e-11,5.1138230806218884e-15
439,438.0,439314.0,-63.0,2.0146505799914675e-28,-62.0,3.452804539795392e-11,8.431268887618563e-15
440,439.0,440317.0,-62.0,5.476388062285283e-28,-61.0,5.69271228833063e-11,1.3900812354008933e-14
441,440.0,441320.0,-61.0,1.4886366155300125e-27,-60.0,9.385695837746711e-11,2.2918565008065646e-14
442,441.0,442323.0,-60.0,4.046533861174007e-27,-59.0,1.547439636801466e-10,3.778632562272148e-14
443,442.0,443326.0,-59.0,1.099961946307352e-26,-58.0,2.551296644319058e-10,6.229911879578217e-14
444,443.0,444329.0,-58.0,2.9900065706437185e-26,-57.0,4.2063770453546893e-10,1.0271388230448022e-13
445,444.0,445332.0,-57.0,8.127680527953966e-26,-56.0,6.935143307261034e-10,1.6934656255158602e-13
446,445.0,446335.0,-56.0,2.2093326286657686e-25,-55.0,1.14341182860349e-09,2.792052797987496e-13
447,446.0,447338.0,-55.0,6.005588737523813e-25,-54.0,1.8851674029887032e-09,4.603316836959793e-13
448,447.0,448341.0,-54.0,1.6324882734409282e-24,-53.0,3.1081155961379955e-09,7.589586384867645e-13
449,448.0,449344.0,-53.0,4.437563208866956e-24,-52.0,5.1244162951475216e-09,1.2513112508547374e-12
450,449.0,450347.0,-52.0,1.2062547433301454e-23,-51.0,8.448734145732065e-09,2.0630634755505896e-12
451,450.0,451350.0,-51.0,3.278940349286864e-23,-50.0,1.392960769655893e-08,3.4014166349447906e-12
452,451.0,452353.0,-50.0,8.913083968067636e-23,-49.0,2.2966040501824926e-08,5.607987956546729e-12
453,452.0,453356.0,-49.0,2.4228274185927895e-22,-48.0,3.78645994791194e-08,9.246009029788737e-12
454,453.0,454359.0,-48.0,6.585927745453117e-22,-47.0,6.242817056776516e-08,1.524409175649815e-11
455,454.0,455362.0,-47.0,1.7902407714009455e-21,-46.0,1.0292665270597009e-07,2.5133258331442972e-11
456,455.0,456365.0,-46.0,4.8663789574656934e-21,-45.0,1.696973616382978e-07,4.1437737613051243e-11
457,456.0,457368.0,-45.0,1.3228189490474465e-20,-44.0,2.797836497147535e-07,6.831927941232833e-11
458,457.0,458371.0,-44.0,3.595794711536966e-20,-43.0,4.612852544788279e-07,1.1263944916601106e-10
459,458.0,459374.0,-43.0,9.774383423240067e-20,-42.0,7.60530810919565e-07,1.8571105575994824e-10
460,459.0,460377.0,-42.0,2.656952884378479e-19,-41.0,1.2539033249859042e-06,3.061857678356042e-10
461,460.0,461380.0,-41.0,7.2223467446778665e-19,-40.0,2.0673370833058755e-06,5.048149882162117e-10
462,461.0,462383.0,-40.0,1.963237391488818e-18,-39.0,3.40846262295356e-06,8.322992088403029e-10
463,462.0,463386.0,-39.0,5.336632526235391e-18,-38.0,5.619604826849885e-06,1.3722294092018954e-09
464,463.0,464389.0,-38.0,1.450647122122915e-17,-37.0,9.265162010956517e-06,2.2624238152314355e-09
465,464.0,465392.0,-37.0,3.9432677115731295e-17,-36.0,1.527566968394678e-05,3.730106267510604e-09
466,465.0,466395.0,-36.0,1.0718912965118521e-16,-35.0,2.518532153211216e-05,6.149905545216594e-09
467,466.0,467398.0,-35.0,2.9137026333915734e-16,-34.0,4.152357531941526e-05,1.0139480085195268e-08
468,467.0,468401.0,-34.0,7.920264921881582e-16,-33.0,6.84608018646388e-05,1.6717176490301782e-08
469,468.0,469404.0,-33.0,2.15295122137323e-15,-32.0,0.00011287278024341698,2.7561964465608665e-08
470,469.0,470407.0,-32.0,5.8523281826175585e-15,-31.0,0.00018609575367038278,4.54419970767301e-08
471,470.0,471410.0,-31.0,1.5908277352988058e-14,-30.0,0.00030682002746333154,7.492118716349797e-08
472,471.0,472413.0,-30.0,4.3243181250713995e-14,-29.0,0.0005058607055555922,1.2352415490256447e-07
473,472.0,473416.0,-29.0,1.1754715379857673e-13,-28.0,0.0008340233052608792,2.0365690163311556e-07
474,473.0,474419.0,-28.0,3.195262921577517e-13,-27.0,0.0013750719636432375,3.357734656474013e-07
475,474.0,475422.0,-27.0,8.685625136873124e-13,-26.0,0.0022671103952019993,5.535968549495693e-07
476,475.0,476425.0,-26.0,2.360997697836932e-12,-25.0,0.0037378331315949093,9.127269101480483e-07
477,476.0,477428.0,-25.0,6.417857139063771e-12,-24.0,0.006162644990388199,1.504832271101492e-06
478,477.0,478431.0,-24.0,1.7445544438763204e-11,-23.0,0.01016048387942661,2.4810489742010115e-06
479,478.0,479434.0,-23.0,4.742190643546477e-11,-22.0,0.016751805892616406,4.0905582174139406e-06
480,479.0,480437.0,-22.0,1.2890610653440894e-10,-21.0,0.027619058697796413,6.7441903420875625e-06
481,480.0,481440.0,-21.0,3.5040312696988954e-10,-20.0,0.04553612955177233,1.1119290070650139e-05
482,481.0,482443.0,-20.0,9.524944526774782e-10,-19.0,0.07507638537736373,1.8332610054565614e-05
483,482.0,483446.0,-19.0,2.589148362421233e-09,-18.0,0.12378003349893965,3.0225364144413366e-05
484,483.0,484449.0,-18.0,7.0380349447541325e-09,-17.0,0.20407877411767622,4.98332007795513e-05
485,484.0,485452.0,-17.0,1.9131362498384916e-08,-16.0,0.3364690157862195,8.216105811231642e-05
486,485.0,486455.0,-16.0,5.2004435033022556e-08,-15.0,0.5547436232582773,0.0001354606841330054
487,486.0,487458.0,-15.0,1.413627107495442e-07,-14.0,0.9146176114511801,0.00022333691127367734
488,487.0,488461.0,-14.0,3.8426368785219806e-07,-13.0,1.5079495105565057,0.0003682203161493791
489,488.0,489464.0,-13.0,1.0445370000252889e-06,-12.0,2.4861884331963586,0.0006070926675394073
490,489.0,490467.0,-12.0,2.8393459463218675e-06,-11.0,4.09903175277946,0.0010009265942583017
491,490.0,491470.0,-11.0,7.718142490595584e-06,-10.0,6.758160840082725,0.001650248966363099
492,491.0,492473.0,-10.0,2.0980086481643613e-05,-9.0,11.142323527857036,0.002720800572793741
493,492.0,493476.0,-9.0,5.702978784255109e-05,-8.0,18.37058580540039,0.004485841777698134
494,493.0,494479.0,-8.0,0.0001550230359732812,-7.0,30.287975572585463,0.007395902755886189
495,494.0,495482.0,-7.0,0.00042139630167872317,-6.0,49.93642957296754,0.012193782189659256
496,495.0,496485.0,-6.0,0.001145473909433119,-5.0,82.3312536197705,0.020104148066375595
497,496.0,497488.0,-5.0,0.003113720912985989,-4.0,135.74128908632255,0.0331461365463383
498,497.0,498491.0,-4.0,0.008463970976662722,-3.0,223.79955062887512,0.054648740365478836
499,498.0,499494.0,-3.0,0.02300745850246703,-2.0,368.98307949495666,0.09010054065753365
500,499.0,500497.0,-2.0,0.06254075636628169,-1.0,608.3502516917713,0.14855067788365742
501,500.0,501500.0,-1.0,0.17000340156854785,-0.0,1003.0,0.2449186624037091
502,501.0,502503.0,0.0,0.4621171572600095,-1.0,608.3502516917713,0.14855067788365742
503,502.0,503506.0,-1.0,0.17000340156854785,-2.0,368.98307949495666,0.09010054065753365
504,503.0,504509.0,-2.0,0.06254075636628169,-3.0,223.79955062887512,0.054648740365478836
505,504.0,505512.0,-3.0,0.02300745850246703,-4.0,135.74128908632255,0.0331461365463383
506,505.0,506515.0,-4.0,0.008463970976662722,-5.0,82.3312536197705,0.020104148066375595
507,506.0,507518.0,-5.0,0.003113720912985989,-6.0,49.93642957296754,0.012193782189659256
508,507.0,508521.0,-6.0,0.001145473909433119,-7.0,30.287975572585463,0.007395902755886189
509,508.0,509524.0,-7.0,0.00042139630167872317,-8.0,18.37058580540039,0.004485841777698134
510,509.0,510527.0,-8.0,0.0001550230359732812,-9.0,11.142323527857036,0.002720800572793741
511,510.0,511530.0,-9.0,5.702978784255109e-05,-10.0,6.758160840082725,0.001650248966363099
512,511.0,512533.0,-10.0,2.0980086481643613e-05,-11.0,4.09903175277946,0.0010009265942583017
513,512.0,513536.0,-11.0,7.718142490595584e-06,-12.0,2.4861884331963586,0.0006070926675394073
514,513.0,514539.0,-12.0,2.8393459463218675e-06,-13.0,1.5079495105565057,0.0003682203161493791
515,514.0,515542.0,-13.0,1.0445370000252889e-06,-14.0,0.9146176114511801,0.00022333691127367734
516,515.0,516545.0,-14.0,3.8426368785219806e-07,-15.0,0.5547436232582773,0.0001354606841330054
517,516.0,517548.0,-15.0,1.413627107495442e-07,-16.0,0.3364690157862195,8.216105811231642e-05
518,517.0,518551.0,-16.0,5.2004435033022556e-08,-17.0,0.20407877411767622,4.98332007795513e-05
519,518.0,519554.0,-17.0,1.9131362498384916e-08,-18.0,0.12378003349893965,3.0225364144413366e-05
520,519.0,520557.0,-18.0,7.0380349447541325e-09,-19.0,0.07507638537736373,1.8332610054565614e-05
521,520.0,521560.0,-19.0,2.589148362421233e-09,-20.0,0.04553612955177233,1.1119290070650139e-05
522,521.0,522563.0,-20.0,9.524944526774782e-10,-21.0,0.027619058697796413,6.7441903420875625e-06
523,522.0,523566.0,-21.0,3.5040312696988954e-10,-22.0,0.016751805892616406,4.0905582174139406e-06
524,523.0,524569.0,-22.0,1.2890610653440894e-10,-23.0,0.01016048387942661,2.4810489742010115e-06
525,524.0,525572.0,-23.0,4.742190643546477e-11,-24.0,0.006162644990388199,1.504832271101492e-06
526,525.0,526575.0,-24.0,1.7445544438763204e-11,-25.0,0.0037378331315949093,9.127269101480483e-07
527,526.0,527578.0,-25.0,6.417857139063771e-12,-26.0,0.0022671103952019993,5.535968549495693e-07
528,527.0,528581.0,-26.0,2.360997697836932e-12,-27.0,0.0013750719636432375,3.357734656474013e-07
529,528.0,529584.0,-27.0,8.685625136873124e-13,-28.0,0.0008340233052608792,2.0365690163311556e-07
530,529.0,530587.0,-28.0,3.195262921577517e-13,-29.0,0.0005058607055555922,1.2352415490256447e-07
531,530.0,531590.0,-29.0,1.1754715379857673e-13,-30.0,0.00030682002746333154,7.492118716349797e-08
532,531.0,532593.0,-30.0,4.3243181250713995e-14,-31.0,0.00018609575367038278,4.54419970767301e-08
533,532.0,533596.0,-31.0,1.5908277352988058e-14,-32.0,0.00011287278024341698,2.7561964465608665e-08
534,533.0,534599.0,-32.0,5.8523281826175585e-15,-33.0,6.84608018646388e-05,1.6717176490301782e-08
535,534.0,535602.0,-33.0,2.15295122137323e-15,-34.0,4.152357531941526e-05,1.0139480085195268e-08
536,535.0,536605.0,-34.0,7.920264921881582e-16,-35.0,2.518532153211216e-05,6.149905545216594e-09
537,536.0,537608.0,-35.0,2.9137026333915734e-16,-36.0,1.527566968394678e-05,3.730106267510604e-09
538,537.0,538611.0,-36.0,1.0718912965118521e-16,-37.0,9.265162010956517e-06,2.2624238152314355e-09
539,538.0,539614.0,-37.0,3.9432677115731295e-17,-38.0,5.619604826849885e-06,1.3722294092018954e-09
540,539.0,540617.0,-38.0,1.450647122122915e-17,-39.0,3.40846262295356e-06,8.322992088403029e-10
541,540.0,541620.0,-39.0,5.336632526235391e-18,-40.0,2.0673370833058755e-06,5.048149882162117e-10
542,541.0,542623.0,-40.0,1.963237391488818e-18,-41.0,1.2539033249859042e-06,3.061857678356042e-10
543,542.0,543626.0,-41.0,7.2223467446778665e-19,-42.0,7.60530810919565e-07,1.8571105575994824e-10
544,543.0,544629.0,-42.0,2.656952884378479e-19,-43.0,4.612852544788279e-07,1.1263944916601106e-10
545,544.0,545632.0,-43.0,9.774383423240067e-20,-44.0,2.797836497147535e-07,6.831927941232833e-11
546,545.0,546635.0,-44.0,3.595794711536966e-20,-45.0,1.696973616382978e-07,4.1437737613051243e-11
547,546.0,547638.0,-45.0,1.3228189490474465e-20,-46.0,1.0292665270597009e-07,2.5133258331442972e-11
548,547.0,548641.0,-46.0,4.8663789574656934e-21,-47.0,6.242817056776516e-08,1.524409175649815e-11
549,548.0,549644.0,-47.0,1.7902407714009455e-21,-48.0,3.78645994791194e-08,9.246009029788737e-12
550,549.0,550647.0,-48.0,6.585927745453117e-22,-49.0,2.2966040501824926e-08,5.607987956546729e-12
551,550.0,551650.0,-49.0,2.4228274185927895e-22,-50.0,1.392960769655893e-08,3.4014166349447906e-12
552,551.0,552653.0,-50.0,8.913083968067636e-23,-51.0,8.448734145732065e-09,2.0630634755505896e-12
553,552.0,553656.0,-51.0,3.278940349286864e-23,-52.0,5.1244162951475216e-09,1.2513112508547374e-12
554,553.0,554659.0,-52.0,1.2062547433301454e-23,-53.0,3.1081155961379955e-09,7.589586384867645e-13
555,554.0,555662.0,-53.0,4.437563208866956e-24,-54.0,1.8851674029887032e-09,4.603316836959793e-13
556,555.0,556665.0,-54.0,1.6324882734409282e-24,-55.0,1.14341182860349e-09,2.792052797987496e-13
557,556.0,557668.0,-55.0,6.005588737523813e-25,-56.0,6.935143307261034e-10,1.6934656255158602e-13
558,557.0,558671.0,-56.0,2.2093326286657686e-25,-57.0,4.2063770453546893e-10,1.0271388230448022e-13
559,558.0,559674.0,-57.0,8.127680527953966e-26,-58.0,2.551296644319058e-10,6.229911879578217e-14
560,559.0,560677.0,-58.0,2.9900065706437185e-26,-59.0,1.547439636801466e-10,3.778632562272148e-14
561,560.0,561680.0,-59.0,1.099961946307352e-26,-60.0,9.385695837746711e-11,2.2918565008065646e-14
562,561.0,562683.0,-60.0,4.046533861174007e-27,-61.0,5.69271228833063e-11,1.3900812354008933e-14
563,562.0,563686.0,-61.0,1.4886366155300125e-27,-62.0,3.452804539795392e-11,8.431268887618563e-15
564,563.0,564689.0,-62.0,5.476388062285283e-28,-63.0,2.094231815380875e-11,5.1138230806218884e-15
565,564.0,565692.0,-63.0,2.0146505799914675e-28,-64.0,1.2702158045741481e-11,3.1016904867432852e-15
566,565.0,566695.0,-64.0,7.411485295229833e-29,-65.0,7.704248299257713e-12,1.8812703771488037e-15
567,566.0,567698.0,-65.0,2.7265330686595135e-29,-66.0,4.672862803538716e-12,1.1410481629498988e-15
568,567.0,568701.0,-66.0,1.0030354616339195e-29,-67.0,2.834234558976963e-12,6.920806950378905e-16
569,568.0,569704.0,-67.0,3.689961251010261e-30,-68.0,1.7190501568366422e-12,4.1976816053570967e-16
570,569.0,570707.0,-68.0,1.357460882965931e-30,-69.0,1.0426566257052347e-12,2.546022593360826e-16
571,570.0,571710.0,-69.0,4.993819510375994e-31,-70.0,6.324032110427442e-13,1.5442407631944114e-16
572,571.0,572713.0,-70.0,1.8371235307881666e-31,-71.0,3.8357193679814337e-13,9.36629368855447e-17
573,572.0,573716.0,-71.0,6.758399778692577e-32,-72.0,2.326481398734305e-13,5.680944289981218e-17
574,573.0,574719.0,-72.0,2.486276333798625e-32,-73.0,1.4110822975834878e-13,3.445666887993025e-17
575,574.0,575722.0,-73.0,9.146499482756205e-33,-74.0,8.558646768621315e-14,2.0899026107243867e-17
576,575.0,576725.0,-74.0,3.364809118391239e-33,-75.0,5.191081670819284e-14,1.267590009217817e-17
577,576.0,577728.0,-75.0,1.2378440981223427e-33,-76.0,3.14855019042418e-14,7.688322045360256e-18
578,577.0,578731.0,-76.0,4.553773950746155e-34,-77.0,1.9096922241363155e-14,4.66320304225554e-18
579,578.0,579734.0,-77.0,1.6752398162215665e-34,-78.0,1.1582868845534857e-14,2.828375617593212e-18
580,579.0,580737.0,-78.0,6.162862874197397e-35,-79.0,7.025365082247165e-15,1.7154965292539377e-18
581,580.0,581740.0,-79.0,2.2671905501759674e-35,-80.0,4.261099318057473e-15,1.0405012416231241e-18
582,581.0,582743.0,-80.0,8.340527926279098e-36,-81.0,2.5844873804824515e-15,6.310959045134876e-19
583,582.0,583746.0,-81.0,3.0683087525943633e-36,-82.0,1.5675708359029972e-15,3.8277901530650676e-19
584,583.0,584749.0,-82.0,1.1287677092458596e-36,-83.0,9.507797732465291e-16,2.3216720867800777e-19
585,584.0,585752.0,-83.0,4.15250434089736e-37,-84.0,5.766770831086453e-16,1.4081653024311265e-19
586,585.0,586755.0,-84.0,1.527620976391309e-37,-85.0,3.497723316590438e-16,8.540954298679913e-20
587,586.0,587758.0,-85.0,5.619803511166079e-38,-86.0,2.1214764307038586e-16,5.18035064535378e-20
588,587.0,588761.0,-86.0,2.0674101751810868e-38,-87.0,1.2867404990796142e-16,3.142041494469194e-20
589,588.0,589764.0,-87.0,7.605576999177719e-39,-88.0,7.804475637857216e-17,1.9057445004848693e-20
590,589.0,590767.0,-88.0,2.797935416243875e-39,-89.0,4.733653757340713e-17,1.1558924691228108e-20
591,590.0,591770.0,-89.0,1.0293029173615835e-39,-90.0,2.8711061362910483e-17,7.010842218539232e-21
592,591.0,592773.0,-90.0,3.7865938203511456e-40,-91.0,1.7414138989495998e-17,4.2522907559517835e-21
593,592.0,593776.0,-91.0,1.393010018574017e-40,-92.0,1.05622092096265e-17,2.579144717497368e-21
594,593.0,594779.0,-92.0,5.124597471792297e-41,-93.0,6.406303719937614e-18,1.5643303469980321e-21
595,594.0,595782.0,-93.0,1.8852340541515366e-41,-94.0,3.8856196215732585e-18,9.488143173732092e-22
596,595.0,596785.0,-94.0,6.9353885031864e-42,-95.0,2.3567474324651817e-18,5.754849738611646e-22
597,596.0,597788.0,-95.0,2.551386846859059e-42,-96.0,1.4294395749891616e-18,3.4904928085071976e-22
598,597.0,598791.0,-96.0,9.386027674346789e-43,-97.0,8.669989284375224e-19,2.117090905866073e-22
599,598.0,599794.0,-97.0,3.45292661565839e-43,-98.0,5.258614320353568e-19,1.2840805438065662e-22
600,599.0,600797.0,-98.0,1.270260713774408e-43,-99.0,3.1895108128983515e-19,7.788342193591537e-23
601,600.0,601800.0,-99.0,4.673028015253667e-44,-100.0,1.9345360975078147e-19,4.723868328746813e-23
602,601.0,602803.0,-100.0,1.7191109348300133e-44,-101.0,1.173355455459318e-19,2.8651709738304195e-23
603,602.0,603806.0,-101.0,6.324255700169811e-45,-102.0,7.116760584771577e-20,1.737814040946853e-23
604,603.0,604809.0,-102.0,2.326563652803779e-45,-103.0,4.316533492498372e-20,1.0540374967133721e-23
605,604.0,605812.0,-103.0,8.558949364432438e-46,-104.0,2.618109906876715e-20,6.393060582434143e-24
606,605.0,606815.0,-104.0,3.148661509202077e-46,-105.0,1.5879639290181154e-20,3.877587252646613e-24
607,606.0,607818.0,-105.0,1.1583278364432903e-46,-106.0,9.63148809467223e-21,2.3518755544410483e-24
608,607.0,608821.0,-106.0,4.261249971640835e-47,-107.0,5.841792828075922e-21,1.4264846315971443e-24
609,608.0,609824.0,-107.0,1.567626258259055e-47,-108.0,3.54322645791742e-21,8.65206664672549e-25
610,609.0,610827.0,-108.0,5.766974718540202e-48,-109.0,2.14907548103191e-21,5.247743691116083e-25
611,610.0,611830.0,-109.0,2.1215514367064058e-48,-110.0,1.3034801692825293e-21,3.1829174429754474e-25
612,611.0,612833.0,-110.0,7.80475156952023e-49,-111.0,7.906006869972677e-22,1.9305370164987468e-25
613,612.0,613836.0,-111.0,2.8712076458770403e-49,-112.0,4.79523556253714e-22,1.170929890216644e-25
614,613.0,614839.0,-112.0,1.056258264252418e-49,-113.0,2.9084573892231323e-22,7.102048787903425e-26
615,614.0,615842.0,-113.0,3.885756999858972e-50,-114.0,1.7640685790315899e-22,4.307610336638373e-26
616,615.0,616845.0,-114.0,1.4294901136361392e-50,-115.0,1.069961679018358e-22,2.6126977392662316e-26
617,616.0,617848.0,-115.0,5.258800241645645e-51,-116.0,6.489645630422417e-23,1.5846812834268534e-26
618,617.0,618851.0,-116.0,1.934604494128846e-51,-117.0,3.936169045521317e-23,9.61157784271152e-27
619,618.0,619854.0,-117.0,7.117012201878806e-52,-118.0,2.3874072079204915e-23,5.829716649819149e-27
620,619.0,620857.0,-118.0,2.618202471637512e-52,-119.0,1.4480356688227117e-23,3.535901885552531e-27
621,620.0,621860.0,-119.0,9.631828621396969e-53,-120.0,8.782780294984639e-24,2.1446329033233215e-27
622,621.0,622863.0,-120.0,3.5433517306986214e-53,-121.0,5.32702552642815e-24,1.3007856096941144e-27
623,622.0,623866.0,-121.0,1.3035262545632719e-53,-122.0,3.2310043068505043e-24,7.889663539924714e-28
624,623.0,624869.0,-122.0,4.7954051008103975e-54,-123.0,1.9597031737683965e-24,4.785322831781248e-28
625,624.0,625872.0,-123.0,1.764130948676813e-54,-124.0,1.1886200588266869e-24,2.902445014098207e-28
626,625.0,626875.0,-124.0,6.4898750755247235e-55,-125.0,7.209345084278195e-25,1.7604218891806292e-28
627,626.0,627878.0,-125.0,2.3874916160565075e-55,-126.0,4.372688830063285e-25,1.0677498498172876e-28
628,627.0,628881.0,-126.0,8.783090815163717e-56,-127.0,2.6521698408163475e-25,6.476230208177447e-29
629,628.0,629884.0,-127.0,3.2311185408404566e-56,-128.0,1.6086223232202892e-25,3.9280321806167523e-29
630,629.0,630887.0,-128.0,1.1886620831630734e-56,-129.0,9.75678758931271e-26,2.382471949881933e-29
631,630.0,631890.0,-129.0,4.37284342895714e-57,-130.0,5.917790813221873e-26,1.445042283508733e-29
632,631.0,632893.0,-130.0,1.6086791969749663e-57,-131.0,3.5893215659848247e-26,8.764624495292022e-30
633,632.0,633896.0,-131.0,5.918000040072751e-58,-132.0,2.177033577337558e-26,5.316013477262976e-30
634,633.0,634899.0,-132.0,2.1771105475945374e-58,-133.0,1.3204376118791035e-26,3.2243251614055634e-30
635,634.0,635902.0,-133.0,8.009142116175312e-59,-134.0,8.008858958424068e-27,1.95565206727536e-30
636,635.0,636905.0,-134.0,2.946398725961237e-59,-135.0,4.857618507598384e-27,1.1861629385328992e-30
637,636.0,637908.0,-135.0,1.0839195167748697e-59,-136.0,2.9462945580459462e-27,7.194441896350353e-31
638,637.0,638911.0,-136.0,3.9875170610595884e-60,-137.0,1.7870179819993496e-27,4.36364958965759e-31
639,638.0,639914.0,-137.0,1.4669255480841935e-60,-138.0,1.0838811955404044e-27,2.6466872643697797e-31
640,639.0,640917.0,-138.0,5.3965175086932486e-61,-139.0,6.574071765812393e-28,1.6052969725112277e-31
641,640.0,641920.0,-139.0,1.9852678453699768e-61,-140.0,3.987376085116388e-28,9.736618317719281e-32
642,641.0,642923.0,-140.0,7.3033922553034045e-62,-141.0,2.4184658474280204e-28,5.905557531616387e-32
643,642.0,643926.0,-141.0,2.686767861536856e-62,-142.0,1.46687368593299e-28,3.5819017056221973e-32
644,643.0,644929.0,-142.0,9.884066594595697e-63,-143.0,8.897038644440389e-29,2.1725332045368387e-32
645,644.0,645932.0,-143.0,3.636144895321187e-63,-144.0,5.396326718501222e-29,1.3177079977953304e-32
646,645.0,646935.0,-144.0,1.337662952109151e-63,-145.0,3.2730376045974565e-29,7.992303012114149e-33
647,646.0,647938.0,-145.0,4.920986992976563e-64,-146.0,1.9851976575807528e-29,4.8475768185608626e-33
648,647.0,648941.0,-146.0,1.8103299449881545e-64,-147.0,1.2040832449124287e-29,2.940203965769389e-33
649,648.0,649944.0,-147.0,6.659831684981701e-65,-148.0,7.303134048856637e-30,1.7833238510478086e-33
650,649.0,650947.0,-148.0,2.450015158566933e-65,-149.0,4.429574712622812e-30,1.0816405918573015e-33
651,650.0,651950.0,-149.0,9.013102073951662e-66,-150.0,2.686672872693513e-30,6.560481817511723e-34
652,651.0,652953.0,-150.0,3.315734954186505e-66,-151.0,1.6295494699068324e-30,3.979133364808122e-34
653,652.0,653956.0,-151.0,1.2197907220187495e-66,-152.0,9.883717150169632e-31,2.413466384841621e-34
654,653.0,654959.0,-152.0,4.487359291623678e-67,-153.0,5.994777483505456e-31,1.4638413585922529e-34
655,654.0,655962.0,-153.0,1.6508072285379982e-67,-154.0,3.636016341901005e-31,8.878646649415968e-35
656,655.0,656965.0,-154.0,6.072980407163362e-68,-155.0,2.2053553905791327e-31,5.38517140962563e-35
657,656.0,657968.0,-155.0,2.2341246384323763e-68,-156.0,1.3376156599487738e-31,3.2662715677458453e-35
658,657.0,658971.0,-156.0,8.218885234938531e-69,-157.0,8.113049086706792e-32,1.981093848785505e-35
659,658.0,659974.0,-157.0,3.023558907281406e-69,-158.0,4.920813014841249e-32,1.2015941590565125e-35
660,659.0,660977.0,-158.0,1.1123051611596202e-69,-159.0,2.9846239642141757e-32,7.288036979993935e-36
661,660.0,661980.0,-159.0,4.091942010995122e-70,-160.0,1.8102659420089592e-32,4.42041787748579e-36
662,661.0,662983.0,-160.0,1.5053413403108332e-70,-161.0,1.0979817960620058e-32,2.6811189714369748e-36
663,662.0,663986.0,-161.0,5.537841310458194e-71,-162.0,6.659596231179506e-33,1.6261808585137256e-36
664,663.0,664989.0,-162.0,2.037257966587488e-71,-163.0,4.039249295517072e-33,9.863285489263865e-37
665,664.0,665992.0,-163.0,7.494653222702743e-72,-164.0,2.44992853995376e-33,5.982385054737257e-37
666,665.0,666995.0,-164.0,2.7571288393416343e-72,-165.0,1.4859567735869629e-33,3.6284999539047874e-37
667,666.0,667998.0,-165.0,1.0142910166546678e-72,-166.0,9.01278342188157e-34,2.200796470809131e-37
668,667.0,669001.0,-166.0,3.731368123921333e-73,-167.0,5.466529474720914e-34,1.3348505353330976e-37
669,668.0,670004.0,-167.0,1.3726936202331134e-73,-168.0,3.315617728641031e-34,8.096277758133455e-38
670,669.0,671007.0,-168.0,5.049857619109618e-74,-169.0,2.0110238083075477e-34,4.910640689857405e-38
671,670.0,672010.0,-169.0,1.8577387989133966e-74,-170.0,1.2197475971505896e-34,2.978454137230914e-38
672,671.0,673013.0,-170.0,6.834239111867668e-75,-171.0,7.398143147826466e-35,1.8065237527784886e-38
673,672.0,674016.0,-171.0,2.5141760653058923e-75,-172.0,4.4872006440996845e-35,1.0957120435592788e-38
674,673.0,675019.0,-172.0,9.249136859113474e-76,-173.0,2.721624766928735e-35,6.645829486350872e-39
675,674.0,676022.0,-173.0,3.4025672990488546e-76,-174.0,1.650748865375528e-35,4.0308993426940656e-39
676,675.0,677025.0,-174.0,1.2517345565223165e-76,-175.0,1.0012297983361002e-35,2.4448640375594525e-39
677,676.0,678028.0,-175.0,4.60487409148413e-77,-176.0,6.072765701087419e-36,1.4828849976086276e-39
678,677.0,679031.0,-176.0,1.6940385074400348e-77,-177.0,3.6833185869608045e-36,8.994152158775275e-40
679,678.0,680034.0,-177.0,6.232019394399443e-78,-178.0,2.2340456524811416e-36,5.455229042417775e-40
680,679.0,681037.0,-178.0,2.2926318121812577e-78,-179.0,1.3550171834275275e-36,3.3087636699811702e-40
681,680.0,682040.0,-179.0,8.434121098771123e-79,-180.0,8.218594661862525e-37,2.006866611586873e-40
682,681.0,683043.0,-180.0,3.1027397565881914e-79,-181.0,4.984829642170206e-37,1.2172261298810437e-40
683,682.0,684046.0,-181.0,1.1414341677540808e-79,-182.0,3.0234520114205856e-37,7.38284967576205e-41
684,683.0,685049.0,-182.0,4.199101637673617e-80,-183.0,1.8338163430964161e-37,4.477924684399158e-41
685,684.0,686052.0,-183.0,1.5447631638894584e-80,-184.0,1.1122658363700781e-37,2.715998612972107e-41
686,685.0,687055.0,-184.0,5.682866094738832e-81,-185.0,6.746233315093675e-38,1.6473364305045694e-41
687,686.0,688058.0,-185.0,2.0906096031846584e-81,-186.0,4.091797343179113e-38,9.991600519625913e-42
688,687.0,689061.0,-186.0,7.69092292527223e-82,-187.0,2.481800541968828e-38,6.060212054753796e-42
689,688.0,690064.0,-187.0,2.8293324278417825e-82,-188.0,1.5052881199955245e-38,3.675704415568274e-42
690,689.0,691067.0,-188.0,1.0408532324426753e-82,-189.0,9.130033964784752e-39,2.2294274240832646e-42
691,690.0,692070.0,-189.0,3.829085054925007e-83,-190.0,5.537645523859646e-39,1.3522160863106596e-42
692,691.0,693073.0,-190.0,1.4086416702037332e-83,-191.0,3.3587517928413027e-39,8.201605149040397e-43
693,692.0,694076.0,-191.0,5.182103104453566e-84,-192.0,2.0371859407230258e-39,4.974524981750003e-43
694,693.0,695079.0,-192.0,1.9063891941591743e-84,-193.0,1.2356157325840386e-39,3.017201918937805e-43
695,694.0,696082.0,-193.0,7.013213914025533e-85,-194.0,7.494388254355058e-40,1.8300254703795707e-43
696,695.0,697085.0,-194.0,2.580017215507497e-85,-195.0,4.545576252056584e-40,1.1099665558402432e-43
697,696.0,698088.0,-195.0,9.491352914535987e-86,-196.0,2.75703136293396e-40,6.732287473727423e-44
698,697.0,699091.0,-196.0,3.4916736061604396e-86,-197.0,1.6722240514087557e-40,4.0833387628149924e-44
699,698.0,700094.0,-197.0,1.2845149349873773e-86,-198.0,1.0142551570882852e-40,2.476670153640346e-44
700,699.0,701097.0,-198.0,4.72546636459528e-87,-199.0,6.151768495456983e-41,1.5021763821780682e-44
701,700.0,702100.0,-199.0,1.7384019254817587e-87,-200.0,3.7312362039489183e-41,9.111160320872006e-45
702,701.0,703103.0,-200.0,6.395223288775888e-88,-201.0,2.2631091563247998e-41,5.526198080166068e-45
703,702.0,704106.0,-201.0,2.352671169641467e-88,-202.0,1.372645089587382e-41,3.351808567265813e-45
704,703.0,705109.0,-202.0,8.654993551478665e-89,-203.0,8.325513317387416e-42,2.0329746615341903e-45
705,704.0,706112.0,-203.0,3.183994191060408e-89,-204.0,5.049679084841305e-42,1.2330614626394e-45
706,705.0,707115.0,-204.0,1.1713260037004218e-89,-205.0,3.0627851866658835e-42,7.478895824009e-46
707,706.0,708118.0,-205.0,4.3090675567088995e-90,-206.0,1.8576731198265397e-42,4.536179618058239e-46
708,707.0,709121.0,-206.0,1.5852173647320624e-90,-207.0,1.126735702898817e-42,2.751332016315865e-46
709,708.0,710124.0,-207.0,5.831688782728975e-91,-208.0,6.833997492009972e-43,1.6687672229445515e-46
710,709.0,711127.0,-208.0,2.1453584104761046e-91,-209.0,4.1450290073032904e-43,1.012158484639378e-46
711,710.0,712130.0,-209.0,7.892332531584032e-92,-210.0,2.514087178327667e-43,6.139051534220614e-47
712,711.0,713133.0,-210.0,2.9034268812583275e-92,-211.0,1.524870954846153e-43,3.7235229770606835e-47
713,712.0,714136.0,-211.0,1.0681110585594574e-92,-212.0,9.248809862194704e-44,2.2584308477317647e-47
714,713.0,715139.0,-212.0,3.929360993318909e-93,-213.0,5.609686747273665e-44,1.3698075519901095e-47
715,714.0,716142.0,-213.0,1.4455311263830238e-93,-214.0,3.402447003605113e-44,8.308302781879086e-48
716,715.0,717145.0,-214.0,5.317811829697125e-94,-215.0,2.063688425733882e-44,5.0392403673854296e-48
717,716.0,718148.0,-215.0,1.9563136441638634e-94,-216.0,1.2516903023016972e-44,3.056453784480817e-48
718,717.0,719151.0,-216.0,7.1968757017107e-95,-217.0,7.59188544810954e-45,1.8538329302823254e-48
719,718.0,720154.0,-217.0,2.647582611325664e-95,-218.0,4.6047112893046215e-45,1.1244065102011433e-48
720,719.0,721157.0,-218.0,9.739912115097134e-96,-219.0,2.792898576088143e-45,6.819870224174794e-49
721,720.0,722160.0,-219.0,3.5831134259608948e-96,-220.0,1.6939786158652157e-45,4.136460386223282e-49
722,721.0,723163.0,-220.0,1.3181537647963861e-96,-221.0,1.0274499674198229e-45,2.508890046931182e-49
723,722.0,724166.0,-221.0,4.849216703713274e-97,-222.0,6.23179906560869e-46,1.5217187353116297e-49
724,723.0,725169.0,-222.0,1.7839271310812628e-97,-223.0,3.7797771984602114e-46,9.22969068425637e-50
725,724.0,726172.0,-223.0,6.562701160727493e-98,-224.0,2.2925507577488414e-46,5.598090379665563e-50
726,725.0,727175.0,-224.0,2.4142828355836066e-98,-225.0,1.3905023235221024e-46,3.3954134511095005e-50
727,726.0,728178.0,-225.0,8.881650203843024e-99,-226.0,8.433822916178104e-47,2.059422360498595e-50
728,727.0,729181.0,-226.0,3.267376513669998e-99,-227.0,5.115372177249032e-47,1.2491028029401617e-50
729,728.0,730184.0,-227.0,1.2020006459456146e-99,-228.0,3.1026300613425053e-47,7.576191471161958e-51
730,729.0,731187.0,-228.0,4.4219132591818535e-100,-229.0,1.881840257950318e-47,4.595192411113089e-51
731,730.0,732190.0,-229.0,1.6267309786964115e-100,-230.0,1.1413938131283988e-47,2.7871250846189085e-51
732,731.0,733193.0,-230.0,5.984408833791094e-101,-231.0,6.92290342468686e-48,1.690476816275536e-51
733,732.0,734196.0,-231.0,2.2015409775165107e-101,-232.0,4.1989531813021706e-48,1.0253260186045132e-51
734,733.0,735199.0,-232.0,8.099016645248048e-102,-233.0,2.5467938431576662e-48,6.218916664847232e-52
735,734.0,736202.0,-233.0,2.9794617174920615e-102,-234.0,1.5447085498424923e-48,3.7719636274276815e-52
736,735.0,737205.0,-234.0,1.0960827116226856e-102,-235.0,9.369130957997123e-49,2.2878115873557698e-52
737,736.0,738208.0,-235.0,4.0322629542943273e-103,-236.0,5.682665180888052e-49,1.387627871377102e-52
738,737.0,739211.0,-236.0,1.4833866422821062e-103,-237.0,3.4467106610900414e-49,8.41638848261991e-53
739,738.0,740214.0,-237.0,5.4570744900392344e-104,-238.0,2.0905356911095095e-49,5.104797658761263e-53
740,739.0,741217.0,-238.0,2.0075455138265673e-104,-239.0,1.267973991881457e-49,3.0962162916679755e-53
741,740.0,742220.0,-239.0,7.385347217527537e-105,-240.0,7.690651017943215e-50,1.877950109998381e-53
742,741.0,743223.0,-240.0,2.716917407241097e-105,-241.0,4.664615635532734e-50,1.1390343191247305e-53
743,742.0,744226.0,-241.0,9.994980574848187e-106,-242.0,2.8292323987255343e-50,6.908592370140532e-54
744,743.0,745229.0,-242.0,3.676947868394573e-106,-243.0,1.7160161932793547e-50,4.190273087947002e-54
745,744.0,746232.0,-243.0,1.3526735270415215e-106,-244.0,1.0408164337872888e-50,2.5415291004085888e-54
746,745.0,747235.0,-244.0,4.9762078121543886e-107,-245.0,6.312870782247546e-51,1.5415153219496769e-54
747,746.0,748238.0,-245.0,1.830644549088322e-107,-246.0,3.8289496802372133e-51,9.349763051792701e-55
748,747.0,749241.0,-246.0,6.7345649370215904e-108,-247.0,2.3223753755607537e-51,5.670917951960632e-55
749,748.0,750244.0,-247.0,2.4775079855642923e-108,-248.0,1.4085918686392387e-51,3.439585606578898e-55
750,749.0,751247.0,-248.0,9.114242532271778e-109,-249.0,8.543541553516087e-52,2.086214127096378e-55
751,750.0,752250.0,-249.0,3.3529424494731328e-109,-250.0,5.181919894736409e-52,1.2653528308095817e-55
752,751.0,753253.0,-250.0,1.2334785945921833e-109,-251.0,3.142993292332494e-52,7.674752872401838e-56
753,752.0,754256.0,-251.0,4.537714160755084e-110,-252.0,1.9063217950708093e-52,4.654972922829315e-56
754,753.0,755259.0,-252.0,1.669331749654321e-110,-253.0,1.1562426159888697e-52,2.8233837978281103e-56
755,754.0,756262.0,-253.0,6.141128311925777e-111,-254.0,7.012965966635902e-53,1.7124688375186442e-56
756,755.0,757265.0,-254.0,2.2591948515533775e-111,-255.0,4.253578874285921e-53,1.0386648537575098e-56
757,756.0,758268.0,-255.0,8.311113394868562e-112,-256.0,2.5799260007603597e-53,6.299820789698683e-57
758,757.0,759271.0,-256.0,3.0574877512167356e-112,-257.0,1.564804219250957e-53,3.821034459647306e-57
759,758.0,760274.0,-257.0,1.1247868853061426e-112,-258.0,9.491017354233953e-54,2.317574551594586e-57
760,759.0,761277.0,-258.0,4.1378597080339095e-113,-259.0,5.756593017207572e-54,1.405680021711875e-57
761,760.0,762280.0,-259.0,1.5222335170373423e-113,-260.0,3.491550160424048e-54,8.525880309137724e-58
762,761.0,763283.0,-260.0,5.599984155801368e-114,-261.0,2.117732222221749e-54,5.171207808532255e-58
763,762.0,764286.0,-261.0,2.0601190418051383e-114,-262.0,1.2844695218388584e-54,3.1364960836201897e-58
764,763.0,765289.0,-262.0,7.5787544184592165e-115,-263.0,7.790701464616937e-55,1.902381038784245e-58
765,764.0,766292.0,-263.0,2.7880679402383753e-115,-264.0,4.72529929895829e-55,1.153852426478613e-58
766,765.0,767295.0,-264.0,1.0256728758029078e-115,-265.0,2.866038901136816e-55,6.99846873443096e-59
767,766.0,768298.0,-265.0,3.7732396437508e-116,-266.0,1.738340465468584e-55,4.244785858472649e-59
768,767.0,769301.0,-266.0,1.3880972915489764e-116,-267.0,1.0543567893258265e-55,2.5745927670782727e-59
769,768.0,770304.0,-267.0,5.106524559066301e-117,-268.0,6.394997190022877e-56,1.5615694495073594e-59
770,769.0,771307.0,-268.0,1.8785854011175567e-117,-269.0,3.8787618645250123e-56,9.471397483967924e-60
771,770.0,772310.0,-269.0,6.910929475559566e-118,-270.0,2.35258799255856e-56,5.744692964351642e-60
772,771.0,773313.0,-270.0,2.542388873444102e-118,-271.0,1.4269167471585633e-56,3.484332413514725e-60
773,772.0,774316.0,-271.0,9.352925980031092e-119,-272.0,8.654687560090883e-57,2.1133544374271984e-60
774,773.0,775319.0,-272.0,3.440749182851703e-119,-273.0,5.249333355428645e-57,1.2818142611393397e-60
775,774.0,776322.0,-273.0,1.2657808865985815e-119,-274.0,3.1838816231196683e-57,7.774596494379057e-61
776,775.0,777325.0,-274.0,4.656547652073789e-120,-275.0,1.9311218213177024e-57,4.7155311407352564e-61
777,776.0,778328.0,-275.0,1.7130481480330975e-120,-276.0,1.1712845922692883e-57,2.860114213685622e-61
778,777.0,779331.0,-276.0,6.301951953981902e-121,-277.0,7.104200164603342e-58,1.73474696088022e-61
779,778.0,780334.0,-277.0,2.3183585631201412e-121,-278.0,4.308915212567465e-58,1.052177218617166e-61
780,779.0,781337.0,-278.0,8.528764526356655e-122,-279.0,2.6134891865243467e-58,6.381777425424734e-62
781,780.0,782340.0,-279.0,3.1375571278389075e-122,-280.0,1.5851613204544457e-58,3.870743671982055e-62
782,781.0,783343.0,-280.0,1.1542427628328528e-122,-281.0,9.614489414461839e-59,2.3477247129457765e-62
783,782.0,784346.0,-281.0,4.246221825671316e-123,-282.0,5.831482607353671e-59,1.423967018966655e-62
784,783.0,785349.0,-282.0,1.5620977123179456e-123,-283.0,3.53697299294097e-59,8.636796554228773e-63
785,784.0,786352.0,-283.0,5.746636334627142e-124,-284.0,2.145282562794254e-59,5.238481911840177e-63
786,785.0,787355.0,-284.0,2.114069363398139e-124,-285.0,1.3011796480816078e-59,3.17729988988112e-63
787,786.0,788358.0,-285.0,7.777226560045742e-125,-286.0,7.892053503555898e-60,1.9271297983144733e-63
788,787.0,789361.0,-286.0,2.861081760773326e-125,-287.0,4.786772417999159e-60,1.1688633079235517e-63
789,788.0,790364.0,-287.0,1.0525331592990977e-125,-288.0,2.9033242325832674e-60,7.089514332687628e-64
790,789.0,791367.0,-288.0,3.8720531045736475e-126,-289.0,1.7609551621484046e-60,4.300007805247198e-64
791,790.0,792370.0,-289.0,1.424448732296702e-126,-290.0,1.0680732962222391e-60,2.6080865708860556e-64
792,791.0,793373.0,-290.0,5.240254036146802e-127,-291.0,6.478192009791216e-61,1.581884468427179e-64
793,792.0,794376.0,-291.0,1.9277817264140807e-127,-292.0,3.929222073443778e-61,9.594614302243056e-65
794,793.0,795379.0,-292.0,7.091912642137303e-128,-293.0,2.3831936563632953e-61,5.819427742427747e-65
795,794.0,796382.0,-293.0,2.6089688596261576e-128,-294.0,1.4454800206169928e-61,3.5296613477647032e-65
796,795.0,797385.0,-294.0,9.597860061129662e-129,-295.0,8.767279505062556e-62,2.1408478258219083e-65
797,796.0,798388.0,-295.0,3.5308553957300857e-129,-296.0,5.317623822090642e-62,1.2984898441401188e-65
798,797.0,799391.0,-296.0,1.2989291098383558e-129,-297.0,3.2253018849162526e-62,7.875739017964609e-66
799,798.0,800394.0,-297.0,4.778493150486534e-130,-298.0,1.956244480030655e-62,4.776877182290602e-66
800,799.0,801397.0,-298.0,1.757909389842551e-130,-299.0,1.1865222550321905e-62,2.897322468740944e-66
801,800.0,802400.0,-299.0,6.466987239653088e-131,-300.0,7.196621261083961e-63,1.7573149083656808e-66
802,801.0,803403.0,-300.0,2.3790716517864265e-131,-301.0,4.364971441187219e-63,1.0658653706938824e-66
803,802.0,804406.0,-301.0,8.752115497660109e-132,-302.0,2.647489007850088e-63,6.464800264518111e-67
804,803.0,805409.0,-302.0,3.219723358347121e-132,-303.0,1.6057832545132596e-63,3.921099569348577e-67
805,804.0,806412.0,-303.0,1.1844700297953783e-132,-304.0,9.739567767154268e-64,2.3782671085959153e-67
806,805.0,807415.0,-304.0,4.357421726454455e-133,-305.0,5.907346463127978e-64,1.4424919183495378e-67
807,806.0,808418.0,-305.0,1.6030058696763663e-133,-306.0,3.582986747432105e-64,8.749155748666875e-68
808,807.0,809421.0,-306.0,5.897129035310836e-134,-307.0,2.173191315661617e-64,5.306631208167498e-68
809,808.0,810424.0,-307.0,2.169432534026037e-134,-308.0,1.3181071623700065e-64,3.2186345275414815e-68
810,809.0,811427.0,-308.0,7.980896282766446e-135,-309.0,7.994724067642272e-65,1.952200523363595e-68
811,810.0,812430.0,-309.0,2.936007664551362e-135,-310.0,4.8490452629675365e-65,1.1840694713270697e-68
812,811.0,813433.0,-310.0,1.0800968589102264e-135,-311.0,2.9410946223241195e-65,7.181744375895966e-69
813,812.0,814436.0,-311.0,3.973454288669243e-136,-312.0,1.783864061555527e-65,4.3559481541996756e-69
814,813.0,815439.0,-312.0,1.4617521432359121e-136,-313.0,1.0819682460929314e-65,2.642016107640757e-69
815,814.0,816442.0,-313.0,5.377485615847855e-137,-314.0,6.562469140908667e-66,1.6024637727387526e-69
816,815.0,817445.0,-314.0,1.9782664032655784e-137,-315.0,3.980338737379132e-66,9.71943409244831e-70
817,816.0,818448.0,-315.0,7.277635389215801e-138,-316.0,2.414197480262315e-66,5.895134772126133e-70
818,817.0,819451.0,-316.0,2.6772924400342215e-138,-317.0,1.4642847903800795e-66,3.575579982432549e-70
819,818.0,820454.0,-317.0,9.849208466923166e-139,-318.0,8.881336199164048e-67,2.1686988856001003e-70
820,819.0,821457.0,-318.0,3.623321306792732e-139,-319.0,5.386802704008662e-67,1.3153823658010816e-70
821,820.0,822460.0,-319.0,1.3329454175274906e-139,-320.0,3.267260997804171e-67,7.978197341036945e-71
822,821.0,823463.0,-320.0,4.903632153120482e-140,-321.0,1.981693968451521e-67,4.839021296576717e-71
823,822.0,824466.0,-321.0,1.8039454562002794e-140,-322.0,1.2019581500334477e-67,2.9350147793761588e-71
824,823.0,825469.0,-322.0,6.636344463307214e-141,-323.0,7.2902446968676356e-68,1.780176450401351e-71
825,824.0,826472.0,-323.0,2.4413746925826534e-141,-324.0,4.421756925457654e-68,1.0797315968668253e-71
826,825.0,827475.0,-324.0,8.981315575974084e-142,-325.0,2.6819311450867368e-68,6.548903177602109e-72
827,826.0,828478.0,-325.0,3.304041355073716e-142,-326.0,1.626673466733317e-68,3.9721105647051687e-72
828,827.0,829481.0,-326.0,1.215488887311854e-142,-327.0,9.86627330914795e-69,2.4092068412621464e-72
829,828.0,830484.0,-327.0,4.471533726143831e-143,-328.0,5.984197259102654e-69,1.4612578148149196e-72
830,829.0,831487.0,-328.0,1.6449853283530497e-143,-329.0,3.6295991114140654e-69,8.862976664299343e-73
831,830.0,832490.0,-329.0,6.051562833297416e-144,-330.0,2.2014631435383613e-69,5.3756670832151557e-73
832,831.0,833493.0,-330.0,2.2262455533273234e-144,-331.0,1.3352548927833702e-69,3.260506902377977e-73
833,832.0,834496.0,-331.0,8.189899700684643e-145,-332.0,8.098730310044192e-70,1.977597402496909e-73
834,833.0,835499.0,-332.0,3.0128957251380294e-145,-333.0,4.912128237785804e-70,1.1994734571824405e-73
835,834.0,836502.0,-333.0,1.1083823956716058e-145,-334.0,2.979356380657279e-70,7.275174272926588e-74
836,835.0,837505.0,-334.0,4.077510963239348e-146,-335.0,1.8070709910791033e-70,4.4126162512825415e-74
837,836.0,838508.0,-335.0,1.5000324545269208e-146,-336.0,1.0960439603667708e-70,2.6763870459490874e-74
838,837.0,839511.0,-336.0,5.518311011103907e-147,-337.0,6.64784266355305e-71,1.6233108006258463e-74
839,838.0,840514.0,-337.0,2.0300731709751222e-147,-338.0,4.032120396390621e-71,9.845877708222376e-75
840,839.0,841517.0,-338.0,7.468221836754659e-148,-339.0,2.4456046440635685e-71,5.971826701818029e-75
841,840.0,842520.0,-339.0,2.7474052758496665e-148,-340.0,1.4833341981601563e-71,3.622095989143209e-75
842,841.0,843523.0,-340.0,1.0107139175510475e-148,-341.0,8.996876697843898e-72,2.1969122698375144e-75
843,842.0,844526.0,-341.0,3.7182087117287873e-149,-342.0,5.456881558896479e-72,1.3324946483553266e-75
844,843.0,845529.0,-342.0,1.3678525430295746e-149,-343.0,3.309765971891185e-72,8.081988581305098e-76
845,844.0,846532.0,-343.0,5.032048291346562e-150,-344.0,2.0074745384255857e-72,4.901973866008951e-76
846,845.0,847535.0,-344.0,1.8511871133682842e-150,-345.0,1.2175948561475849e-72,2.9731974428444977e-76
847,846.0,848538.0,-345.0,6.810136807696999e-151,-346.0,7.385086113619036e-73,1.8033354064643877e-76
848,847.0,849541.0,-346.0,2.5053093231166427e-151,-347.0,4.479281152527962e-73,1.0937782137659951e-76
849,848.0,850544.0,-347.0,9.216517937497548e-152,-348.0,2.71682135248115e-73,6.634100215747948e-77
850,849.0,851547.0,-348.0,3.390567468393173e-152,-349.0,1.647835447241761e-73,4.0237851804573266e-77
851,850.0,852550.0,-349.0,1.2473200655265523e-152,-350.0,9.994627209134077e-74,2.4405490800447005e-77
852,851.0,853553.0,-350.0,4.5886340866783493e-153,-351.0,6.062047834737928e-74,1.4802678435805726e-77
853,852.0,854556.0,-351.0,1.688064143547463e-153,-352.0,3.676817872413136e-74,8.97827831718322e-78
854,853.0,855559.0,-352.0,6.2100409378979e-154,-353.0,2.230102769797941e-74,5.445601070804771e-78
855,854.0,856562.0,-353.0,2.2845463898856593e-154,-354.0,1.3526257041925162e-74,3.3029240100070405e-78
856,855.0,857565.0,-354.0,8.404376492413723e-155,-355.0,8.204089607081523e-75,2.0033246787702673e-78
857,856.0,858568.0,-355.0,3.0917973274235675e-155,-356.0,4.976031881724716e-75,1.2150778390331295e-78
858,857.0,859571.0,-356.0,1.137408673027941e-155,-357.0,3.0181158999735885e-75,7.369819633109652e-79
859,858.0,860574.0,-357.0,4.184292670170707e-156,-358.0,1.830579827900169e-75,4.470021564033115e-79
860,859.0,861577.0,-358.0,1.539315249200162e-156,-359.0,1.1103027906729283e-75,2.711205128162702e-79
861,860.0,862580.0,-359.0,5.6628243366243514e-157,-360.0,6.734326841076292e-76,1.6444290350007986e-79
862,861.0,863583.0,-360.0,2.0832366524094096e-157,-361.0,4.0845757016384986e-76,9.973966274496438e-80
863,862.0,864586.0,-361.0,7.6637993551624e-158,-362.0,2.4774203949609908e-76,6.0495163444218805e-80
864,863.0,865589.0,-362.0,2.8193542240272037e-158,-363.0,1.5026314265412227e-76,3.669217139324562e-80
865,864.0,866592.0,-363.0,1.0371824563994732e-158,-364.0,9.113920304449835e-77,2.2254926921434284e-80
866,865.0,867595.0,-364.0,3.8155810245306204e-159,-365.0,5.527872094826322e-77,1.349829550751398e-80
867,866.0,868598.0,-365.0,1.403673815048684e-159,-366.0,3.3528239084820662e-77,8.187130079168531e-81
868,867.0,869601.0,-366.0,5.1638273866709646e-160,-367.0,2.033590497111918e-77,4.965745408071234e-81
869,868.0,870604.0,-367.0,1.899665933314304e-160,-368.0,1.2334349857986337e-77,3.011876838322426e-81
870,869.0,871607.0,-368.0,6.988480419600926e-161,-369.0,7.481161356490879e-78,1.8267956457209016e-81
871,870.0,872610.0,-369.0,2.5709182714003555e-161,-370.0,4.537553732969073e-78,1.1080075681592647e-81
872,871.0,873613.0,-370.0,9.457879769802133e-162,-371.0,2.7521654591392544e-78,6.720405612822294e-82
873,872.0,874616.0,-371.0,3.4793595243814983e-162,-372.0,1.6692727315700547e-78,4.076132049881591e-82
874,873.0,875619.0,-372.0,1.2799848374640013e-162,-373.0,1.0124650911194948e-78,2.47229906129049e-82
875,874.0,876622.0,-373.0,4.7088010671417614e-163,-374.0,6.140911196527188e-79,1.4995251806514454e-82
876,875.0,877625.0,-374.0,1.7322711051676028e-163,-375.0,3.724650919266333e-79,9.095079970762271e-83
877,876.0,878628.0,-375.0,6.372669261264945e-164,-376.0,2.2591149792618755e-79,5.516444854805599e-83
878,877.0,879631.0,-376.0,2.344374006604576e-164,-377.0,1.3702224987383974e-79,3.345892937053602e-83
879,878.0,880634.0,-377.0,8.624469994465466e-165,-378.0,8.310819561128932e-80,2.0293866504389618e-83
880,879.0,881637.0,-378.0,3.172765201963829e-165,-379.0,5.04076687116419e-80,1.230885223902755e-83
881,880.0,882640.0,-379.0,1.1671950894666518e-165,-380.0,3.0573796558248032e-80,7.465696268842705e-84
882,881.0,883643.0,-380.0,4.2938707725104347e-166,-381.0,1.854394499639402e-80,4.528173683155312e-84
883,882.0,884646.0,-381.0,1.579626780253528e-166,-382.0,1.1247471192337653e-80,2.7464761713375766e-84
884,883.0,885649.0,-382.0,5.811122171791127e-167,-383.0,6.821936122387397e-81,1.665822004086408e-84
885,884.0,886652.0,-383.0,2.137792377137498e-167,-384.0,4.137713416829072e-81,1.0103721191023503e-84
886,885.0,887655.0,-384.0,7.864498650419121e-168,-385.0,2.509650048411152e-81,6.128216679543999e-85
887,886.0,888658.0,-385.0,2.8931873686097487e-168,-386.0,1.5221796995106583e-81,3.7169513055057853e-85
888,887.0,889661.0,-386.0,1.06434415236843e-168,-387.0,9.232486573453778e-82,2.2544449274481585e-85
889,888.0,890664.0,-387.0,3.9155033198739053e-169,-388.0,5.59978617218495e-82,1.3673899691309314e-85
890,889.0,891667.0,-388.0,1.4404331732201396e-169,-389.0,3.3964420012650205e-82,8.293639400614214e-86
891,890.0,892670.0,-389.0,5.2990575080903236e-170,-390.0,2.0600462077029696e-82,5.0303465770732286e-86
892,891.0,893673.0,-390.0,1.9494143148116042e-170,-391.0,1.249481185396591e-82,3.051059427975413e-86
893,892.0,894676.0,-391.0,7.1714944874450305e-171,-392.0,7.578486476771176e-83,1.8505610876723776e-86
894,893.0,895679.0,-392.0,2.6382453844053573e-171,-393.0,4.5965844023792925e-83,1.1224220373444555e-86
895,894.0,896682.0,-393.0,9.7055623768818e-172,-394.0,2.7879693699999128e-83,6.807833787865306e-87
896,895.0,897685.0,-394.0,3.570476863461852e-172,-395.0,1.6909889012446624e-83,4.129159918567901e-87
897,896.0,898688.0,-395.0,1.3135050332459104e-172,-396.0,1.0256366138386662e-83,2.504462089467953e-87
898,897.0,899691.0,-396.0,4.8321149760638236e-173,-397.0,6.220800520169976e-84,1.5190330433502777e-87
899,898.0,900694.0,-397.0,1.7776357570705168e-173,-398.0,3.773106243439389e-84,9.213401139085332e-88
900,899.0,901697.0,-398.0,6.539556489174756e-174,-399.0,2.2885046189991484e-84,5.588210271086555e-88
901,900.0,902700.0,-399.0,2.405768386746688e-174,-400.0,1.3880482163169627e-84,3.389420862335043e-88
902,901.0,903703.0,-400.0,8.850327297042941e-175,-401.0,8.418938003556715e-85,2.0557876716758363e-88
903,902.0,904706.0,-401.0,3.2558534602205186e-175,-402.0,5.1063440213770146e-85,1.2468982527306435e-88
904,903.0,905709.0,-402.0,1.1977615514820313e-175,-403.0,3.097154208005463e-85,7.562820198232472e-89
905,904.0,906712.0,-403.0,4.406318502158494e-176,-404.0,1.878518985013312e-85,4.58708232412197e-89
906,905.0,907715.0,-404.0,1.6209939881974537e-176,-405.0,1.1393793592628305e-85,2.7822060682058583e-89
907,906.0,908718.0,-405.0,5.963303625203469e-177,-406.0,6.910685144366422e-86,1.6874932820053915e-89
908,907.0,909721.0,-406.0,2.193776805175488e-177,-407.0,4.191542419678862e-86,1.023516413595367e-89
909,908.0,910724.0,-407.0,8.070453851428308e-178,-408.0,2.542298989021308e-86,6.207940855647066e-90
910,909.0,911727.0,-408.0,2.9689540528633605e-178,-409.0,1.5419822829978549e-86,3.765306462632625e-90
911,910.0,912730.0,-409.0,1.092217157831062e-178,-410.0,9.352595313718815e-87,2.283773812800808e-90
912,911.0,913733.0,-410.0,4.018042376607521e-179,-411.0,5.672635805655157e-87,1.3851788373125104e-90
913,912.0,914736.0,-411.0,1.478155184109549e-179,-412.0,3.4406275375135284e-87,8.401534340151354e-91
914,913.0,915739.0,-412.0,5.437829030948914e-180,-413.0,2.086846090153534e-87,5.095788165930347e-91
915,914.0,916742.0,-413.0,2.000465505091332e-180,-414.0,1.2657361357795525e-87,3.0907517580375625e-91
916,915.0,917745.0,-414.0,7.359301320957463e-181,-415.0,7.677077734564914e-88,1.8746357028105047e-91
917,916.0,918748.0,-415.0,2.7073356573660895e-181,-416.0,4.656383023010827e-88,1.1370240295465116e-91
918,917.0,919751.0,-416.0,9.959731286953564e-182,-417.0,2.824239066821463e-88,6.896399347499625e-92
919,918.0,920754.0,-417.0,3.6639803800622074e-182,-418.0,1.7129875843854143e-88,4.1828776458807224e-92
920,919.0,921757.0,-418.0,1.3479030546804138e-182,-419.0,1.0389794896368356e-88,2.5370435380532614e-92
921,920.0,922760.0,-419.0,4.958658225091107e-183,-420.0,6.30172915277325e-89,1.5387946908551182e-92
922,921.0,923763.0,-420.0,1.8241884168066927e-183,-421.0,3.8221919403618946e-89,9.333261590066528e-93
923,922.0,924766.0,-421.0,6.710814153662642e-184,-422.0,2.3182765991360104e-89,5.660909309493633e-93
924,923.0,925769.0,-422.0,2.4687705606548185e-184,-423.0,1.4061058350703248e-89,3.433515058060562e-93
925,924.0,926772.0,-423.0,9.08209934234203e-185,-424.0,8.528462997709874e-90,2.0825321532987335e-93
926,925.0,927775.0,-424.0,3.34111763072431e-185,-425.0,5.172774288335753e-90,1.2631196008130516e-93
927,926.0,928778.0,-425.0,1.2291284868789127e-185,-426.0,3.137446201648832e-90,7.661207647770985e-94
928,927.0,929781.0,-426.0,4.521711008809149e-186,-427.0,1.9029573144989622e-90,4.646757328798008e-94
929,928.0,930784.0,-427.0,1.6634445190594685e-186,-428.0,1.154201955368037e-90,2.8184007881603705e-94
930,929.0,931787.0,-428.0,6.11947040091296e-187,-429.0,7.00058873430987e-91,1.7094464893775156e-94
931,930.0,932790.0,-429.0,2.2512273513530419e-187,-430.0,4.246071703397794e-91,1.0368317069455896e-94
932,931.0,933793.0,-430.0,8.281802599656233e-188,-431.0,2.5753726714490094e-91,6.288702192246843e-95
933,932.0,934796.0,-431.0,3.046704912253733e-188,-432.0,1.562042485419855e-91,3.8142906893997625e-95
934,933.0,935799.0,-432.0,1.1208201005341918e-188,-433.0,9.47426659180866e-92,2.313484248177393e-95
935,934.0,936802.0,-433.0,4.123266722382383e-189,-434.0,5.74643316622307e-92,1.4031991272818199e-95
936,935.0,937805.0,-434.0,1.5168650576308356e-189,-435.0,3.485387899303836e-92,8.510832923784338e-96
937,936.0,938808.0,-435.0,5.580234697337195e-190,-436.0,2.113994621919185e-92,5.162081107966915e-96
938,937.0,939811.0,-436.0,2.0528536220619e-190,-437.0,1.2822025526616024e-92,3.1309604599052947e-96
939,938.0,940814.0,-437.0,7.55202643290903e-191,-438.0,7.776951601510645e-93,1.8990235132805288e-96
940,939.0,941817.0,-438.0,2.7782352638505354e-191,-439.0,4.716959585417472e-93,1.1518159843198421e-96
941,940.0,942820.0,-439.0,1.0220556363081294e-191,-440.0,2.860980609181089e-93,6.9861170883707e-97
942,941.0,943823.0,-440.0,3.7599325633115766e-192,-441.0,1.735272456311658e-93,4.237294206439183e-97
943,942.0,944826.0,-441.0,1.3832018902333715e-192,-442.0,1.0524959477078718e-93,2.570048850428077e-97
944,943.0,945829.0,-442.0,5.088515384063354e-193,-443.0,6.383710615081289e-94,1.558813424743837e-97
945,944.0,946832.0,-443.0,1.871960195881514e-193,-444.0,3.8719162107797946e-94,9.454681348787888e-98
946,945.0,947835.0,-444.0,6.886556707560752e-194,-445.0,2.3484358936763087e-94,5.7345541158530485e-98
947,946.0,948838.0,-445.0,2.5334226331728968e-194,-446.0,1.4243983718843194e-94,3.478182891046147e-98
948,947.0,949841.0,-446.0,9.319941025427293e-195,-447.0,8.639412841925973e-95,2.1096245635074144e-98
949,948.0,950844.0,-447.0,3.428614696184992e-195,-448.0,5.240068770543158e-95,1.2795519782501284e-98
950,949.0,951847.0,-448.0,1.2613168584247294e-195,-449.0,3.178262368337109e-95,7.760875055046554e-99
951,950.0,952850.0,-449.0,4.640125410174087e-196,-450.0,1.9277135710073438e-95,4.7072086670847074e-99
952,951.0,953853.0,-450.0,1.7070067428602529e-196,-451.0,1.1692173839600806e-95,2.8550663782519135e-99
953,952.0,954856.0,-451.0,6.279726866393138e-197,-452.0,7.091661912407871e-96,1.731685293924492e-99
954,953.0,955859.0,-452.0,2.3101824103180002e-197,-453.0,4.301310378191702e-96,1.0503202237386877e-99
955,954.0,956862.0,-453.0,8.498686141118817e-198,-454.0,2.60887662131341e-96,6.370514182137472e-100
956,955.0,957865.0,-454.0,3.1264919082862723e-198,-455.0,1.5823636582340886e-96,3.8639121696005275e-100
957,956.0,958868.0,-455.0,1.15017209604739e-198,-456.0,9.597520735340178e-97,2.3435811972994804e-100
958,957.0,959871.0,-456.0,4.2312466794490035e-199,-457.0,5.821190583211556e-97,1.421453849688177e-100
959,958.0,960874.0,-457.0,1.5565886638942206e-199,-458.0,3.530730564748275e-97,8.621553412024326e-101
960,959.0,961877.0,-458.0,5.726369678072078e-200,-459.0,2.1414963387043302e-97,5.229236478742821e-101
961,960.0,962880.0,-459.0,2.1066136771102487e-200,-460.0,1.2988831870865266e-97,3.171692251245252e-101
962,961.0,963883.0,-460.0,7.749798622994355e-201,-461.0,7.878124763532387e-98,1.9237285935532296e-101
963,962.0,964886.0,-461.0,2.850991586618377e-201,-462.0,4.7783242101237336e-98,1.166800372955897e-101
964,963.0,965889.0,-462.0,1.0488211916696525e-201,-463.0,2.898200135487196e-98,7.0770019996188694e-102
965,964.0,966892.0,-463.0,3.858397538801979e-202,-464.0,1.7578472401562927e-98,4.292418691616459e-102
966,965.0,967895.0,-464.0,1.4194251303917404e-202,-465.0,1.0661882462460282e-98,2.60348354078897e-102
967,966.0,968898.0,-465.0,5.221773237532152e-203,-466.0,6.466758603734591e-99,1.5790925895457164e-102
968,967.0,969901.0,-466.0,1.9209830205473212e-203,-467.0,3.92228736212549e-99,9.577680700844942e-103
969,968.0,970904.0,-467.0,7.066901600987778e-204,-468.0,2.3789875413324984e-99,5.80915699400044e-103
970,969.0,971907.0,-468.0,2.5997678117849554e-204,-469.0,1.442928882892536e-99,3.523431823945345e-103
971,970.0,972910.0,-469.0,9.564011297749528e-205,-470.0,8.751806072592231e-100,2.1370694286300578e-103
972,971.0,973913.0,-470.0,3.518403131573458e-205,-471.0,5.308238710886397e-100,1.2961981303986895e-103
973,972.0,974916.0,-471.0,1.2943481778590962e-205,-472.0,3.219609527226065e-100,7.861839071489992e-104
974,973.0,975919.0,-472.0,4.7616408435207897e-206,-473.0,1.952791890565505e-100,4.768446438585382e-104
975,974.0,976922.0,-473.0,1.7517097725735437e-206,-474.0,1.1844281536661765e-100,2.8922089641995493e-104
976,975.0,977925.0,-474.0,6.444180122289095e-207,-475.0,7.183919894253625e-101,1.754213411082745e-104
977,976.0,978928.0,-475.0,2.3706813821958294e-207,-476.0,4.3572676727843624e-101,1.0639842175007662e-104
978,977.0,979931.0,-476.0,8.721249420777441e-208,-477.0,2.6428164361184306e-101,6.4533904936456986e-105
979,978.0,980934.0,-477.0,3.208368363232371e-208,-478.0,1.6029491964983024e-101,3.914179193494163e-105
980,979.0,981937.0,-478.0,1.1802927605380598e-208,-479.0,9.722378336379511e-102,2.374069688463478e-105
981,980.0,982940.0,-479.0,4.3420544116544036e-209,-480.0,5.896920546340081e-102,1.4399460543475196e-105
982,981.0,983943.0,-480.0,1.5973525504954182e-209,-481.0,3.576663109244632e-102,8.733714302940047e-106
983,982.0,984946.0,-481.0,5.8763316363003257e-210,-482.0,2.169355835219985e-102,5.297265497903888e-106
984,983.0,985949.0,-482.0,2.1617815985002314e-210,-483.0,1.3157808258874286e-102,3.212953937116617e-106
985,984.0,986952.0,-483.0,7.952750063909723e-211,-484.0,7.980614123627358e-103,1.9487550711056446e-106
986,985.0,987955.0,-484.0,2.9256532492872612e-211,-485.0,4.840487149315661e-103,1.1819796988960465e-106
987,986.0,988958.0,-485.0,1.0762876824092123e-211,-486.0,2.935903864004952e-103,7.16906926538359e-107
988,987.0,989961.0,-486.0,3.959441111444078e-212,-487.0,1.7807157074877934e-103,4.348260311058673e-107
989,988.0,990964.0,-487.0,1.456596983429282e-212,-488.0,1.0800586728232201e-103,2.6373531950686777e-107
990,989.0,991967.0,-488.0,5.3585208427597296e-213,-489.0,6.55088699355819e-104,1.5996355733002266e-107
991,990.0,992970.0,-489.0,1.9712896531399758e-213,-490.0,3.973313809905759e-104,9.70228019573583e-108
992,991.0,993973.0,-490.0,7.251969359841806e-214,-491.0,2.4099366463674567e-104,5.884730407836471e-108
993,992.0,994976.0,-491.0,2.667850435491026e-214,-492.0,1.461700463986905e-104,3.56926941649605e-108
994,993.0,995979.0,-492.0,9.814473273374278e-215,-493.0,8.865661467242399e-105,2.1648713338794753e-108
995,994.0,996982.0,-493.0,3.6105429432009854e-215,-494.0,5.377295498515406e-105,1.3130608383308868e-108
996,995.0,997985.0,-494.0,1.3282445202702732e-215,-495.0,3.2614945861843232e-105,7.964116565156562e-109
997,996.0,998988.0,-495.0,4.8863385185605865e-216,-496.0,1.97819646300756e-105,4.830480874292722e-109
998,997.0,999991.0,-496.0,1.797583483582562e-216,-497.0,1.1998368057491735e-105,2.9298347514140233e-109
999,998.0,1000994.0,-497.0,6.612940073993675e-217,-498.0,7.27737809338545e-106,1.7770346046241468e-109
1000,999.0,1001997.0,-498.0,2.4327646989210297e-217,-499.0,4.413952935959344e-106,1.0778259710748626e-109
