b_intervals,utilities,weights
"(1, 35002)",-664.0,8.985825944049381e-37
"(35002, 35003)",-663.0,1.018227476802731e-36
"(35003, 35004)",-662.0,1.1538028902091525e-36
"(35004, 35005)",-661.0,1.3074299601845343e-36
"(35005, 35006)",-660.0,1.4815122368763274e-36
"(35006, 35007)",-659.0,1.678773299415984e-36
"(35007, 35008)",-658.0,1.9022993672831142e-36
"(35008, 35009)",-657.0,2.1555875853068635e-36
"(35009, 35010)",-656.0,2.4426007377405277e-36
"(35010, 35011)",-655.0,2.7678292474305675e-36
"(35011, 35012)",-654.0,3.136361430079066e-36
"(35012, 35013)",-653.0,3.5539631027525527e-36
"(35013, 35014)",-652.0,4.027167792140633e-36
"(35014, 35015)",-651.0,4.563378953904705e-36
"(35015, 35016)",-650.0,5.170985802374828e-36
"(35016, 35017)",-649.0,5.859494562791559e-36
"(55406, 80210)",-648.0,6.639677199580735e-36
"(80210, 80211)",-647.0,7.523739947567986e-36
"(80211, 80212)",-646.0,8.52551428286375e-36
"(80212, 80213)",-645.0,9.66067332122619e-36
"(80213, 80214)",-644.0,1.0946977029531417e-35
"(80214, 80215)",-643.0,1.2404550086771608e-35
"(80215, 80216)",-642.0,1.4056196741815211e-35
"(80216, 80217)",-641.0,1.5927757593990872e-35
"(80217, 80218)",-640.0,1.8048513878454153e-35
"(80218, 80219)",-639.0,2.0451645581525467e-35
"(80219, 80220)",-638.0,2.3174750553376578e-35
"(80220, 80221)",-637.0,2.626043273976825e-35
"(80221, 80222)",-636.0,2.9756968735933825e-35
"(80222, 80223)",-635.0,3.3719063091081326e-35
"(80223, 80224)",-634.0,3.820870418052153e-35
"(80224, 80225)",-633.0,4.3296134035845953e-35
"(80225, 80226)",-632.0,4.906094730649281e-35
"(80226, 80227)",-631.0,5.55933365463454e-35
"(80227, 80228)",-630.0,6.299550330831476e-35
"(100617, 125421)",-629.0,7.1383257123983e-35
"(125421, 125422)",-628.0,8.088782738491285e-35
"(125422, 125423)",-627.0,9.165791647315047e-35
"(125423, 125424)",-626.0,1.0386202626287881e-34
"(125424, 125425)",-625.0,1.1769109439216723e-34
"(125425, 125426)",-624.0,1.3336148155022614e-34
"(125426, 125427)",-623.0,1.5111835651733884e-34
"(125427, 125428)",-622.0,1.7123953191762365e-34
"(125428, 125429)",-621.0,1.9403981069634266e-34
"(125429, 125430)",-620.0,2.1987591132394053e-34
"(125430, 125431)",-619.0,2.491520487833819e-34
"(125431, 125432)",-618.0,2.8232625865731966e-34
"(125432, 125433)",-617.0,3.1991756325768644e-34
"(125433, 125434)",-616.0,3.6251409191435593e-34
"(125434, 125435)",-615.0,4.107822824676777e-34
"(125435, 125436)",-614.0,4.654773079255091e-34
"(125436, 125437)",-613.0,5.274548914135014e-34
"(125437, 125438)",-612.0,5.976846942677399e-34
"(125438, 125439)",-611.0,6.772654867312086e-34
"(145828, 170627)",-610.0,7.674423386050202e-34
"(170627, 170628)",-609.0,8.696260988082661e-34
"(170628, 170629)",-608.0,9.854154686111257e-34
"(170629, 170630)",-607.0,1.116622013884819e-33
"(170630, 170631)",-606.0,1.265298507693947e-33
"(170631, 170632)",-605.0,1.4337710466611597e-33
"(170632, 170633)",-604.0,1.6246754435760975e-33
"(170633, 170634)",-603.0,1.8409984656239148e-33
"(170634, 170635)",-602.0,2.08612456342014e-33
"(170635, 170636)",-601.0,2.36388882194424e-33
"(170636, 170637)",-600.0,2.6786369618080778e-33
"(170637, 170638)",-599.0,3.035293329600447e-33
"(170638, 170639)",-598.0,3.4394379410408036e-33
"(170639, 170640)",-597.0,3.897393782309736e-33
"(170640, 170641)",-596.0,4.4163257354165454e-33
"(170641, 170642)",-595.0,5.004352675326472e-33
"(170642, 170643)",-594.0,5.6706744926470255e-33
"(170643, 170644)",-593.0,6.425716029188487e-33
"(170644, 170645)",-592.0,7.281290178321643e-33
"(170645, 170646)",-591.0,8.250782701895846e-33
"(170646, 170647)",-590.0,9.349361655243808e-33
"(170647, 170648)",-589.0,1.0594214696801823e-32
"(170648, 170649)",-588.0,1.2004817995138824e-32
"(170649, 170650)",-587.0,1.3603240940540357e-32
"(191039, 215843)",-586.0,1.5414491428468625e-32
"(215843, 215844)",-585.0,1.7466907116981076e-32
"(215844, 215845)",-584.0,1.9792598779469045e-32
"(215845, 215846)",-583.0,2.2427952689127702e-32
"(215846, 215847)",-582.0,2.5414199895141027e-32
"(215847, 215848)",-581.0,2.879806129711015e-32
"(215848, 215849)",-580.0,3.263247861014401e-32
"(215849, 215850)",-579.0,3.6977442656820983e-32
"(215850, 215851)",-578.0,4.1900931944943974e-32
"(215851, 215852)",-577.0,4.7479976215471634e-32
"(215852, 215853)",-576.0,5.380186160021138e-32
"(215853, 215854)",-575.0,6.096549624439501e-32
"(215854, 215855)",-574.0,6.908295775978761e-32
"(215855, 215856)",-573.0,7.828124671878425e-32
"(215856, 215857)",-572.0,8.870427362353295e-32
"(215857, 215858)",-571.0,1.0051511043692284e-31
"(215858, 215859)",-570.0,1.1389854190144031e-31
"(215859, 215860)",-569.0,1.290639565621842e-31
"(215860, 215861)",-568.0,1.462486227251231e-31
"(236250, 261052)",-567.0,1.6572140060412714e-31
"(261052, 261053)",-566.0,1.8778694873463448e-31
"(261053, 261054)",-565.0,2.1279049046479047e-31
"(261054, 261055)",-564.0,2.411232150975086e-31
"(261055, 261056)",-563.0,2.732283981862415e-31
"(261056, 261057)",-562.0,3.0960833673866636e-31
"(261057, 261058)",-561.0,3.5083220783201285e-31
"(261058, 261059)",-560.0,3.975449735908647e-31
"(261059, 261060)",-559.0,4.504774718489806e-31
"(261060, 261061)",-558.0,5.104578503671272e-31
"(261061, 261062)",-557.0,5.784245234993277e-31
"(261062, 261063)",-556.0,6.554408540191793e-31
"(261063, 261064)",-555.0,7.427117898086325e-31
"(261064, 261065)",-554.0,8.416027156961458e-31
"(261065, 261066)",-553.0,9.536608153879278e-31
"(261066, 261067)",-552.0,1.0806392777072785e-30
"(261067, 261068)",-551.0,1.2245247258572552e-30
"(261068, 261069)",-550.0,1.3875682988472282e-30
"(261069, 261070)",-549.0,1.5723208713633047e-30
"(261070, 261071)",-548.0,1.7816729631100128e-30
"(261071, 261072)",-547.0,2.0188999620190996e-30
"(281461, 306259)",-546.0,2.2877133688586176e-30
"(306259, 306260)",-545.0,2.5923188649824402e-30
"(306260, 306261)",-544.0,2.9374821117108028e-30
"(306261, 306262)",-543.0,3.32860331079657e-30
"(306262, 306263)",-542.0,3.77180169250225e-30
"(306263, 306264)",-541.0,4.274011253133762e-30
"(306264, 306265)",-540.0,4.843089239878731e-30
"(306265, 306266)",-539.0,5.487939080233175e-30
"(306266, 306267)",-538.0,6.218649679291205e-30
"(306267, 306268)",-537.0,7.046653264253344e-30
"(306268, 306269)",-536.0,7.984904245686979e-30
"(306269, 306270)",-535.0,9.048081893886934e-30
"(306270, 306271)",-534.0,1.025282000127994e-29
"(306271, 306272)",-533.0,1.161796712402298e-29
"(306272, 306273)",-532.0,1.3164881474367886e-29
"(306273, 306274)",-531.0,1.4917765077488086e-29
"(306274, 306283)",-530.0,1.690404242076995e-29
"(326672, 326673)",-529.0,1.915478951967148e-29
"(326673, 326674)",-528.0,2.1705220113036395e-29
"(326674, 326675)",-527.0,2.4595236594562157e-29
"(326675, 326676)",-526.0,2.78700542999407e-29
"(326676, 326677)",-525.0,3.1580908916866257e-29
"(326677, 326678)",-524.0,3.5785858085591347e-29
"(326678, 326679)",-523.0,4.055068973135681e-29
"(326679, 326680)",-522.0,4.5949951339879807e-29
"(326680, 351482)",-521.0,5.206811627928075e-29
"(351482, 351483)",-520.0,5.900090541597061e-29
"(351483, 351484)",-519.0,6.685678470164923e-29
"(351484, 351485)",-518.0,7.575866216169569e-29
"(351485, 351486)",-517.0,8.584581083493778e-29
"(351486, 351487)",-516.0,9.727604774987715e-29
"(351487, 351488)",-515.0,1.10228203028228e-28
"(351488, 351489)",-514.0,1.2490491774577263e-28
"(351489, 351490)",-513.0,1.4153581432406144e-28
"(351490, 351491)",-512.0,1.6038108905486377e-28
"(351491, 351494)",-511.0,1.8173558296369182e-28
"(371883, 371884)",-510.0,2.0593339470250527e-28
"(371884, 371885)",-509.0,2.33353107641944e-28
"(371885, 396681)",-508.0,2.6442371294280543e-28
"(396681, 396682)",-507.0,2.9963132127532655e-28
"(396682, 396683)",-506.0,3.3952676819350547e-28
"(396683, 396684)",-505.0,3.847342321532497e-28
"(396684, 396685)",-504.0,4.359610000063081e-28
"(396685, 396686)",-503.0,4.940085327546147e-28
"(396686, 396687)",-502.0,5.597850046927042e-28
"(396687, 396688)",-501.0,6.343195121175439e-28
"(396688, 396689)",-500.0,7.187781739060989e-28
"(396689, 396690)",-499.0,8.144823758598941e-28
"(396690, 396691)",-498.0,9.229294442558325e-28
"(396691, 396692)",-497.0,1.0458160720483223e-27
"(396692, 396693)",-496.0,1.1850648642339812e-27
"(396693, 396694)",-495.0,1.342854417690584e-27
"(396694, 396695)",-494.0,1.5216534061000393e-27
"(396695, 396696)",-493.0,1.7242592032261266e-27
"(396696, 396697)",-492.0,1.953841648821924e-27
"(396697, 396698)",-491.0,2.2139926419001003e-27
"(396698, 396699)",-490.0,2.5087823372704347e-27
"(396699, 396700)",-489.0,2.8428228245593702e-27
"(396700, 396701)",-488.0,3.2213402859925163e-27
"(396701, 396702)",-487.0,3.650256761874268e-27
"(396702, 396705)",-486.0,4.136282803014549e-27
"(417094, 417095)",-485.0,4.687022459682853e-27
"(417095, 417096)",-484.0,5.311092249679095e-27
"(417096, 441895)",-483.0,6.0182559668190775e-27
"(441895, 441896)",-482.0,6.819577438961234e-27
"(441896, 441897)",-481.0,7.727593625528352e-27
"(441897, 441898)",-480.0,8.75651076269652e-27
"(441898, 441899)",-479.0,9.922426625012578e-27
"(441899, 441900)",-478.0,1.1243582380802092e-26
"(441900, 441901)",-477.0,1.2740647981735317e-26
"(441901, 441902)",-476.0,1.4437045551572357e-26
"(441902, 441903)",-475.0,1.6359315833619522e-26
"(441903, 441904)",-474.0,1.85375334300976e-26
"(441904, 441905)",-473.0,2.100577732998967e-26
"(441905, 441906)",-472.0,2.3802664086944007e-26
"(441906, 441907)",-471.0,2.6971951988989904e-26
"(441907, 441908)",-470.0,3.056322567251662e-26
"(441908, 441909)",-469.0,3.463267189154452e-26
"(441909, 441910)",-468.0,3.924395857947463e-26
"(441910, 441911)",-467.0,4.446923095655028e-26
"(441911, 441916)",-466.0,5.039024026748638e-26
"(462305, 462306)",-465.0,5.709962280876788e-26
"(462306, 462307)",-464.0,6.47023492564546e-26
"(462307, 462308)",-463.0,7.331736696974105e-26
"(462308, 462309)",-462.0,8.30794609646949e-26
"(462309, 487104)",-461.0,9.414136267376981e-26
"(487104, 487105)",-460.0,1.0667613948338533e-25
"(487105, 487106)",-459.0,1.2087990243473908e-25
"(487106, 487107)",-458.0,1.3697487445079347e-25
"(487107, 487108)",-457.0,1.5521286709293938e-25
"(487108, 487109)",-456.0,1.7587922024243116e-25
"(487109, 487110)",-455.0,1.9929726634431054e-25
"(487110, 487111)",-454.0,2.2583338905850276e-25
"(487111, 487112)",-453.0,2.559027554624811e-25
"(487112, 487113)",-452.0,2.899758114878488e-25
"(487113, 487114)",-451.0,3.285856422142535e-25
"(487114, 487115)",-450.0,3.7233631217505106e-25
"(487115, 487116)",-449.0,4.21912316161766e-25
"(487116, 487117)",-448.0,4.780892883885469e-25
"(487117, 487118)",-447.0,5.417461375653018e-25
"(487118, 487119)",-446.0,6.138787977370498e-25
"(487119, 487120)",-445.0,6.956158100262611e-25
"(487120, 487121)",-444.0,7.882359790600851e-25
"(487121, 487122)",-443.0,8.931883803235506e-25
"(487122, 487123)",-442.0,1.0121150314608955e-24
"(487123, 487124)",-441.0,1.146876582225596e-24
"(487124, 487125)",-440.0,1.2995814250075031e-24
"(487125, 487127)",-439.0,1.4726186813816338e-24
"(507516, 507517)",-438.0,1.668695580764908e-24
"(507517, 532312)",-437.0,1.8908798159832048e-24
"(532312, 532313)",-436.0,2.1426475384166538e-24
"(532313, 532314)",-435.0,2.4279377436242747e-24
"(532314, 532315)",-434.0,2.7512138983304072e-24
"(532315, 532316)",-433.0,3.117533772949054e-24
"(532316, 532317)",-432.0,3.532628572200807e-24
"(532317, 532318)",-431.0,4.002992601849016e-24
"(532318, 532319)",-430.0,4.535984874423162e-24
"(532319, 532320)",-429.0,5.1399442435871284e-24
"(532320, 532321)",-428.0,5.824319868470494e-24
"(532321, 532322)",-427.0,6.5998190491237225e-24
"(532322, 532338)",-426.0,7.478574746035519e-24
"(552727, 552728)",-425.0,8.47433540461478e-24
"(552728, 552729)",-424.0,9.602680054508677e-24
"(552729, 552730)",-423.0,1.0881262049062174e-23
"(552730, 552731)",-422.0,1.2330085258309567e-23
"(552731, 552732)",-421.0,1.3971817036635564e-23
"(552732, 552733)",-420.0,1.583214286159632e-23
"(552733, 552734)",-419.0,1.7940168192350867e-23
"(552734, 552735)",-418.0,2.0328873834921067e-23
"(552735, 552736)",-417.0,2.3035631938631488e-23
"(552736, 552737)",-416.0,2.610279069667705e-23
"(552737, 552738)",-415.0,2.9578336898666744e-23
"(552738, 552739)",-414.0,3.351664670101365e-23
"(552739, 552740)",-413.0,3.7979336361240965e-23
"(552740, 577549)",-412.0,4.3036226246244867e-23
"(597938, 597939)",-411.0,4.876643319676632e-23
"(597939, 597940)",-410.0,5.525960833850248e-23
"(597940, 597941)",-409.0,6.261733970585278e-23
"(597941, 597942)",-408.0,7.095474162284704e-23
"(597942, 597943)",-407.0,8.040225570768548e-23
"(597943, 597944)",-406.0,9.110769167824721e-23
"(597944, 597945)",-405.0,1.0323853988769519e-22
"(597945, 597946)",-404.0,1.1698459177061964e-22
"(597946, 597947)",-403.0,1.3256090919753182e-22
"(597947, 597948)",-402.0,1.5021118919431525e-22
"(597948, 597949)",-401.0,1.7021157666886667e-22
"(597949, 597950)",-400.0,1.9287498479639178e-22
"(597950, 597951)",-399.0,2.18555990657319e-22
"(597951, 597952)",-398.0,2.4765638272182875e-22
"(597952, 597953)",-397.0,2.8063144697336614e-22
"(597953, 597954)",-396.0,3.1799709001977496e-22
"(597954, 622760)",-395.0,3.6033791063566026e-22
"(643149, 643150)",-394.0,4.083163460181308e-22
"(643150, 643151)",-393.0,4.626830358523438e-22
"(643151, 643152)",-392.0,5.242885663363464e-22
"(643152, 643153)",-391.0,5.94096777904655e-22
"(643153, 643154)",-390.0,6.731998448546458e-22
"(643154, 643155)",-389.0,7.628353628018694e-22
"(643155, 643156)",-388.0,8.644057113036095e-22
"(643156, 643157)",-387.0,9.794999945858146e-22
"(643157, 643158)",-386.0,1.1099189036438807e-21
"(643158, 643159)",-385.0,1.2577028886936914e-21
"(643159, 643160)",-384.0,1.425164082740935e-21
"(643160, 643161)",-383.0,1.614922475724293e-21
"(643161, 643162)",-382.0,1.829946905189832e-21
"(643162, 643163)",-381.0,2.0736015048102845e-21
"(643163, 667951)",-380.0,2.349698337452817e-21
"(667951, 667952)",-379.0,2.6625570362583533e-21
"(667952, 667953)",-378.0,3.0170723868383467e-21
"(667953, 667954)",-377.0,3.41879090793651e-21
"(667954, 667955)",-376.0,3.873997628687187e-21
"(667955, 667971)",-375.0,4.3898144201314395e-21
"(688360, 688361)",-374.0,4.974311419422388e-21
"(688361, 688362)",-373.0,5.6366332899911276e-21
"(688362, 688363)",-372.0,6.387142293058423e-21
"(688363, 688364)",-371.0,7.237580408896853e-21
"(688364, 688365)",-370.0,8.201253044288238e-21
"(688365, 688366)",-369.0,9.293237200344816e-21
"(688366, 688367)",-368.0,1.0530617357553812e-20
"(688367, 688368)",-367.0,1.1932752768550773e-20
"(688368, 688369)",-366.0,1.3521580340512199e-20
"(688369, 688370)",-365.0,1.5321957845870208e-20
"(688370, 713182)",-364.0,1.7362052831002947e-20
"(733571, 733572)",-363.0,1.9673783307515505e-20
"(733572, 733573)",-362.0,2.229331712088314e-20
"(733573, 733574)",-361.0,2.5261637809256925e-20
"(733574, 733575)",-360.0,2.8625185805493937e-20
"(733575, 733576)",-359.0,3.243658501424593e-20
"(733576, 733577)",-358.0,3.675546613166337e-20
"(733577, 733578)",-357.0,4.164939958884448e-20
"(733578, 733579)",-356.0,4.719495271526123e-20
"(733579, 733580)",-355.0,5.347888766186029e-20
"(733580, 733581)",-354.0,6.059951882577157e-20
"(733581, 733582)",-353.0,6.866825101401707e-20
"(733582, 733583)",-352.0,7.781132241133797e-20
"(733583, 733584)",-351.0,8.817177962149169e-20
"(733584, 733585)",-350.0,9.991171568224243e-20
"(733585, 733586)",-349.0,1.1321480606858558e-19
"(733586, 758393)",-348.0,1.282891823608785e-19
"(778782, 778783)",-347.0,1.4537068853743743e-19
"(778783, 778784)",-346.0,1.6472657083745667e-19
"(778784, 778785)",-345.0,1.86659658923467e-19
"(778785, 778786)",-344.0,2.1151310375910807e-19
"(778786, 778787)",-343.0,2.396757463279964e-19
"(778787, 778788)",-342.0,2.715882011892062e-19
"(778788, 778789)",-341.0,3.0774975004875105e-19
"(778789, 778790)",-340.0,3.4872615319944465e-19
"(778790, 778791)",-339.0,3.951585010418958e-19
"(778791, 778792)",-338.0,4.4777324417183015e-19
"(778792, 778793)",-337.0,5.073935589580235e-19
"(778793, 778794)",-336.0,5.74952226429356e-19
"(778794, 778795)",-335.0,6.5150622596575245e-19
"(778795, 778796)",-334.0,7.382532721164985e-19
"(778796, 778797)",-333.0,8.365505532703331e-19
"(778797, 778798)",-332.0,9.479359653504757e-19
"(778798, 778799)",-331.0,1.0741521727433002e-18
"(778799, 778800)",-330.0,1.2171738729024408e-18
"(778800, 778801)",-329.0,1.3792386911927587e-18
"(778801, 778802)",-328.0,1.5628821893349888e-18
"(778802, 778803)",-327.0,1.7709775351706372e-18
"(778803, 803604)",-326.0,2.0067804543947083e-18
"(823993, 823994)",-325.0,2.2739801675421068e-18
"(823994, 823995)",-324.0,2.576757109154981e-18
"(823995, 823996)",-323.0,2.9198483321679137e-18
"(823996, 823997)",-322.0,3.308621620785825e-18
"(823997, 823998)",-321.0,3.749159471376912e-18
"(823998, 823999)",-320.0,4.248354255291589e-18
"(823999, 824000)",-319.0,4.8140160524635325e-18
"(824000, 824001)",-318.0,5.454994842887922e-18
"(824001, 824002)",-317.0,6.181318967705964e-18
"(824002, 824003)",-316.0,7.004352026168645e-18
"(824003, 824004)",-315.0,7.93697066318849e-18
"(824004, 824005)",-314.0,8.993766029028821e-18
"(824005, 848815)",-313.0,1.0191272063038983e-17
"(869204, 869205)",-312.0,1.1548224173015786e-17
"(869205, 869206)",-311.0,1.3085852357321768e-17
"(869206, 869207)",-310.0,1.4828213355760042e-17
"(869207, 869208)",-309.0,1.6802567025824347e-17
"(869208, 869209)",-308.0,1.9039802832864523e-17
"(869209, 869210)",-307.0,2.157492312675781e-17
"(869210, 869211)",-306.0,2.444759076612131e-17
"(869211, 869212)",-305.0,2.7702749657841194e-17
"(869212, 869213)",-304.0,3.1391327920480296e-17
"(869213, 869214)",-303.0,3.557103467280572e-17
"(869214, 869215)",-302.0,4.030726291347625e-17
"(869215, 869216)",-301.0,4.5674112617763464e-17
"(869216, 869217)",-300.0,5.175555005801869e-17
"(869217, 869218)",-299.0,5.864672148586656e-17
"(869218, 869219)",-298.0,6.64554417291507e-17
"(869219, 869220)",-297.0,7.530388099325974e-17
"(869220, 869221)",-296.0,8.533047625744067e-17
"(869221, 869222)",-295.0,9.669209717057443e-17
"(869222, 869223)",-294.0,1.0956650033262368e-16
"(869223, 869224)",-293.0,1.2415511035985842e-16
"(869224, 869225)",-292.0,1.4068617124461467e-16
"(869225, 869226)",-291.0,1.5941831731372977e-16
"(869226, 869227)",-290.0,1.8064461965456932e-16
"(869227, 894026)",-289.0,2.0469717131642043e-16
"(914415, 914416)",-288.0,2.319522830243569e-16
"(914416, 914417)",-287.0,2.6283637069436874e-16
"(914417, 914418)",-286.0,2.9783262686202286e-16
"(914418, 914419)",-285.0,3.3748858040153054e-16
"(914419, 914420)",-284.0,3.824246628097135e-16
"(914420, 914421)",-283.0,4.333439150774296e-16
"(914421, 914422)",-282.0,4.910429870159115e-16
"(914422, 914423)",-281.0,5.564246011263937e-16
"(914423, 914424)",-280.0,6.30511676014699e-16
"(914424, 914425)",-279.0,7.14463330316628e-16
"(914425, 914426)",-278.0,8.095930175212601e-16
"(914426, 914427)",-277.0,9.173890754179198e-16
"(914427, 914428)",-276.0,1.039538011670222e-15
"(914428, 914429)",-275.0,1.1779508898282764e-15
"(914429, 914430)",-274.0,1.334793228597603e-15
"(914430, 914431)",-273.0,1.5125188821494485e-15
"(914431, 914432)",-272.0,1.713908431542013e-15
"(914432, 914433)",-271.0,1.9421126879000225e-15
"(914433, 939237)",-270.0,2.200701987975367e-15
"(959626, 959627)",-269.0,2.493722053335376e-15
"(959627, 959628)",-268.0,2.825757287115611e-15
"(959628, 959629)",-267.0,3.2020024986373665e-15
"(959629, 959630)",-266.0,3.628344178047045e-15
"(959630, 959631)",-265.0,4.111452592548034e-15
"(959631, 959632)",-264.0,4.658886145103397e-15
"(959632, 959633)",-263.0,5.2792096283383845e-15
"(959633, 959634)",-262.0,5.9821282237671354e-15
"(959634, 959635)",-261.0,6.7786393428091315e-15
"(959635, 959636)",-260.0,7.681204685202094e-15
"(959636, 959637)",-259.0,8.703945206726412e-15
"(959637, 959638)",-258.0,9.862862046580451e-15
"(959638, 959639)",-257.0,1.1176086870894152e-14
"(959639, 959640)",-255.99999999999997,1.2664165549094221e-14
"(959640, 959641)",-255.0,1.435037960133826e-14
"(959641, 959642)",-254.0,1.626111044617819e-14
"(959642, 984448)",-253.0,1.8426252147235624e-14
"(1004837, 1004838)",-252.0,2.0879679116459336e-14
"(1004838, 1004839)",-251.0,2.3659776091347615e-14
"(1004839, 1004840)",-250.0,2.6810038677818034e-14
"(1004840, 1004841)",-249.0,3.037975385443128e-14
"(1004841, 1004842)",-248.0,3.442477108469976e-14
"(1004842, 1004843)",-247.0,3.900837610180715e-14
"(1004843, 1004844)",-246.0,4.420228103641173e-14
"(1004844, 1004845)",-245.0,5.008774637843506e-14
"(1004845, 1004846)",-244.0,5.675685232632723e-14
"(1004846, 1004847)",-243.0,6.431393941452e-14
"(1004847, 1004848)",-242.0,7.287724095819692e-14
"(1004848, 1004849)",-241.0,8.25807328555592e-14
"(1004849, 1004850)",-240.0,9.357622968840175e-14
"(1004850, 1004851)",-239.0,1.0603575991523846e-13
"(1004851, 1004852)",-238.0,1.2015425731771784e-13
"(1004852, 1004853)",-237.0,1.3615261080896538e-13
"(1004853, 1004854)",-236.0,1.5428112031918877e-13
"(1004854, 1004855)",-235.0,1.748234128271057e-13
"(1004855, 1004856)",-234.0,1.9810087980489794e-13
"(1004856, 1004857)",-233.0,2.2447770550209742e-13
"(1004857, 1004858)",-232.0,2.5436656473769233e-13
"(1004858, 1004859)",-231.0,2.8823507934443873e-13
"(1004859, 1004860)",-230.0,3.2661313427874473e-13
"(1004860, 1004861)",-229.0,3.701011678592672e-13
"(1004861, 1004862)",-228.0,4.1937956583795446e-13
"(1004862, 1029659)",-227.0,4.752193062771153e-13
"(1050048, 1050049)",-226.0,5.384940217754036e-13
"(1050049, 1050050)",-225.0,6.101936677605324e-13
"(1050050, 1050051)",-224.0,6.914400106940203e-13
"(1050051, 1050052)",-223.0,7.835041785064389e-13
"(1050052, 1050053)",-222.0,8.878265478459659e-13
"(1050053, 1050054)",-221.0,1.006039279283317e-12
"(1050054, 1050055)",-220.0,1.1399918530443554e-12
"(1050055, 1050056)",-219.0,1.2917800047859961e-12
"(1050056, 1050057)",-218.0,1.463778514125909e-12
"(1050057, 1050058)",-217.0,1.6586783589142312e-12
"(1050058, 1050059)",-216.0,1.8795288165390832e-12
"(1050059, 1050060)",-215.0,2.1297851709557847e-12
"(1050060, 1074870)",-214.0,2.4133627718332143e-12
"(1095259, 1095260)",-213.0,2.7346982915918745e-12
"(1095260, 1095261)",-212.0,3.098819138721825e-12
"(1095261, 1095262)",-211.0,3.5114221133765118e-12
"(1095262, 1095263)",-210.0,3.97896253583724e-12
"(1095263, 1095264)",-209.0,4.508755242294825e-12
"(1095264, 1095265)",-208.0,5.109089028063324e-12
"(1095265, 1095266)",-207.0,5.789356328730651e-12
"(1095266, 1095267)",-206.0,6.560200168153779e-12
"(1095267, 1095268)",-205.0,7.433680672352188e-12
"(1095268, 1095269)",-204.0,8.423463754468647e-12
"(1095269, 1095270)",-203.0,9.545034922840628e-12
"(1095270, 1095271)",-202.0,1.0815941557285693e-11
"(1095271, 1095272)",-201.0,1.2256067444099483e-11
"(1095272, 1095273)",-200.0,1.3887943864964021e-11
"(1095273, 1095274)",-199.0,1.57371021068629e-11
"(1095274, 1095275)",-198.0,1.783247290814639e-11
"(1095275, 1095276)",-197.0,2.020683909022217e-11
"(1095276, 1095277)",-196.0,2.289734845645553e-11
"(1095277, 1095278)",-195.0,2.5946094982764667e-11
"(1095278, 1095279)",-194.0,2.9400777392844726e-11
"(1095279, 1095280)",-193.0,3.3315445421664114e-11
"(1095280, 1095281)",-192.0,3.775134544279098e-11
"(1095281, 1095282)",-191.0,4.277787868968998e-11
"(1095282, 1095283)",-190.0,4.8473687062702556e-11
"(1095283, 1095284)",-189.0,5.4927883509546835e-11
"(1095284, 1095285)",-188.0,6.224144622907783e-11
"(1095285, 1095286)",-187.0,7.05287985111216e-11
"(1095286, 1095287)",-186.0,7.991959892953931e-11
"(1095287, 1095288)",-185.0,9.056076989672866e-11
"(1095288, 1095289)",-184.0,1.026187963170189e-10
"(1095289, 1095290)",-183.0,1.1628233030220971e-10
"(1095290, 1095291)",-182.0,1.317651427009547e-10
"(1095291, 1095292)",-181.0,1.493094676197164e-10
"(1095292, 1120081)",-180.0,1.6918979226151304e-10
"(1140470, 1140471)",-179.0,1.917171513758312e-10
"(1140471, 1140472)",-178.0,2.172439935079017e-10
"(1140472, 1140473)",-177.0,2.4616969518153846e-10
"(1140473, 1140474)",-176.0,2.7894680928689246e-10
"(1140474, 1140475)",-175.0,3.160881454313692e-10
"(1140475, 1140476)",-174.0,3.581747930283181e-10
"(1140476, 1140477)",-173.0,4.058652126475693e-10
"(1140477, 1140478)",-172.0,4.599055378652317e-10
"(1140478, 1140479)",-171.0,5.21141248788854e-10
"(1140479, 1140480)",-170.0,5.905303998944039e-10
"(1140480, 1140481)",-169.0,6.691586091292783e-10
"(1140481, 1140482)",-168.0,7.582560427911907e-10
"(1140482, 1140483)",-167.0,8.592166619174109e-10
"(1140483, 1140484)",-166.0,9.736200313009565e-10
"(1140484, 1140485)",-165.0,1.103256032343554e-09
"(1140485, 1140486)",-164.0,1.2501528663867426e-09
"(1140486, 1140487)",-163.0,1.4166087866431964e-09
"(1140487, 1140488)",-162.0,1.6052280551856116e-09
"(1140488, 1140489)",-161.0,1.818961687553046e-09
"(1140489, 1140490)",-160.0,2.061153622438558e-09
"(1140490, 1140491)",-159.0,2.335593038799337e-09
"(1140491, 1140492)",-158.0,2.646573638909117e-09
"(1140492, 1165292)",-157.0,2.9989608248573072e-09
"(1185681, 1185682)",-156.0,3.398267819495071e-09
"(1185682, 1185683)",-155.0,3.850741922767617e-09
"(1185683, 1185684)",-154.0,4.363462252943701e-09
"(1185684, 1185685)",-153.0,4.944450501938644e-09
"(1185685, 1185686)",-152.0,5.602796437537268e-09
"(1185686, 1185687)",-151.0,6.3488001160436795e-09
"(1185687, 1185688)",-150.0,7.194133030325384e-09
"(1185688, 1185689)",-149.0,8.152020714470167e-09
"(1185689, 1185690)",-148.0,9.237449661970594e-09
"(1185690, 1185691)",-147.0,1.0467401794744656e-08
"(1185691, 1185692)",-146.0,1.186112015134383e-08
"(1185692, 1185693)",-145.0,1.3440409951135022e-08
"(1185693, 1185694)",-144.0,1.522997974471263e-08
"(1185694, 1185695)",-143.0,1.7257827987960214e-08
"(1185695, 1185696)",-142.0,1.9555681087850496e-08
"(1185696, 1185697)",-141.0,2.215948977336598e-08
"(1185697, 1185698)",-140.0,2.5109991557439816e-08
"(1185698, 1185699)",-139.0,2.8453348089834e-08
"(1185699, 1185700)",-138.0,3.224186737256733e-08
"(1185700, 1185701)",-137.0,3.653482213721045e-08
"(1185701, 1185702)",-136.0,4.139937718785167e-08
"(1185702, 1210503)",-135.0,4.691164021834417e-08
"(1230892, 1230893)",-134.0,5.3157852544244216e-08
"(1230893, 1230894)",-133.0,6.023573837886479e-08
"(1230894, 1230895)",-132.0,6.82560337633487e-08
"(1230895, 1230896)",-131.0,7.734421907141565e-08
"(1230896, 1230897)",-130.0,8.764248219443637e-08
"(1230897, 1230898)",-129.0,9.931194312156244e-08
"(1230898, 1230899)",-128.0,1.1253517471925912e-07
"(1230899, 1230900)",-127.0,1.2751905914873347e-07
"(1230900, 1230901)",-126.0,1.4449802461092448e-07
"(1230901, 1230902)",-125.0,1.6373771305908126e-07
"(1230902, 1230903)",-124.0,1.855391362615978e-07
"(1230903, 1230904)",-123.0,2.1024338523818466e-07
"(1230904, 1230905)",-122.0,2.3823696675018182e-07
"(1230905, 1230906)",-121.0,2.6995785033630146e-07
"(1230906, 1230907)",-120.0,3.059023205018258e-07
"(1230907, 1230908)",-119.0,3.4663274126619643e-07
"(1230908, 1230909)",-118.0,3.927863545481039e-07
"(1230909, 1230910)",-117.0,4.450852500419419e-07
"(1230910, 1230911)",-116.0,5.04347662567888e-07
"(1230911, 1230912)",-115.0,5.715007736466721e-07
"(1230912, 1230913)",-114.0,6.475952175842209e-07
"(1230913, 1230914)",-113.0,7.338215190190348e-07
"(1230914, 1230915)",-112.0,8.315287191035679e-07
"(1230915, 1230916)",-111.0,9.422454817328476e-07
"(1230916, 1230917)",-110.0,1.0677040100347827e-06
"(1230917, 1230918)",-109.0,1.2098671473041613e-06
"(1230918, 1255714)",-108.0,1.3709590863840845e-06
"(1276103, 1276104)",-107.0,1.5535001679540347e-06
"(1276104, 1276105)",-106.0,1.7603463121561693e-06
"(1276105, 1276106)",-105.0,1.9947337004816555e-06
"(1276106, 1276107)",-104.0,2.2603294069810542e-06
"(1276107, 1276108)",-103.0,2.5612887709420384e-06
"(1276108, 1276109)",-102.0,2.902320408650404e-06
"(1276109, 1276110)",-101.0,3.2887598813664843e-06
"(1276110, 1276111)",-100.0,3.7266531720786714e-06
"(1276111, 1276112)",-99.0,4.222851277057527e-06
"(1276112, 1276113)",-98.0,4.785117392129009e-06
"(1276113, 1276114)",-97.0,5.4222483706341535e-06
"(1276114, 1276115)",-96.0,6.14421235332821e-06
"(1276115, 1276116)",-95.0,6.962304723487946e-06
"(1276116, 1276117)",-94.0,7.889324827200223e-06
"(1276117, 1276118)",-93.0,8.939776223683639e-06
"(1276118, 1276119)",-92.0,1.013009359863071e-05
"(1276119, 1276120)",-91.0,1.147889989071055e-05
"(1276120, 1276121)",-90.0,1.300729765406762e-05
"(1276121, 1276122)",-89.0,1.4739199215286485e-05
"(1276122, 1276123)",-88.0,1.670170079024566e-05
"(1276123, 1276124)",-87.0,1.892550641405186e-05
"(1276124, 1300925)",-86.0,2.1445408316589164e-05
"(1321314, 1321315)",-85.0,2.430083125932946e-05
"(1321315, 1321316)",-84.0,2.7536449349747158e-05
"(1321316, 1321317)",-83.0,3.120288498361901e-05
"(1321317, 1321318)",-82.0,3.535750085040998e-05
"(1321318, 1321319)",-81.0,4.006529739295107e-05
"(1321319, 1321320)",-80.0,4.5399929762484854e-05
"(1321320, 1321321)",-79.0,5.144486017970227e-05
"(1321321, 1321322)",-78.0,5.829466373086881e-05
"(1321322, 1321323)",-77.0,6.605650802868481e-05
"(1321323, 1321324)",-76.0,7.485182988770058e-05
"(1321324, 1321325)",-75.0,8.481823524646916e-05
"(1321325, 1321326)",-74.0,9.61116520613947e-05
"(1321326, 1321327)",-73.0,0.00010890876985506645
"(1321327, 1321328)",-72.0,0.00012340980408667956
"(1321328, 1321329)",-71.0,0.000139841628594101
"(1321329, 1321330)",-70.0,0.00015846132511575126
"(1321330, 1321331)",-69.0,0.000179560205425833
"(1321331, 1321332)",-68.0,0.00020346836901064417
"(1321332, 1321333)",-67.0,0.00023055986759244163
"(1321333, 1346136)",-66.0,0.00026125855730166754
"(1366525, 1366526)",-65.0,0.0002960447300568554
"(1366526, 1366527)",-64.0,0.0003354626279025118
"(1366527, 1366528)",-63.0,0.00038012895786946363
"(1366528, 1366529)",-62.0,0.00043074254057568753
"(1366529, 1366530)",-61.0,0.00048809524352341505
"(1366530, 1366531)",-60.0,0.0005530843701478336
"(1366531, 1366532)",-59.0,0.0006267266984484576
"(1366532, 1366533)",-58.0,0.0007101743888425491
"(1366533, 1366534)",-57.0,0.0008047330101246132
"(1366534, 1366535)",-56.0,0.0009118819655545162
"(1366535, 1366536)",-55.0,0.001033297638647637
"(1366536, 1366537)",-54.0,0.0011708796207911744
"(1366537, 1366538)",-53.0,0.0013267804310269915
"(1366538, 1366539)",-52.0,0.0015034391929775726
"(1366539, 1366540)",-51.0,0.001703619795802574
"(1366540, 1366541)",-50.0,0.0019304541362277093
"(1366541, 1366542)",-49.0,0.002187491118182885
"(1366542, 1366543)",-48.0,0.0024787521766663585
"(1366543, 1366544)",-47.0,0.0028087941945255128
"(1366544, 1366545)",-46.0,0.003182780796509667
"(1366545, 1391347)",-45.0,0.0036065631360157305
"(1411736, 1411737)",-44.0,0.004086771438464067
"(1411737, 1411738)",-43.0,0.004630918733533246
"(1411738, 1411739)",-42.0,0.005247518399181385
"(1411739, 1411740)",-41.0,0.005946217356472094
"(1411740, 1411741)",-40.0,0.006737946999085467
"(1411741, 1411742)",-39.0,0.0076350942188599625
"(1411742, 1411743)",-38.0,0.008651695203120634
"(1411743, 1411744)",-37.0,0.009803655035821828
"(1411744, 1411745)",-36.0,0.011108996538242308
"(1411745, 1411746)",-35.0,0.012588142242433998
"(1411746, 1411747)",-34.0,0.014264233908999256
"(1411747, 1411748)",-33.0,0.016163494588165874
"(1411748, 1411749)",-32.0,0.01831563888873418
"(1411749, 1411750)",-31.0,0.020754337873699742
"(1411750, 1411751)",-30.0,0.02351774585600911
"(1411751, 1411752)",-29.0,0.026649097336355485
"(1411752, 1411753)",-28.0,0.0301973834223185
"(1411753, 1411754)",-27.0,0.03421811831166604
"(1411754, 1411755)",-26.0,0.03877420783172201
"(1411755, 1411756)",-25.0,0.04393693362340741
"(1411756, 1411757)",-24.0,0.04978706836786394
"(1411757, 1436558)",-23.0,0.05641613950377735
"(1456947, 1456948)",-22.0,0.06392786120670757
"(1456948, 1456949)",-21.0,0.07243975703425146
"(1456949, 1456950)",-20.0,0.0820849986238988
"(1456950, 1456951)",-19.0,0.09301448921066349
"(1456951, 1456952)",-18.0,0.10539922456186433
"(1456952, 1456953)",-17.0,0.11943296826671962
"(1456953, 1456954)",-16.0,0.13533528323661267
"(1456954, 1456955)",-15.0,0.15335496684492847
"(1456955, 1456956)",-14.0,0.1737739434504451
"(1456956, 1456957)",-13.0,0.19691167520419406
"(1456957, 1456958)",-12.0,0.22313016014842982
"(1456958, 1456959)",-11.0,0.25283959580474646
"(1456959, 1456960)",-10.0,0.2865047968601901
"(1456960, 1456961)",-9.0,0.32465246735834974
"(1456961, 1456962)",-8.0,0.3678794411714424
"(1456962, 1456963)",-7.0,0.4168620196785084
"(1456963, 1456964)",-6.0,0.4723665527410147
"(1456964, 1456965)",-5.0,0.5352614285189902
"(1456965, 1456966)",-4.0,0.6065306597126334
"(1456966, 1456967)",-3.0,0.6872892787909721
"(1456967, 1456968)",-2.0,0.7788007830714049
"(1456968, 1456969)",-1.0,0.8824969025845953
"(1456969, 1456970)",0.0,1.0
"(1456970, 1481769)",-0.9051950537781863,0.8930172496969451
"(1502158, 1502159)",-1.9051950537781863,0.7880849568121682
"(1502159, 1502160)",-2.9051950537781863,0.695482533360253
"(1502160, 1502161)",-3.9051950537781863,0.6137611814921109
"(1502161, 1502162)",-4.905195053778186,0.5416423415934495
"(1502162, 1502163)",-5.905195053778186,0.47799768876488663
"(1502163, 1502164)",-6.905195053778186,0.4218314797776079
"(1502164, 1502165)",-7.905195053778186,0.37226497431641536
"(1502165, 1502166)",-8.905195053778186,0.3285226867749705
"(1502166, 1502167)",-9.905195053778186,0.2899202535076807
"(1502167, 1502168)",-10.905195053778186,0.2558537257170689
"(1502168, 1502169)",-11.905195053778186,0.22579012046004193
"(1502169, 1502170)",-12.905195053778186,0.19925908194018968
"(1502170, 1502171)",-13.905195053778186,0.1758455226240675
"(1502171, 1502172)",-14.905195053778186,0.15518312904910897
"(1502172, 1502173)",-15.905195053778186,0.13694863071922422
"(1502173, 1502174)",-16.905195053778186,0.12085674242291694
"(1502174, 1502175)",-17.905195053778186,0.10665570084468846
"(1502175, 1502176)",-18.905195053778186,0.09412332563842679
"(1502176, 1502177)",-19.905195053778186,0.08306354333687288
"(1502177, 1502178)",-20.905195053778186,0.07330331971249161
"(1502178, 1502179)",-21.905195053778186,0.06468995259544216
"(1502179, 1526980)",-22.905195053778186,0.057088682793822024
"(1547369, 1547370)",-23.905195053778186,0.050380585738182423
"(1547370, 1547371)",-24.905195053778186,0.04446071086434363
"(1547371, 1547372)",-25.905195053778186,0.03923643962449252
"(1547372, 1547373)",-26.905195053778186,0.034626036437062135
"(1547373, 1547374)",-27.905195053778186,0.030557369904488676
"(1547374, 1547375)",-28.905195053778186,0.026966784291842988
"(1547375, 1547376)",-29.905195053778186,0.02379810361021836
"(1547376, 1547377)",-30.905195053778186,0.02100175272340498
"(1547377, 1547378)",-31.905195053778186,0.018533981727252485
"(1547378, 1547379)",-32.905195053778186,0.01635618146685981
"(1547379, 1547380)",-33.905195053778186,0.014434279482615345
"(1547380, 1547381)",-34.905195053778186,0.012738206934448418
"(1547381, 1547382)",-35.905195053778186,0.011241428164132344
"(1547382, 1547383)",-36.905195053778186,0.009920525535474027
"(1547383, 1547384)",-37.905195053778186,0.008754833057067214
"(1547384, 1547385)",-38.905195053778186,0.007726113055507041
"(1547385, 1547386)",-39.905195053778186,0.006818270840503368
"(1547386, 1547387)",-40.905195053778186,0.006017102897727089
"(1547387, 1547388)",-41.905195053778186,0.005310074669776949
"(1547388, 1547389)",-42.905195053778186,0.004686124448571075
"(1547389, 1547390)",-43.905195053778186,0.004135490310989919
"(1547390, 1547391)",-44.905195053778186,0.003649557390117209
"(1547391, 1547392)",-45.905195053778186,0.003220723092583157
"(1547392, 1572191)",-46.905195053778186,0.0028422781532873153
"(1592580, 1592581)",-47.905195053778186,0.0025083016665599193
"(1592581, 1592582)",-48.905195053778186,0.0022135684514869077
"(1592582, 1592583)",-49.905195053778186,0.001953467302096175
"(1592583, 1592584)",-50.905195053778186,0.0017239288434001605
"(1592584, 1592585)",-51.905195053778186,0.0015213618645768857
"(1592585, 1592586)",-52.905195053778186,0.0013425971331994264
"(1592586, 1592587)",-53.905195053778186,0.0011848378114674512
"(1592587, 1592588)",-54.905195053778186,0.0010456156986851364
"(1592588, 1592589)",-55.905195053778186,0.0009227526153834605
"(1592589, 1592590)",-56.905195053778186,0.0008143263249277385
"(1592590, 1592591)",-57.905195053778186,0.000718640459441826
"(1592591, 1592592)",-58.905195053778186,0.000634197979529382
"(1592592, 1592593)",-59.905195053778186,0.0005596777525600882
"(1592593, 1592594)",-60.905195053778186,0.0004939138830797855
"(1592594, 1592595)",-61.905195053778186,0.0004358774719614407
"(1592595, 1592596)",-62.905195053778186,0.00038466051891237525
"(1592596, 1592597)",-63.905195053778186,0.0003394617164867543
"(1592597, 1592598)",-64.90519505377819,0.00029957391334561076
"(1592598, 1592599)",-65.90519505377819,0.0002643730506226475
"(1592599, 1592600)",-66.90519505377819,0.00023330839830132687
"(1592600, 1592601)",-67.90519505377819,0.00020589393884789403
"(1592601, 1592602)",-68.90519505377819,0.0001817007632942086
"(1592602, 1617402)",-69.90519505377819,0.00016035036080439582
"(1637791, 1637792)",-70.90519505377819,0.00014150869673820163
"(1637792, 1637793)",-71.90519505377819,0.00012488098656024578
"(1637793, 1637794)",-72.90519505377819,0.00011020708383112537
"(1637794, 1637795)",-73.90519505377819,9.725741012384899e-05
"(1637795, 1637796)",-74.90519505377819,8.582936318769641e-05
"(1637796, 1637797)",-75.90519505377819,7.574414716395038e-05
"(1637797, 1637798)",-76.90519505377819,6.684397526109798e-05
"(1637798, 1637799)",-77.90519505377819,5.8989601124360284e-05
"(1637799, 1637800)",-78.90519505377819,5.2058140276948716e-05
"(1637800, 1637801)",-79.90519505377819,4.594114754872161e-05
"(1637801, 1662613)",-80.90519505377819,4.05429204129287e-05
"(1683002, 1683003)",-81.90519505377819,3.577900168614334e-05
"(1683003, 1683004)",-82.90519505377819,3.1574858165590516e-05
"(1683004, 1683005)",-83.90519505377819,2.7864714530681553e-05
"(1683005, 1683006)",-84.90519505377819,2.4590524264730437e-05
"(1683006, 1683007)",-85.90519505377819,2.1701061496555946e-05
"(1683007, 1683008)",-86.90519505377819,1.9151119553508447e-05
"(1683008, 1683009)",-87.90519505377819,1.6900803686998483e-05
"(1683009, 1683010)",-88.90519505377819,1.4914906904966474e-05
"(1683010, 1683011)",-89.90519505377819,1.3162359145970507e-05
"(1683011, 1683012)",-90.90519505377819,1.1615741177024992e-05
"(1683012, 1683013)",-91.90519505377819,1.0250855609948899e-05
"(1683013, 1683014)",-92.90519505377819,9.046348324621826e-06
"(1683014, 1683015)",-93.90519505377819,7.983374376180104e-06
"(1683015, 1683016)",-94.90519505377819,7.04530315915217e-06
"(1683016, 1683017)",-95.90519505377819,6.217458215721254e-06
"(1683017, 1683018)",-96.90519505377819,5.486887617323153e-06
"(1683018, 1683019)",-97.90519505377819,4.842161327117452e-06
"(1683019, 1683020)",-98.90519505377819,4.273192372996066e-06
"(1683020, 1683021)",-99.90519505377819,3.7710790333171455e-06
"(1683021, 1683022)",-100.90519505377819,3.3279655663040907e-06
"(1683022, 1683023)",-101.90519505377819,2.936919304171549e-06
"(1683023, 1683024)",-102.90519505377819,2.591822189072297e-06
"(1683024, 1707824)",-103.90519505377819,2.287275053906328e-06
"(1728213, 1728214)",-104.90519505377819,2.0185131504313476e-06
"(1728214, 1728215)",-105.90519505377819,1.781331603081938e-06
"(1728215, 1728216)",-106.90519505377819,1.5720196221958622e-06
"(1728216, 1728217)",-107.90519505377819,1.3873024473900544e-06
"(1728217, 1728218)",-108.90519505377819,1.2242901127697516e-06
"(1728218, 1728219)",-109.90519505377819,1.0804322323842509e-06
"(1728219, 1728220)",-110.90519505377819,9.534780985316611e-07
"(1728220, 1728221)",-111.90519505377819,8.414414686364405e-07
"(1728221, 1728222)",-112.90519505377819,7.425694897778917e-07
"(1728222, 1728223)",-113.90519505377819,6.553152746828128e-07
"(1728223, 1728224)",-114.90519505377819,5.783137001239556e-07
"(1728224, 1728225)",-115.90519505377819,5.103600490816274e-07
"(1728225, 1728226)",-116.90519505377819,4.503911625174583e-07
"(1728226, 1728227)",-117.90519505377819,3.974688058731321e-07
"(1728227, 1728228)",-118.90519505377819,3.507649900570369e-07
"(1728228, 1728229)",-119.90519505377819,3.0954901726045146e-07
"(1728229, 1728230)",-120.90519505377819,2.7317604893045386e-07
"(1728230, 1728231)",-121.90519505377819,2.410770170414234e-07
"(1728231, 1753035)",-122.90519505377819,2.127497208233899e-07
"(1773424, 1773425)",-123.90519505377819,1.8775096965237897e-07
"(1773425, 1773426)",-124.90519505377819,1.656896491754788e-07
"(1773426, 1773427)",-125.90519505377819,1.4622060218768832e-07
"(1773427, 1773428)",-126.90519505377819,1.2903922852468924e-07
"(1773428, 1773429)",-127.90519505377819,1.1387671948494404e-07
"(1773429, 1773430)",-128.9051950537782,1.0049585222195795e-07
"(1773430, 1773431)",-129.9051950537782,8.868727830847713e-08
"(1773431, 1773432)",-130.9051950537782,7.826624840588904e-08
"(1773432, 1773433)",-131.9051950537782,6.90697217951136e-08
"(1773433, 1773434)",-132.9051950537782,6.095381554656747e-08
"(1773434, 1773435)",-133.9051950537782,5.379155342055855e-08
"(1773435, 1773436)",-134.9051950537782,4.747087927885672e-08
"(1773436, 1773437)",-135.9051950537782,4.1892903926558305e-08
"(1773437, 1773438)",-136.9051950537782,3.6970357955461745e-08
"(1773438, 1773439)",-137.9051950537782,3.262622638313874e-08
"(1773439, 1773440)",-138.9051950537782,2.8792543726143748e-08
"(1773440, 1773441)",-139.9051950537782,2.540933065585338e-08
"(1773441, 1773442)",-140.9051950537782,2.2423655600538417e-08
"(1773442, 1773443)",-141.9051950537782,1.9788806612098867e-08
"(1773443, 1773444)",-142.9051950537782,1.746356054102281e-08
"(1773444, 1773445)",-143.9051950537782,1.5411538085551192e-08
"(1773445, 1773446)",-144.9051950537782,1.3600634624563452e-08
"(1773446, 1798246)",-145.9051950537782,1.2002517929362048e-08
"(1818635, 1818636)",-146.9051950537782,1.059218489587808e-08
"(1818636, 1818637)",-147.9051950537782,9.34757036221574e-09
"(1818637, 1818638)",-148.9051950537782,8.249201891346956e-09
"(1818638, 1818639)",-149.9051950537782,7.279895117908675e-09
"(1818639, 1818640)",-150.9051950537782,6.4244848926951226e-09
"(1818640, 1818641)",-151.9051950537782,5.669588018504973e-09
"(1818641, 1818642)",-152.9051950537782,5.003393865261372e-09
"(1818642, 1818643)",-153.9051950537782,4.415479588503927e-09
"(1818643, 1818644)",-154.9051950537782,3.89664706028022e-09
"(1818644, 1818645)",-155.9051950537782,3.438778961162663e-09
"(1818645, 1818646)",-156.9051950537782,3.034711781899123e-09
"(1818646, 1818647)",-157.9051950537782,2.6781237477629544e-09
"(1818647, 1818648)",-158.9051950537782,2.363435912139055e-09
"(1818648, 1818649)",-159.9051950537782,2.0857248719199144e-09
"(1818649, 1818650)",-160.9051950537782,1.8406457391129765e-09
"(1818650, 1818651)",-161.9051950537782,1.6243641635227348e-09
"(1818651, 1818652)",-162.9051950537782,1.4334963429782308e-09
"(1818652, 1818653)",-163.9051950537782,1.2650560825446335e-09
"(1818653, 1818654)",-164.9051950537782,1.1164080744414412e-09
"(1818654, 1818655)",-165.9051950537782,9.852266677150043e-10
"(1818655, 1818656)",-166.9051950537782,8.694594826022338e-10
"(1818656, 1843457)",-167.9051950537782,7.672953003192762e-10
"(1863846, 1863847)",-168.9051950537782,6.771357258994782e-10
"(1863847, 1863848)",-169.9051950537782,5.97570180735661e-10
"(1863848, 1863849)",-170.9051950537782,5.273538335761378e-10
"(1863849, 1863850)",-171.9051950537782,4.653881246970538e-10
"(1863850, 1863851)",-172.9051950537782,4.107035785448034e-10
"(1863851, 1863852)",-173.9051950537782,3.6244463594619806e-10
"(1863852, 1863853)",-174.9051950537782,3.198562685809211e-10
"(1863853, 1863854)",-175.9051950537782,2.8227216629492936e-10
"(1863854, 1863855)",-176.9051950537782,2.4910431244111893e-10
"(1863855, 1863856)",-177.9051950537782,2.1983378414975277e-10
"(1863856, 1863857)",-178.9051950537782,1.9400263359560736e-10
"(1863857, 1863858)",-179.9051950537782,1.7120672324137769e-10
"(1863858, 1863859)",-180.9051950537782,1.5108940296217385e-10
"(1863859, 1863860)",-181.9051950537782,1.333359301274742e-10
"(1863860, 1863861)",-182.9051950537782,1.1766854534073203e-10
"(1863861, 1863862)",-183.9051950537782,1.0384212679483104e-10
"(1863862, 1863863)",-184.9051950537782,9.164035525423521e-11
"(1863863, 1863864)",-185.9051950537782,8.087232966361452e-11
"(1863864, 1863865)",-186.9051950537782,7.136958043294011e-11
"(1863865, 1863866)",-187.9051950537782,6.298343367083179e-11
"(1863866, 1863867)",-188.9051950537782,5.558268512865138e-11
"(1863867, 1863868)",-189.9051950537782,4.905154746336969e-11
"(1863868, 1863869)",-190.9051950537782,4.328783870340502e-11
"(1863869, 1863870)",-191.9051950537782,3.82013835753365e-11
"(1863870, 1863871)",-192.9051950537782,3.3712602679680495e-11
"(1863871, 1863872)",-193.9051950537782,2.975126744288317e-11
"(1863872, 1863873)",-194.9051950537782,2.6255401366310313e-11
"(1863873, 1863874)",-195.9051950537782,2.3170310381884206e-11
"(1863874, 1863875)",-196.9051950537782,2.0447727143936507e-11
"(1863875, 1863876)",-197.9051950537782,1.8045055869418923e-11
"(1863876, 1863877)",-198.9051950537782,1.592470591172817e-11
"(1863877, 1863878)",-199.9051950537782,1.4053503641670707e-11
"(1863878, 1863879)",-200.9051950537782,1.240217343423573e-11
"(1863879, 1863880)",-201.9051950537782,1.0944879641029986e-11
"(1863880, 1863881)",-202.9051950537782,9.658822382370161e-12
"(1863881, 1863882)",-203.9051950537782,8.52388083505643e-12
"(1863882, 1888668)",-204.9051950537782,7.522298434937494e-12
"(1909057, 1909058)",-205.9051950537782,6.638405069149289e-12
"(1909058, 1909059)",-206.9051950537782,5.858371911626124e-12
"(1909059, 1909060)",-207.9051950537782,5.16999506619865e-12
"(1909060, 1909061)",-208.9051950537782,4.562504632297948e-12
"(1909061, 1909062)",-209.9051950537782,4.0263962060308076e-12
"(1909062, 1909063)",-210.9051950537782,3.5532821804005544e-12
"(1909063, 1909064)",-211.9051950537782,3.1357605182125265e-12
"(1909064, 1909065)",-212.9051950537782,2.7672989445696206e-12
"(1909065, 1909066)",-213.9051950537782,2.44213274710831e-12
"(1909066, 1909067)",-214.9051950537782,2.1551745850234926e-12
"(1909067, 1909068)",-215.9051950537782,1.901934895812273e-12
"(1909068, 1909069)",-216.9051950537782,1.6784516544718861e-12
"(1909069, 1909070)",-217.9051950537782,1.481228386209429e-12
"(1909070, 1909071)",-218.9051950537782,1.3071794628502001e-12
"(1909071, 1933879)",-219.9051950537782,1.1535818270874968e-12
"(1954268, 1954269)",-220.9051950537782,1.0180323892825942e-12
"(1954269, 1954270)",-221.9051950537782,8.984104302726844e-13
"(1954270, 1954271)",-222.9051950537782,7.928444219653376e-13
"(1954271, 1954272)",-223.9051950537782,6.996827466158844e-13
"(1954272, 1954273)",-224.9051950537782,6.174678566804003e-13
"(1954273, 1954274)",-225.9051950537782,5.44913470966002e-13
"(1954274, 1954275)",-226.9051950537782,4.808844503041177e-13
"(1954275, 1954276)",-227.9051950537782,4.243790378944797e-13
"(1954276, 1954277)",-228.9051950537782,3.7451318646370896e-13
"(1954277, 1954278)",-229.9051950537782,3.305067270313102e-13
"(1954278, 1954279)",-230.9051950537782,2.916711628885036e-13
"(1954279, 1954280)",-231.9051950537782,2.5739889782235143e-13
"(1954280, 1954281)",-232.9051950537782,2.2715373005691392e-13
"(1954281, 1954282)",-233.9051950537782,2.0046246318576382e-13
"(1954282, 1954283)",-234.9051950537782,1.7690750284591505e-13
"(1954283, 1979090)",-235.9051950537782,1.5612032330549553e-13
"(1999479, 1999480)",-236.9051950537782,1.3777570174760543e-13
"(1999480, 1999481)",-237.9051950537782,1.215866300436808e-13
"(1999481, 1999482)",-238.9051950537782,1.0729982440924743e-13
"(1999482, 1999483)",-239.9051950537782,9.469176268903183e-14
"(1999483, 1999484)",-240.9051950537782,8.356518727334615e-14
"(1999484, 1999485)",-241.9051950537782,7.374601893262962e-14
"(1999485, 1999486)",-242.9051950537782,6.508063328599057e-14
"(1999486, 1999487)",-243.9051950537782,5.743345729313059e-14
"(1999487, 1999488)",-244.9051950537782,5.0684848165912395e-14
"(1999488, 1999489)",-245.9051950537782,4.47292215143882e-14
"(1999489, 1999490)",-246.9051950537782,3.947339944146783e-14
"(1999490, 1999491)",-247.9051950537782,3.483515274157986e-14
"(1999491, 1999492)",-248.9051950537782,3.07419143955055e-14
"(1999492, 1999493)",-249.9051950537782,2.7129644233554392e-14
"(1999493, 1999494)",-250.9051950537782,2.3941827004333777e-14
"(1999494, 1999495)",-251.9051950537782,2.1128588173540784e-14
"(1999495, 1999496)",-252.9051950537782,1.8645913619135256e-14
"(1999496, 1999497)",-253.9051950537782,1.6454961014746784e-14
"(1999497, 2024301)",-254.9051950537782,1.452145212766431e-14
"(2044690, 2044691)",-255.90519505377821,1.281513652369419e-14
"(2044691, 2044692)",-256.90519505377824,1.1309318288358801e-14
"(2044692, 2044693)",-257.90519505377824,9.98043835981996e-15
"(2044693, 2044694)",-258.90519505377824,8.807705938977596e-15
"(2044694, 2044695)",-259.90519505377824,7.772773210023674e-15
"(2044695, 2044696)",-260.90519505377824,6.859448282338415e-15
"(2044696, 2044697)",-261.90519505377824,6.053441862602874e-15
"(2044697, 2044698)",-262.90519505377824,5.34214369372296e-15
"(2044698, 2044699)",-263.90519505377824,4.714425262872342e-15
"(2044699, 2044700)",-264.90519505377824,4.160465691951409e-15
"(2044700, 2044701)",-265.90519505377824,3.671598086456593e-15
"(2044701, 2044702)",-266.90519505377824,3.2401739388334716e-15
"(2044702, 2044703)",-267.90519505377824,2.8594434648558668e-15
"(2044703, 2044704)",-268.90519505377824,2.523450000851066e-15
"(2044704, 2044705)",-269.90519505377824,2.2269368095781602e-15
"(2044705, 2044706)",-270.90519505377824,1.9652648367043476e-15
"(2044706, 2069512)",-271.90519505377824,1.7343401311500074e-15
"(2089901, 2089902)",-272.90519505377824,1.5305497937680423e-15
"(2089902, 2089903)",-273.90519505377824,1.3507054522517887e-15
"(2089903, 2089904)",-274.90519505377824,1.1919933779163285e-15
"(2089904, 2089905)",-275.90519505377824,1.051930463912509e-15
"(2089905, 2089906)",-276.90519505377824,9.283253761371658e-16
"(2089906, 2089907)",-277.90519505377824,8.192442690317283e-16
"(2089907, 2089908)",-278.90519505377824,7.229805298806811e-16
"(2089908, 2089909)",-279.90519505377824,6.380280782486707e-16
"(2089909, 2089910)",-280.90519505377824,5.630578028164537e-16
"(2089910, 2089911)",-281.90519505377824,4.968967669616083e-16
"(2089911, 2089912)",-282.90519505377824,4.3850985774791884e-16
"(2089912, 2089913)",-283.90519505377824,3.869835912153499e-16
"(2089913, 2089914)",-284.90519505377824,3.4151182059860956e-16
"(2089914, 2089915)",-285.90519505377824,3.0138312387429895e-16
"(2089915, 2089916)",-286.90519505377824,2.6596967331033826e-16
"(2089916, 2089917)",-287.90519505377824,2.347174128778102e-16
"(2089917, 2089918)",-288.90519505377824,2.0713738984733715e-16
"(2089918, 2114723)",-289.90519505377824,1.8279810494973285e-16
"(2135112, 2135113)",-290.90519505377813,1.6131876141647534e-16
"(2135113, 2135114)",-291.90519505377813,1.423633072788228e-16
"(2135114, 2135115)",-292.90519505377813,1.2563517771526014e-16
"(2135115, 2135116)",-293.90519505377813,1.1087265518938226e-16
"(2135116, 2135117)",-294.90519505377813,9.78447747859597e-17
"(2135117, 2135118)",-295.90519505377813,8.634771068269675e-17
"(2135118, 2135119)",-296.90519505377813,7.620158722275066e-17
"(2135119, 2135120)",-297.90519505377813,6.724766469610734e-17
"(2135120, 2135121)",-298.90519505377813,5.934585580036218e-17
"(2135121, 2135122)",-299.90519505377813,5.237253392505167e-17
"(2135122, 2135123)",-300.90519505377813,4.621859896936474e-17
"(2135123, 2135124)",-301.90519505377813,4.078777043226396e-17
"(2135124, 2135125)",-302.90519505377813,3.599508106980448e-17
"(2135125, 2135126)",-303.90519505377813,3.176554755238386e-17
"(2135126, 2135127)",-304.90519505377813,2.803299732388243e-17
"(2135127, 2135128)",-305.90519505377813,2.47390333084885e-17
"(2135128, 2135129)",-306.90519505377813,2.1832120267678235e-17
"(2135129, 2135130)",-307.90519505377813,1.9266778513080413e-17
"(2135130, 2135131)",-308.90519505377813,1.70028723605769e-17
"(2135131, 2135132)",-309.90519505377813,1.500498219325034e-17
"(2135132, 2159934)",-310.90519505377813,1.3241850308880437e-17
"(2180323, 2180324)",-311.90519505377813,1.1685891882075851e-17
"(2180324, 2180325)",-312.90519505377813,1.0312763389870409e-17
"(2180325, 2180326)",-313.90519505377813,9.100981748648447e-18
"(2180326, 2180327)",-314.90519505377813,8.031588203661188e-18
"(2180327, 2180328)",-315.90519505377813,7.087851712565975e-18
"(2180328, 2180329)",-316.90519505377813,6.255007182318392e-18
"(2180329, 2180330)",-317.90519505377813,5.520024464040378e-18
"(2180330, 2180331)",-318.90519505377813,4.871404491706826e-18
"(2180331, 2180332)",-319.90519505377813,4.298999375167959e-18
"(2180332, 2180333)",-320.90519505377813,3.793853632798835e-18
"(2180333, 2180334)",-321.90519505377813,3.348064079804287e-18
"(2180334, 2180335)",-322.90519505377813,2.9546561800820265e-18
"(2180335, 2180336)",-323.90519505377813,2.6074749271248213e-18
"(2180336, 2180337)",-324.90519505377813,2.3010885467546483e-18
"(2180337, 2180338)",-325.90519505377813,2.030703515083865e-18
"(2180338, 2180339)",-326.90519505377813,1.792089562129161e-18
"(2180339, 2180340)",-327.90519505377813,1.5815134877331684e-18
"(2180340, 2180341)",-328.90519505377813,1.3956807543202817e-18
"(2180341, 2180342)",-329.90519505377813,1.2316839426845803e-18
"(2180342, 2205145)",-330.90519505377813,1.0869572643823244e-18
"(2225534, 2225535)",-331.90519505377813,9.592364190592265e-19
"(2225535, 2225536)",-332.90519505377813,8.465231686661063e-19
"(2225536, 2225537)",-333.90519505377813,7.470540743139358e-19
"(2225537, 2225538)",-334.90519505377813,6.592729066452505e-19
"(2225538, 2225539)",-335.90519505377813,5.818062980723767e-19
"(2225539, 2225540)",-336.90519505377813,5.134422559530823e-19
"(2225540, 2225541)",-337.90519505377813,4.531112005346421e-19
"(2225541, 2225542)",-338.90519505377813,3.998692309982092e-19
"(2225542, 2225543)",-339.90519505377813,3.528833577948037e-19
"(2225543, 2225544)",-340.90519505377813,3.114184702275658e-19
"(2225544, 2225545)",-341.90519505377813,2.7482583538345985e-19
"(2225545, 2225546)",-342.90519505377813,2.4253294847612725e-19
"(2225546, 2225547)",-343.90519505377813,2.1403457580489156e-19
"(2225547, 2225548)",-344.90519505377813,1.8888485019382458e-19
"(2225548, 2225549)",-345.90519505377813,1.6669029524120553e-19
"(2225549, 2225550)",-346.90519505377813,1.4710366924127557e-19
"(2225550, 2250356)",-347.90519505377813,1.2981853246425451e-19
"(2270745, 2270746)",-348.90519505377813,1.1456445279778236e-19
"(2270746, 2270747)",-349.90519505377813,1.0110277474034202e-19
"(2270747, 2270748)",-350.90519505377813,8.92228855510599e-20
"(2270748, 2270749)",-351.90519505377813,7.873892013847023e-20
"(2270749, 2270750)",-352.90519505377813,6.948685313505578e-20
"(2270750, 2270751)",-353.90519505377813,6.132193266203742e-20
"(2270751, 2270752)",-354.90519505377813,5.4116415634749154e-20
"(2270752, 2270753)",-355.90519505377813,4.7757569176646694e-20
"(2270753, 2270754)",-356.90519505377813,4.2145906873360254e-20
"(2270754, 2270755)",-357.90519505377813,3.7193632272359235e-20
"(2270755, 2270756)",-358.90519505377813,3.282326527622747e-20
"(2270756, 2270757)",-359.90519505377813,2.8966429938983244e-20
"(2270757, 2270758)",-360.90519505377813,2.5562784700086408e-20
"(2270758, 2270759)",-361.90519505377813,2.255907831926314e-20
"(2270759, 2270760)",-362.90519505377813,1.9908316741913025e-20
"(2270760, 2270761)",-363.90519505377813,1.7569027860411284e-20
"(2270761, 2295567)",-364.90519505377813,1.550461266823542e-20
"(2315956, 2315957)",-365.90519505377813,1.3682772655491637e-20
"(2315957, 2315958)",-366.90519505377813,1.207500448724057e-20
"(2315958, 2315959)",-367.90519505377813,1.0656154058684894e-20
"(2315959, 2315960)",-368.90519505377813,9.404022950253682e-21
"(2315960, 2315961)",-369.90519505377813,8.299021125433324e-21
"(2315961, 2315962)",-370.90519505377813,7.323860437679032e-21
"(2315962, 2315963)",-371.90519505377813,6.463284151213605e-21
"(2315963, 2315964)",-372.90519505377813,5.703828243970111e-21
"(2315964, 2315965)",-373.90519505377813,5.033610758178156e-21
"(2315965, 2315966)",-374.90519505377813,4.442145902908719e-21
"(2315966, 2315967)",-375.90519505377813,3.9201800001457955e-21
"(2315967, 2315968)",-376.90519505377813,3.4595467077027436e-21
"(2315968, 2315969)",-377.90519505377813,3.0530392538944055e-21
"(2315969, 2315970)",-378.90519505377813,2.694297685030997e-21
"(2315970, 2315971)",-379.90519505377813,2.3777093616807007e-21
"(2315971, 2315972)",-380.90519505377813,2.0983211469296138e-21
"(2315972, 2315973)",-381.90519505377813,1.85176191279314e-21
"(2315973, 2315974)",-382.90519505377813,1.6341741523640719e-21
"(2315974, 2315975)",-383.90519505377813,1.4421536277450999e-21
"(2315975, 2315976)",-384.90519505377813,1.2726961095361884e-21
"(2315976, 2315977)",-385.90519505377813,1.1231503745971512e-21
"(2315977, 2315978)",-386.90519505377813,9.911767267187138e-22
"(2315978, 2315979)",-387.90519505377813,8.747103912432031e-22
"(2315979, 2315980)",-388.90519505377813,7.719292109306863e-22
"(2315980, 2315981)",-389.90519505377813,6.812251376609014e-22
"(2315981, 2315982)",-390.90519505377813,6.0117907394851015e-22
"(2315982, 2315983)",-391.90519505377813,5.3053867065823565e-22
"(2315983, 2340778)",-392.90519505377813,4.681987335572417e-22
"(2361167, 2361168)",-393.90519505377813,4.131839321582961e-22
"(2361168, 2361169)",-394.90519505377813,3.646335403274199e-22
"(2361169, 2361170)",-395.90519505377813,3.217879699174032e-22
"(2361170, 2361171)",-396.90519505377813,2.839768867410933e-22
"(2361171, 2361172)",-397.90519505377813,2.5060872295463126e-22
"(2361172, 2361173)",-398.90519505377813,2.211614217681431e-22
"(2361173, 2361174)",-399.90519505377813,1.951742696815916e-22
"(2361174, 2361175)",-400.90519505377813,1.722406884582151e-22
"(2361175, 2361176)",-401.90519505377813,1.520018740634131e-22
"(2361176, 2361177)",-402.90519505377813,1.3414118304801581e-22
"(2361177, 2361178)",-403.90519505377813,1.183791785489072e-22
"(2361178, 2361179)",-404.90519505377813,1.0446925839991937e-22
"(2361179, 2361180)",-405.90519505377813,9.219379695323857e-23
"(2361180, 2361181)",-406.90519505377813,8.136074024874615e-23
"(2361181, 2361182)",-407.90519505377813,7.18006012615083e-23
"(2361182, 2361183)",-408.90519505377813,6.336380821699266e-23
"(2361183, 2361184)",-409.90519505377813,5.591836448746036e-23
"(2361184, 2361185)",-410.90519505377813,4.934778345778021e-23
"(2361185, 2361186)",-411.90519505377813,4.354926605090637e-23
"(2361186, 2385989)",-412.90519505377813,3.8432092399757347e-23
"(2406378, 2406379)",-413.90519505377813,3.3916202502630826e-23
"(2406379, 2406380)",-414.90519505377813,2.993094365600361e-23
"(2406380, 2406381)",-415.90519505377813,2.6413965067857232e-23
"(2406381, 2406382)",-416.90519505377813,2.3310242357361707e-23
"(2406382, 2406383)",-417.90519505377813,2.057121667886794e-23
"(2406383, 2406384)",-418.90519505377813,1.8154035001497527e-23
"(2406384, 2406385)",-419.90519505377813,1.60208796582339e-23
"(2406385, 2406386)",-420.90519505377813,1.4138376675071967e-23
"(2406386, 2406387)",-421.90519505377813,1.2477073623325302e-23
"(2406387, 2406388)",-422.90519505377813,1.1010978825904533e-23
"(2406388, 2406389)",-423.90519505377813,9.717154708285317e-24
"(2406389, 2406390)",-424.90519505377813,8.575358931997108e-24
"(2406390, 2406391)",-425.90519505377813,7.567727696038592e-24
"(2406391, 2406392)",-426.90519505377813,6.678496251357715e-24
"(2406392, 2406393)",-427.90519505377813,5.893752255746014e-24
"(2406393, 2406394)",-428.90519505377813,5.20121811029683e-24
"(2406394, 2406395)",-429.90519505377813,4.590058872003855e-24
"(2406395, 2406396)",-430.90519505377813,4.050712737224344e-24
"(2406396, 2406397)",-431.90519505377813,3.5747414438604515e-24
"(2406397, 2406398)",-432.90519505377813,3.154698251747633e-24
"(2406398, 2406399)",-433.90519505377813,2.784011435756324e-24
"(2406399, 2406400)",-434.90519505377813,2.4568814688150487e-24
"(2406400, 2431200)",-435.90519505377813,2.1681902862467715e-24
"(2451589, 2451590)",-436.90519505377813,1.913421211826783e-24
"(2451590, 2451591)",-437.90519505377813,1.6885882927767993e-24
"(2451591, 2451592)",-438.90519505377813,1.4901739381161352e-24
"(2451592, 2451593)",-439.90519505377813,1.3150738846997777e-24
"(2451593, 2451594)",-440.90519505377813,1.1605486299174452e-24
"(2451594, 2451595)",-441.90519505377813,1.0241805712009413e-24
"(2451595, 2451596)",-442.90519505377813,9.038361817721525e-25
"(2451596, 2451597)",-443.90519505377813,7.976326308578119e-25
"(2451597, 2451598)",-444.90519505377813,7.039083261324209e-25
"(2451598, 2451599)",-445.90519505377813,6.211969175153688e-25
"(2451599, 2451600)",-446.90519505377813,5.482043556024113e-25
"(2451600, 2451601)",-447.90519505377813,4.83788645802512e-25
"(2451601, 2451602)",-448.90519505377813,4.269419814263128e-25
"(2451602, 2451603)",-449.90519505377813,3.767749761920509e-25
"(2451603, 2451604)",-450.90519505377813,3.325027494608696e-25
"(2451604, 2451605)",-451.90519505377813,2.9343264650007917e-25
"(2451605, 2451606)",-452.90519505377813,2.589534016535204e-25
"(2451606, 2451607)",-453.90519505377813,2.285255748729764e-25
"(2451607, 2451608)",-454.90519505377813,2.0167311198676572e-25
"(2451608, 2451609)",-455.90519505377813,1.7797589666291698e-25
"(2451609, 2476411)",-456.90519505377813,1.5706317753974027e-25
"(2496800, 2496801)",-457.90519505377813,1.3860776768891518e-25
"(2496801, 2496802)",-458.90519505377813,1.2232092565963278e-25
"(2496802, 2496803)",-459.90519505377813,1.079478380159065e-25
"(2496803, 2496804)",-460.90519505377813,9.526363268974112e-26
"(2496804, 2496805)",-461.90519505377813,8.406986077765315e-26
"(2496805, 2496806)",-462.90519505377813,7.419139173699708e-26
"(2496806, 2496807)",-463.90519505377813,6.547367340634026e-26
"(2496807, 2496808)",-464.90519505377813,5.778031398193068e-26
"(2496808, 2496809)",-465.90519505377813,5.0990948119419214e-26
"(2496809, 2496810)",-466.90519505377813,4.499935377523925e-26
"(2496810, 2496811)",-467.90519505377813,3.9711790324957065e-26
"(2496811, 2496812)",-468.90519505377813,3.504553195786351e-26
"(2496812, 2496813)",-469.90519505377813,3.0927573402244e-26
"(2496813, 2496814)",-470.90519505377813,2.7293487731938046e-26
"(2496814, 2521622)",-471.90519505377813,2.408641838416598e-26
"(2542011, 2542012)",-472.90519505377813,2.1256189618383134e-26
"(2542012, 2542013)",-473.90519505377813,1.875852149897395e-26
"(2542013, 2542014)",-474.90519505377813,1.655433711991105e-26
"(2542014, 2542015)",-475.90519505377813,1.4609151232662694e-26
"(2542015, 2542016)",-476.90519505377813,1.2892530712214753e-26
"(2542016, 2542017)",-477.90519505377813,1.1377618420006285e-26
"(2542017, 2542018)",-478.90519505377813,1.0040713014444985e-26
"(2542018, 2542019)",-479.90519505377813,8.860898134988535e-27
"(2542019, 2542020)",-480.90519505377813,7.819715158245e-27
"(2542020, 2542021)",-481.90519505377813,6.900874406245023e-27
"(2542021, 2542022)",-482.90519505377813,6.090000288636541e-27
"(2542022, 2542023)",-483.90519505377813,5.3744063914610396e-27
"(2542023, 2542024)",-484.90519505377813,4.7428969936952205e-27
"(2542024, 2542025)",-485.90519505377813,4.185591906213821e-27
"(2542025, 2542026)",-486.90519505377813,3.693771892716849e-27
"(2542026, 2542027)",-487.90519505377813,3.2597422541766576e-27
"(2542027, 2542028)",-488.90519505377813,2.8767124425350273e-27
"(2542028, 2542029)",-489.90519505377813,2.5386898201637274e-27
"(2542029, 2542030)",-490.90519505377813,2.240385902917533e-27
"(2542030, 2542031)",-491.90519505377813,1.977133619918915e-27
"(2542031, 2542032)",-492.90519505377813,1.744814295574311e-27
"(2542032, 2542033)",-493.90519505377813,1.5397932114296525e-27
"(2542033, 2542034)",-494.90519505377813,1.3588627397074552e-27
"(2542034, 2542035)",-495.90519505377813,1.1991921588294467e-27
"(2542035, 2542036)",-496.90519505377813,1.0582833657707208e-27
"(2542036, 2542037)",-497.90519505377813,9.339317923494615e-28
"(2542037, 2542038)",-498.90519505377813,8.241919139736794e-28
"(2542038, 2542039)",-499.90519505377813,7.273468112170413e-28
"(2542039, 2566833)",-500.90519505377813,6.418813080038214e-28
"(2587222, 2587223)",-501.90519505377813,5.66458266140321e-28
"(2587223, 2587224)",-502.90519505377813,4.998976653122738e-28
"(2587224, 2587225)",-503.90519505377813,4.411581412473524e-28
"(2587225, 2587226)",-504.90519505377813,3.893206932007659e-28
"(2587226, 2587227)",-505.90519505377813,3.435743058617634e-28
"(2587227, 2587228)",-506.90519505377813,3.0320326073065863e-28
"(2587228, 2587229)",-507.90519505377813,2.675759384483557e-28
"(2587229, 2587230)",-508.90519505377813,2.3613493688684028e-28
"(2587230, 2587231)",-509.90519505377813,2.0838835039464547e-28
"(2587231, 2587232)",-510.90519505377813,1.8390207375798798e-28
"(2587232, 2587233)",-511.90519505377813,1.622930104703082e-28
"(2587233, 2587234)",-512.9051950537781,1.432230790511763e-28
"(2587234, 2587235)",-513.9051950537781,1.2639392364129172e-28
"(2587235, 2587236)",-514.9051950537781,1.1154224611895382e-28
"(2587236, 2587237)",-515.9051950537781,9.843568670730536e-29
"(2587237, 2587238)",-516.9051950537781,8.68691886229846e-29
"(2587238, 2587239)",-517.9051950537781,7.666178988982089e-29
"(2587239, 2587240)",-518.9051950537781,6.765379212435799e-29
"(2587240, 2587241)",-519.9051950537781,5.970426199784802e-29
"(2587241, 2587242)",-520.9051950537781,5.268882628420005e-29
"(2587242, 2587243)",-521.9051950537781,4.6497725996624355e-29
"(2587243, 2612044)",-522.9051950537781,4.103409916924821e-29
"(2632433, 2632434)",-523.9051950537781,3.6212465417210666e-29
"(2632434, 2632435)",-524.9051950537781,3.195738856564019e-29
"(2632435, 2632436)",-525.9051950537781,2.8202296423869837e-29
"(2632436, 2632437)",-526.9051950537781,2.4888439239837742e-29
"(2632437, 2632438)",-527.9051950537781,2.1963970539321707e-29
"(2632438, 2632439)",-528.9051950537781,1.9383135969410714e-29
"(2632439, 2632440)",-529.9051950537781,1.7105557455381012e-29
"(2632440, 2632441)",-530.9051950537781,1.5095601471356577e-29
"(2632441, 2632442)",-531.9051950537781,1.332182154112364e-29
"(2632442, 2632443)",-532.9051950537781,1.1756466246826354e-29
"(2632443, 2632444)",-533.9051950537781,1.0375045048164602e-29
"(2632444, 2632445)",-534.9051950537781,9.155945119180905e-30
"(2632445, 2632446)",-535.9051950537781,8.080093207911692e-30
"(2632446, 2632447)",-536.9051950537781,7.130657228576897e-30
"(2632447, 2632448)",-537.9051950537781,6.292782917611567e-30
"(2632448, 2632449)",-538.9051950537781,5.55336143342946e-30
"(2632449, 2632450)",-539.9051950537781,4.900824263934247e-30
"(2632450, 2632451)",-540.9051950537781,4.324962233033403e-30
"(2632451, 2632452)",-541.9051950537781,3.816765774447333e-30
"(2632452, 2632453)",-542.9051950537781,3.368283973840666e-30
"(2632453, 2632454)",-543.9051950537781,2.97250017393972e-30
"(2632454, 2632455)",-544.9051950537781,2.6232221964339742e-30
"(2632455, 2632456)",-545.9051950537781,2.3149854631441416e-30
"(2632456, 2632457)",-546.9051950537781,2.0429675007530696e-30
"(2632457, 2632458)",-547.9051950537781,1.802912491495576e-30
"(2632458, 2657255)",-548.9051950537781,1.5910646893759217e-30
"(2677644, 2677645)",-549.9051950537781,1.4041096601859722e-30
"(2677645, 2677646)",-550.9051950537781,1.2391224260032293e-30
"(2677646, 2677647)",-551.9051950537781,1.0935217028709594e-30
"(2677647, 2677648)",-552.9051950537781,9.65029515692654e-31
"(2677648, 2677649)",-553.9051950537781,8.516355585014792e-31
"(2677649, 2677650)",-554.9051950537781,7.515657425084575e-31
"(2677650, 2677651)",-555.9051950537781,6.632544398524053e-31
"(2677651, 2677652)",-556.9051950537781,5.853199887952286e-31
"(2677652, 2677653)",-557.9051950537781,5.165430771326392e-31
"(2677653, 2677654)",-558.9051950537781,4.558476656210699e-31
"(2677654, 2677655)",-559.9051950537781,4.022841529610126e-31
"(2677655, 2677656)",-560.9051950537781,3.5501451894696114e-31
"(2677656, 2677657)",-561.9051950537781,3.1329921334325335e-31
"(2677657, 2677658)",-562.9051950537781,2.764855853576114e-31
"(2677658, 2677659)",-563.9051950537781,2.439976726873809e-31
"(2677659, 2677660)",-564.9051950537781,2.1532719038446356e-31
"(2677660, 2677661)",-565.9051950537781,1.9002557855653256e-31
"(2677661, 2677662)",-566.9051950537781,1.6769698448798569e-31
"(2677662, 2677663)",-567.9051950537781,1.4799206938342432e-31
"(2677663, 2702466)",-568.9051950537781,1.306025428379565e-31
"(2722855, 2722856)",-569.9051950537781,1.1525633952416852e-31
"(2722856, 2722857)",-570.9051950537781,1.0171336263331722e-31
"(2722857, 2722858)",-571.9051950537781,8.976172747536617e-32
"(2722858, 2722859)",-572.9051950537781,7.921444646765322e-32
"(2722859, 2722860)",-573.9051950537781,6.990650364765722e-32
"(2722860, 2722861)",-574.9051950537781,6.169227293957621e-32
"(2722861, 2722862)",-575.9051950537781,5.444323978257946e-32
"(2722862, 2722863)",-576.9051950537781,4.8045990474796794e-32
"(2722863, 2722864)",-577.9051950537781,4.240043777561714e-32
"(2722864, 2722865)",-578.9051950537781,3.7418255005213e-32
"(2722865, 2722866)",-579.9051950537781,3.3021494142221003e-32
"(2722866, 2722867)",-580.9051950537781,2.9141366299225397e-32
"(2722867, 2747677)",-581.9051950537781,2.5717165496149527e-32
"(2768066, 2768067)",-582.9051950537781,2.2695318893607387e-32
"(2768067, 2768068)",-583.9051950537781,2.0028548626778165e-32
"(2768068, 2768069)",-584.9051950537781,1.7675132126396686e-32
"(2768069, 2768070)",-585.9051950537781,1.5598249354318547e-32
"(2768070, 2768071)",-586.9051950537781,1.3765406740928285e-32
"(2768071, 2768072)",-587.9051950537781,1.2147928811686321e-32
"(2768072, 2768073)",-588.9051950537781,1.0720509549131342e-32
"(2768073, 2768074)",-589.9051950537781,9.460816471236987e-33
"(2768074, 2768075)",-590.9051950537781,8.349141231787962e-33
"(2768075, 2768076)",-591.9051950537781,7.36809127629421e-33
"(2768076, 2768077)",-592.9051950537781,6.502317729290219e-33
"(2768077, 2768078)",-593.9051950537781,5.738275255719518e-33
"(2768078, 2768079)",-594.9051950537781,5.064010139350302e-33
"(2768079, 2768080)",-595.9051950537781,4.468973262633627e-33
"(2768080, 2768081)",-596.9051950537781,3.9438550620075486e-33
"(2768081, 2768082)",-597.9051950537781,3.48043987646424e-33
"(2768082, 2768083)",-598.9051950537781,3.0714774106116035e-33
"(2768083, 2768084)",-599.9051950537781,2.7105693012232933e-33
"(2768084, 2768085)",-600.9051950537781,2.3920690125704474e-33
"(2768085, 2768086)",-601.9051950537781,2.1109934943620115e-33
"(2768086, 2768087)",-602.9051950537781,1.862945220150707e-33
"(2768087, 2768088)",-603.9051950537781,1.644043386467776e-33
"(2768088, 2792888)",-604.9051950537781,1.450863196272501e-33
"(2813277, 2813278)",-605.9051950537781,1.2803822767844681e-33
"(2813278, 2813279)",-606.9051950537781,1.1299333933865053e-33
"(2813279, 2813280)",-607.9051950537781,9.97162719790492e-34
"(2813280, 2813281)",-608.9051950537781,8.7999301158794e-34
"(2813281, 2813282)",-609.9051950537781,7.765911070224472e-34
"(2813282, 2813283)",-610.9051950537781,6.853392465220516e-34
"(2813283, 2813284)",-611.9051950537781,6.04809762275371e-34
"(2813284, 2813285)",-612.9051950537781,5.337427418609403e-34
"(2813285, 2813286)",-613.9051950537781,4.710263164692891e-34
"(2813286, 2813287)",-614.9051950537781,4.15679265319979e-34
"(2813287, 2813288)",-615.9051950537781,3.6683566411352175e-34
"(2813288, 2813289)",-616.9051950537781,3.23731337337746e-34
"(2813289, 2813290)",-617.9051950537781,2.856919024701296e-34
"(2813290, 2813291)",-618.9051950537781,2.521222190233897e-34
"(2813291, 2813292)",-619.9051950537781,2.2249707736089633e-34
"(2813292, 2813293)",-620.9051950537781,1.9635298160511612e-34
"(2813293, 2813294)",-621.9051950537781,1.7328089807976503e-34
"(2813294, 2813295)",-622.9051950537781,1.529198558324696e-34
"(2813295, 2813296)",-623.9051950537781,1.3495129911583729e-34
"(2813296, 2838099)",-624.9051950537781,1.1909410346949367e-34
"(2858488, 2858489)",-625.9051950537781,1.0510017742791749e-34
"(2858489, 2858490)",-626.9051950537781,9.275058104122859e-35
"(2858490, 2858491)",-627.9051950537781,8.185210048180572e-35
"(2858491, 2858492)",-628.9051950537781,7.223422514523663e-35
"(2858492, 2858493)",-629.9051950537781,6.374647995126961e-35
"(2858493, 2858494)",-630.9051950537781,5.625607110766644e-35
"(2858494, 2858495)",-631.9051950537781,4.964580850409438e-35
"(2858495, 2858496)",-632.9051950537781,4.381227223117126e-35
"(2858496, 2858497)",-633.9051950537781,3.866419453920172e-35
"(2858497, 2858498)",-634.9051950537781,3.4121031921773747e-35
"(2858498, 2858499)",-635.9051950537781,3.0111704983955434e-35
"(2858499, 2858500)",-636.9051950537781,2.65734863798818e-35
"(2858500, 2858501)",-637.9051950537781,2.3451019421119618e-35
"(2858501, 2858502)",-638.9051950537781,2.0695452001589253e-35
"(2858502, 2858503)",-639.9051950537781,1.8263672288990682e-35
"(2858503, 2858504)",-640.9051950537781,1.6117634224854382e-35
"(2858504, 2858505)",-641.9051950537781,1.422376228042546e-35
"(2858505, 2858506)",-642.9051950537781,1.255242615557507e-35
"(2858506, 2858507)",-643.9051950537781,1.1077477202216859e-35
"(2858507, 2858508)",-644.9051950537781,9.775839319407849e-36
"(2858508, 2858509)",-645.9051950537781,8.627147919542125e-36
"(2858509, 2858510)",-646.9051950537781,7.613431317135062e-36
"(2858510, 2858511)",-647.9051950537781,6.718829555412248e-36
"(2858511, 2883310)",-648.9051950537781,5.929346271645144e-36
"(2903699, 2903700)",-649.9051950537781,5.232629719078358e-36
"(2903700, 2903701)",-650.9051950537781,4.617779519458753e-36
"(2903701, 2903702)",-651.9051950537781,4.075176122740931e-36
"(2903702, 2903703)",-652.9051950537781,3.5963303058055724e-36
"(2903703, 2903704)",-653.9051950537781,3.173750355544528e-36
"(2903704, 2903705)",-654.9051950537781,2.8008248583448047e-36
"(2903705, 2903706)",-655.9051950537781,2.4717192621712284e-36
"(2903706, 2903707)",-656.9051950537781,2.1812845929247905e-36
"(2903707, 2903708)",-657.9051950537781,1.9249768969116276e-36
"(2903708, 2903709)",-658.9051950537781,1.6987861490714175e-36
"(2903709, 2903710)",-659.9051950537781,1.4991735147091388e-36
"(2903710, 2903711)",-660.9051950537781,1.3230159831676761e-36
"(2903711, 2903712)",-661.9051950537781,1.1675575072153874e-36
"(2903712, 2903713)",-662.9051950537781,1.0303658837069707e-36
"(2903713, 2903714)",-663.9051950537781,9.092947009002412e-37
"(2903714, 2928521)",-664.9051950537781,8.024497570810489e-37
"(2948910, 2948911)",-665.9051950537781,7.0815942510378674e-37
"(2948911, 2948912)",-666.9051950537781,6.2494849919017955e-37
"(2948912, 2948913)",-667.9051950537781,5.51515114810225e-37
"(2948913, 2948914)",-668.9051950537781,4.867103805486111e-37
"(2948914, 2948915)",-669.9051950537781,4.295204032899189e-37
"(2948915, 2948916)",-670.9051950537781,3.790504255002397e-37
"(2948916, 2948917)",-671.9051950537781,3.3451082642733453e-37
"(2948917, 2948918)",-672.9051950537781,2.9520476820313593e-37
"(2948918, 2948919)",-673.9051950537781,2.6051729356747093e-37
"(2948919, 2948920)",-674.9051950537781,2.2990570464301483e-37
"(2948920, 2948921)",-675.9051950537781,2.0289107223398942e-37
"(2948921, 2948922)",-676.9051950537781,1.7905074280856308e-37
"(2948922, 2948923)",-677.9051950537781,1.5801172593402793e-37
"(2948923, 2948924)",-678.9051950537781,1.3944485870882563e-37
"(2948924, 2948925)",-679.9051950537781,1.2305965589188515e-37
"(2948925, 2948926)",-680.9051950537781,1.0859976515771481e-37
"(2948926, 2948927)",-681.9051950537781,9.58389563730978e-38
"(2948927, 2948928)",-682.9051950537781,8.457758214619897e-38
"(2948928, 2948929)",-683.9051950537781,7.463945427211477e-38
"(2948929, 2948930)",-684.9051950537781,6.586908720574582e-38
"(2948930, 2948931)",-685.9051950537781,5.81292654351453e-38
"(2948931, 2973732)",-686.9051950537781,5.129889669603351e-38
"(2994121, 2994122)",-687.9051950537781,4.5271117440256707e-38
"(2994122, 2994123)",-688.9051950537781,3.9951620917569997e-38
"(2994123, 2994124)",-689.9051950537781,3.5257181712989457e-38
"(2994124, 2994125)",-690.9051950537781,3.111435365557543e-38
"(2994125, 2994126)",-691.9051950537781,2.7458320726967003e-38
"(2994126, 2994127)",-692.9051950537781,2.4231882991722776e-38
"(2994127, 2994128)",-693.9051950537781,2.1384561683987689e-38
"(2994128, 2994129)",-694.9051950537781,1.8871809449248354e-38
"(2994129, 2994130)",-695.9051950537781,1.6654313385128374e-38
"(2994130, 2994131)",-696.9051950537781,1.4697379977048955e-38
"(2994131, 2994132)",-697.9051950537781,1.2970392305854555e-38
"(2994132, 2994133)",-698.9051950537781,1.1446331035223715e-38
"(2994133, 2994134)",-699.9051950537781,1.0101351684542852e-38
"(2994134, 2994135)",-700.9051950537781,8.914411573526753e-39
"(2994135, 3018943)",-701.9051950537781,7.866940602001628e-39
"(3039332, 3039333)",-702.9051950537781,6.94255071408343e-39
"(3039333, 3039334)",-703.9051950537781,6.126779501215098e-39
"(3039334, 3039335)",-704.9051950537781,5.406863932641116e-39
"(3039335, 3039336)",-705.9051950537781,4.771540673252149e-39
"(3039336, 3039337)",-706.9051950537781,4.210869864701437e-39
"(3039337, 3039338)",-707.9051950537781,3.7160796127858324e-39
"(3039338, 3039339)",-708.9051950537781,3.2794287480412597e-39
"(3039339, 3039340)",-709.9051950537781,2.8940857123932892e-39
"(3039340, 3039341)",-710.9051950537781,2.5540216770014098e-39
"(3039341, 3039342)",-711.9051950537781,2.2539162190876582e-39
"(3039342, 3039343)",-712.9051950537781,1.9890740820300406e-39
"(3039343, 3039344)",-713.9051950537781,1.7553517164028083e-39
"(3039344, 3039345)",-714.9051950537781,1.5490924526720313e-39
"(3039345, 3039346)",-715.9051950537781,1.3670692913002417e-39
"(3039346, 3064154)",-716.9051950537781,1.2064344151909813e-39
"(3084543, 3084544)",-717.9051950537781,1.0646746345774989e-39
"(3084544, 3084545)",-718.9051950537781,9.395720672750286e-40
"(3084545, 3084546)",-719.9051950537781,8.291694391252179e-40
"(3084546, 3084547)",-720.9051950537781,7.317394617458111e-40
"(3084547, 3084548)",-721.9051950537781,6.457578084895972e-40
"(3084548, 3084549)",-722.9051950537781,5.698792658118859e-40
"(3084549, 3084550)",-723.9051950537781,5.029166869261726e-40
"(3084550, 3084551)",-724.9051950537781,4.43822418470454e-40
"(3084551, 3084552)",-725.9051950537781,3.9167190959777975e-40
"(3084552, 3084553)",-726.9051950537781,3.4564924704943434e-40
"(3084553, 3084554)",-727.9051950537781,3.0503438990182342e-40
"(3084554, 3084555)",-728.9051950537781,2.6919190427014096e-40
"(3084555, 3084556)",-729.9051950537781,2.375610217192483e-40
"(3084556, 3084557)",-730.9051950537781,2.096468658420684e-40
"(3084557, 3084558)",-731.9051950537781,1.850127097421936e-40
"(3084558, 3084559)",-732.9051950537781,1.6327314328626864e-40
"(3084559, 3084560)",-733.9051950537781,1.440880432253829e-40
"(3084560, 3084561)",-734.9051950537781,1.2715725184587571e-40
"(3084561, 3084562)",-735.9051950537781,1.1221588089515465e-40
"(3084562, 3084563)",-736.9051950537781,9.903016731077583e-41
"(3084563, 3084564)",-737.9051950537781,8.739381591419394e-41
"(3084564, 3084565)",-738.9051950537781,7.712477184932447e-41
"(3084565, 3109365)",-739.9051950537781,6.806237226957245e-41
"(3129754, 3129755)",-740.9051950537781,6.006483271045734e-41
"(3129755, 3129756)",-741.9051950537781,5.300702882124049e-41
"(3129756, 3129757)",-742.9051950537781,4.677853874995711e-41
"(3129757, 3129758)",-743.9051950537781,4.128191555427062e-41
"(3129758, 3129759)",-744.9051950537781,3.643116260940265e-41
"(3129759, 3129760)",-745.9051950537781,3.215038816035357e-41
"(3129760, 3129761)",-746.9051950537781,2.8372617968404473e-41
"(3129761, 3129762)",-747.9051950537781,2.503874747533298e-41
"(3129762, 3129763)",-748.9051950537781,2.2096617091579217e-41
"(3129763, 3129764)",-749.9051950537781,1.9500196140916487e-41
"(3129764, 3129765)",-750.9051950537781,1.7208862694150883e-41
"(3129765, 3129766)",-751.9051950537781,1.518676802459175e-41
"(3129766, 3129767)",-752.9051950537781,1.3402275741972993e-41
"(3129767, 3129768)",-753.9051950537781,1.1827466829875826e-41
"(3129768, 3129769)",-754.9051950537781,1.043770284278746e-41
"(3129769, 3129770)",-755.9051950537781,9.21124042885836e-42
"(3129770, 3129771)",-756.9051950537781,8.128891147429503e-42
"(3129771, 3129772)",-757.9051950537781,7.173721259053873e-42
"(3129772, 3129773)",-758.9051950537781,6.330786791120308e-42
"(3129773, 3129774)",-759.9051950537781,5.586899734087142e-42
"(3129774, 3129775)",-760.9051950537781,4.930421710382602e-42
"(3129775, 3129776)",-761.9051950537781,4.3510818878484894e-42
"(3129776, 3154576)",-762.9051950537781,3.839816288918226e-42
"(3174965, 3174966)",-763.9051950537781,3.38862598146421e-42
"(3174966, 3174967)",-764.9051950537781,2.9904519326598503e-42
"(3174967, 3174968)",-765.9051950537781,2.6390645679004348e-42
"(3174968, 3174969)",-766.9051950537781,2.3289663068928873e-42
"(3174969, 3174970)",-767.9051950537781,2.0553055520568575e-42
"(3174970, 3174971)",-768.9051950537781,1.8138007835550985e-42
"(3174971, 3174972)",-769.9051950537781,1.6006735733928866e-42
"(3174972, 3174973)",-770.9051950537781,1.4125894705682386e-42
"(3174973, 3174974)",-771.9051950537781,1.2466058324000838e-42
"(3174974, 3174975)",-772.9051950537781,1.1001257858369653e-42
"(3174975, 3174976)",-773.9051950537781,9.708575984545659e-43
"(3174976, 3174977)",-774.9051950537781,8.567788234868731e-43
"(3174977, 3174978)",-775.9051950537781,7.561046579272394e-43
"(3174978, 3174979)",-776.9051950537781,6.672600186505738e-43
"(3174979, 3174980)",-777.9051950537781,5.888548996776708e-43
"(3174980, 3174981)",-778.9051950537781,5.196626250373072e-43
"(3174981, 3174982)",-779.9051950537781,4.5860065698440356e-43
"(3174982, 3174983)",-780.9051950537781,4.047136593119966e-43
"(3174983, 3174984)",-781.9051950537781,3.5715855077651424e-43
"(3174984, 3174985)",-782.9051950537781,3.1519131479187673e-43
"(3174985, 3174986)",-783.9051950537781,2.781553590253974e-43
"(3174986, 3174987)",-784.9051950537781,2.4547124277721926e-43
"(3174987, 3174988)",-785.9051950537781,2.1662761142448725e-43
"(3174988, 3174989)",-786.9051950537781,1.911731960964093e-43
"(3174989, 3174990)",-787.9051950537781,1.6870975341227868e-43
"(3174990, 3174991)",-788.9051950537781,1.4888583482214682e-43
"(3174991, 3199787)",-789.9051950537781,1.3139128806926628e-43
"(3220176, 3220177)",-790.9051950537781,1.1595240474772778e-43
"(3220177, 3220178)",-791.9051950537781,1.023276380371051e-43
"(3220178, 3220179)",-792.9051950537781,9.030382361654287e-44
"(3220179, 3220180)",-793.9051950537781,7.969284463314472e-44
"(3220180, 3220181)",-794.9051950537781,7.032868854690562e-44
"(3220181, 3220182)",-795.9051950537781,6.206484980548091e-44
"(3220182, 3220183)",-796.9051950537781,5.477203771271504e-44
"(3220183, 3220184)",-797.9051950537781,4.833615362971766e-44
"(3220184, 3220185)",-798.9051950537781,4.265650586107899e-44
"(3220185, 3220186)",-799.9051950537781,3.764423429748385e-44
"(3220186, 3220187)",-800.9051950537781,3.322092016769829e-44
"(3220187, 3220188)",-801.9051950537781,2.9317359149003856e-44
"(3220188, 3220189)",-802.9051950537781,2.587247864095605e-44
"(3220189, 3220190)",-803.9051950537781,2.283238226282982e-44
"(3220190, 3220191)",-804.9051950537781,2.0149506625574773e-44
"(3220191, 3220192)",-805.9051950537781,1.778187718567752e-44
"(3220192, 3220193)",-806.9051950537781,1.5692451538500091e-44
"(3220193, 3220194)",-807.9051950537781,1.3848539876685201e-44
"(3220194, 3220195)",-808.9051950537781,1.2221293546493943e-44
"(3220195, 3244998)",-809.9051950537781,1.0785253700358012e-44
"(3265387, 3265388)",-810.9051950537781,9.51795298415499e-45
"(3265388, 3265389)",-811.9051950537781,8.399564027462586e-45
"(3265389, 3265390)",-812.9051950537781,7.412589237296721e-45
"(3265390, 3265391)",-813.9051950537781,6.541587042046265e-45
"(3265391, 3265392)",-814.9051950537781,5.772930302593354e-45
"(3265392, 3265393)",-815.9051950537781,5.0945931108753866e-45
"(3265393, 3265394)",-816.9051950537781,4.495962640276347e-45
"(3265394, 3265395)",-817.9051950537781,3.967673104179936e-45
"(3265395, 3265396)",-818.9051950537781,3.5014592249069997e-45
"(3265396, 3290209)",-819.9051950537781,3.090026920506686e-45
"(3310598, 3310599)",-820.9051950537781,2.726939186250166e-45
"(3310599, 3310600)",-821.9051950537781,2.4065153854023285e-45
"(3310600, 3310601)",-822.9051950537781,2.1237423736397287e-45
"(3310601, 3310602)",-823.9051950537781,1.874196066624717e-45
"(3310602, 3310603)",-824.9051950537781,1.6539722236325446e-45
"(3310603, 3310604)",-825.9051950537781,1.4596253643166766e-45
"(3310604, 3310605)",-826.9051950537781,1.2881148629433787e-45
"(3310605, 3310606)",-827.9051950537781,1.1367573767207124e-45
"(3310606, 3310607)",-828.9051950537781,1.0031848639462187e-45
"(3310607, 3310608)",-829.9051950537781,8.853075351522868e-46
"(3310608, 3310609)",-830.9051950537781,7.812811576066958e-46
"(3310609, 3310610)",-831.9051950537781,6.894782016356162e-46
"(3310610, 3310611)",-832.9051950537781,6.0846237734302836e-46
"(3310611, 3310612)",-833.9051950537781,5.369661633444819e-46
"(3310612, 3310613)",-834.9051950537781,4.738709759442392e-46
"(3310613, 3310614)",-835.9051950537781,4.181896684955303e-46
"(3310614, 3310615)",-836.9051950537781,3.690510871401843e-46
"(3310615, 3310616)",-837.9051950537781,3.256864412966903e-46
"(3310616, 3310617)",-838.9051950537781,2.8741727565812882e-46
"(3310617, 3335420)",-839.9051950537781,2.5364485551760156e-46
"(3355809, 3355810)",-840.9051950537781,2.2384079935080055e-46
"(3355810, 3355811)",-841.9051950537781,1.9753881209914143e-46
"(3355811, 3355812)",-842.9051950537781,1.7432738981773272e-46
"(3355812, 3355813)",-843.9051950537781,1.5384338154980644e-46
"(3355813, 3355814)",-844.9051950537781,1.3576630770084426e-46
"(3355814, 3355815)",-845.9051950537781,1.1981334602134216e-46
"(3355815, 3355816)",-846.9051950537781,1.0573490675213082e-46
"(3355816, 3355817)",-847.9051950537781,9.331072770382647e-47
"(3355817, 3355818)",-848.9051950537781,8.234642817654147e-47
"(3355818, 3355819)",-849.9051950537781,7.267046780470269e-47
"(3355819, 3355820)",-850.9051950537781,6.413146274702369e-47
"(3355820, 3355821)",-851.9051950537781,5.659581723246777e-47
"(3355821, 3355822)",-852.9051950537781,4.994563340689667e-47
"(3355822, 3355823)",-853.9051950537781,4.407686677921202e-47
"(3355823, 3355824)",-854.9051950537781,3.889769840828845e-47
"(3355824, 3355825)",-855.9051950537781,3.4327098362984304e-47
"(3355825, 3355826)",-856.9051950537781,3.0293557980050384e-47
"(3355826, 3355827)",-857.9051950537781,2.6733971085661317e-47
"(3355827, 3355828)",-858.9051950537781,2.359264667688224e-47
"(3355828, 3355829)",-859.9051950537781,2.082043761612133e-47
"(3355829, 3355830)",-860.9051950537781,1.8373971706682872e-47
"(3355830, 3355831)",-861.9051950537781,1.6214973119324626e-47
"(3355831, 3355832)",-862.9051950537781,1.4309663553296458e-47
"(3355832, 3355833)",-863.9051950537781,1.2628233762811798e-47
"(3355833, 3355834)",-864.9051950537781,1.1144377180795623e-47
"(3355834, 3355835)",-865.9051950537781,9.834878343286582e-48
"(3355835, 3355836)",-866.9051950537781,8.679249675246727e-48
"(3355836, 3355837)",-867.9051950537781,7.65941095516359e-48
"(3355837, 3355838)",-868.9051950537781,6.759406443554386e-48
"(3355838, 3355839)",-869.9051950537781,5.965155249747102e-48
"(3355839, 3355840)",-870.9051950537781,5.264231031338057e-48
"(3355840, 3355841)",-871.9051950537781,4.645667579645545e-48
"(3355841, 3355842)",-872.9051950537781,4.0997872494748676e-48
"(3355842, 3355843)",-873.9051950537781,3.618049548917389e-48
"(3355843, 3355844)",-874.9051950537781,3.192917520317188e-48
"(3355844, 3355845)",-875.9051950537781,2.817739821888005e-48
"(3355845, 3380631)",-876.9051950537781,2.486646665105434e-48
"(3401020, 3401021)",-877.9051950537781,2.1944579797778593e-48
"(3401021, 3401022)",-878.9051950537781,1.9366023700060097e-48
"(3401022, 3401023)",-879.9051950537781,1.70904559306829e-48
"(3401023, 3401024)",-880.9051950537781,1.508227442258619e-48
"(3401024, 3401025)",-881.9051950537781,1.3310060461863179e-48
"(3401025, 3401026)",-882.9051950537781,1.1746087130807943e-48
"(3401026, 3401027)",-883.9051950537781,1.0365885510426789e-48
"(3401027, 3401028)",-884.9051950537781,9.147861855498177e-49
"(3401028, 3401029)",-885.9051950537781,8.072959752748911e-49
"(3401029, 3401030)",-886.9051950537781,7.124361976491016e-49
"(3401030, 3401031)",-887.9051950537781,6.287227377144788e-49
"(3401031, 3401032)",-888.9051950537781,5.548458686175345e-49
"(3401032, 3401033)",-889.9051950537781,4.896497604668336e-49
"(3401033, 3401034)",-890.9051950537781,4.321143969632697e-49
"(3401034, 3425842)",-891.9051950537781,3.813396168822958e-49
"(3446231, 3446232)",-892.9051950537781,3.3653103073142235e-49
"(3446232, 3446233)",-893.9051950537781,2.9698759224408147e-49
"(3446233, 3446234)",-894.9051950537781,2.6209063026145875e-49
"(3446234, 3446235)",-895.9051950537781,2.3129416940218175e-49
"(3446235, 3446236)",-896.9051950537781,2.041163880833021e-49
"(3446236, 3446237)",-897.9051950537781,1.801320802502693e-49
"(3446237, 3446238)",-898.9051950537781,1.5896600287698244e-49
"(3446238, 3446239)",-899.9051950537781,1.4028700515519088e-49
"(3446239, 3446240)",-900.9051950537781,1.2380284752232514e-49
"(3446240, 3446241)",-901.9051950537781,1.0925562946960487e-49
"(3446241, 3446242)",-902.9051950537781,9.641775459685656e-50
"(3446242, 3446243)",-903.9051950537781,8.508836978588755e-50
"(3446243, 3446244)",-904.9051950537781,7.509022278201842e-50
"(3446244, 3446245)",-905.9051950537781,6.626688901951847e-50
"(3446245, 3446246)",-906.9051950537781,5.848032430364219e-50
"(3446246, 3446247)",-907.9051950537781,5.160870506010687e-50
"(3446247, 3446248)",-908.9051950537781,4.5544522361946245e-50
"(3446248, 3446249)",-909.9051950537781,4.019289991411241e-50
"(3446249, 3446250)",-910.9051950537781,3.547010968009685e-50
"(3446250, 3471053)",-911.9051950537781,3.1302261927021347e-50
"(3491442, 3491443)",-912.9051950537781,2.7624149194488044e-50
"(3491443, 3491444)",-913.9051950537781,2.4378226100670445e-50
"(3491444, 3491445)",-914.9051950537781,2.151370902434861e-50
"(3491445, 3491446)",-915.9051950537781,1.8985781577093903e-50
"(3491446, 3491447)",-916.9051950537781,1.6754893434933044e-50
"(3491447, 3491448)",-917.9051950537781,1.4786141559463385e-50
"(3491448, 3491449)",-918.9051950537781,1.3048724127403797e-50
"(3491449, 3491450)",-919.9051950537781,1.1515458625114725e-50
"(3491450, 3491451)",-920.9051950537781,1.016235656850481e-50
"(3491451, 3491452)",-921.9051950537781,8.968248194665713e-51
"(3491452, 3491453)",-922.9051950537781,7.914451253402382e-51
"(3491453, 3491454)",-923.9051950537781,6.98447871678437e-51
"(3491454, 3491455)",-924.9051950537781,6.163780833730235e-51
"(3491455, 3491456)",-925.9051950537781,5.439517493977228e-51
"(3491456, 3491457)",-926.9051950537781,4.8003573399896247e-51
"(3491457, 3491458)",-927.9051950537781,4.236300483840071e-51
"(3491458, 3491459)",-928.9051950537781,3.738522055406486e-51
"(3491459, 3491460)",-929.9051950537781,3.2992341341404187e-51
"(3491460, 3516264)",-930.9051950537781,2.911563904280289e-51
"(3536653, 3536654)",-931.9051950537781,2.5694461272044668e-51
"(3536654, 3536655)",-932.9051950537781,2.267528248615926e-51
"(3536655, 3536656)",-933.9051950537781,2.0010866559266273e-51
"(3536656, 3536657)",-934.9051950537781,1.7659527756586146e-51
"(3536657, 3536658)",-935.9051950537781,1.5584478546293962e-51
"(3536658, 3536659)",-936.9051950537781,1.37532540455005e-51
"(3536659, 3536660)",-937.9051950537781,1.2137204095613246e-51
"(3536660, 3536661)",-938.9051950537781,1.0711045020415755e-51
"(3536661, 3536662)",-939.9051950537781,9.452464053961059e-52
"(3536662, 3536663)",-940.9051950537781,8.341770249412862e-52
"(3536663, 3536664)",-941.9051950537781,7.361586407179179e-52
"(3536664, 3536665)",-942.9051950537781,6.496577202444486e-52
"(3536665, 3536666)",-943.9051950537781,5.733209258558955e-52
"(3536666, 3536667)",-944.9051950537781,5.0595394125476024e-52
"(3536667, 3536668)",-945.9051950537781,4.4650278600779425e-52
"(3536668, 3536669)",-946.9051950537781,3.940373256472708e-52
"(3536669, 3536670)",-947.9051950537781,3.4773671938643405e-52
"(3536670, 3536671)",-948.9051950537781,3.068765777734567e-52
"(3536671, 3536672)",-949.9051950537781,2.7081762936083623e-52
"(3536672, 3561475)",-950.9051950537781,2.3899571907624096e-52
"(3581864, 3581865)",-951.9051950537781,2.1091298181576073e-52
"(3581865, 3581866)",-952.9051950537781,1.8613005316728995e-52
"(3581866, 3581867)",-953.9051950537781,1.6425919539803945e-52
"(3581867, 3581868)",-954.9051950537781,1.4495823115980762e-52
"(3581868, 3581869)",-955.9051950537781,1.2792519000267202e-52
"(3581869, 3581870)",-956.9051950537781,1.1289358393990391e-52
"(3581870, 3581871)",-957.9051950537781,9.962823814863921e-53
"(3581871, 3581872)",-958.9051950537781,8.792161157613452e-53
"(3581872, 3581873)",-959.9051950537781,7.759054988618464e-53
"(3581873, 3581874)",-960.9051950537781,6.847341994439347e-53
"(3581874, 3581875)",-961.9051950537781,6.04275810103015e-53
"(3581875, 3581876)",-962.9051950537781,5.3327153072270785e-53
"(3581876, 3581877)",-963.9051950537781,4.706104740993356e-53
"(3581877, 3581878)",-964.9051950537781,4.153122857165317e-53
"(3581878, 3581879)",-965.9051950537781,3.6651180575016765e-53
"(3581879, 3581880)",-966.9051950537781,3.2344553333520987e-53
"(3581880, 3581881)",-967.9051950537781,2.854396813231452e-53
"(3581881, 3581882)",-968.9051950537781,2.518996346424096e-53
"(3581882, 3581883)",-969.9051950537781,2.2230064733411775e-53
"(3581883, 3581884)",-970.9051950537781,1.9617963271490942e-53
"(3581884, 3606686)",-971.9051950537781,1.731279182210911e-53
"(3627075, 3627076)",-972.9051950537781,1.5278485158103207e-53
"(3627076, 3627077)",-973.9051950537781,1.348321582821079e-53
"(3627077, 3627078)",-974.9051950537781,1.1898896205275612e-53
"(3627078, 3627079)",-975.9051950537781,1.0500739045331324e-53
"(3627079, 3627080)",-976.9051950537781,9.266869682354015e-54
"(3627080, 3627081)",-977.9051950537781,8.177983791332512e-54
"(3627081, 3627082)",-978.9051950537781,7.217045365237967e-54
"(3627082, 3627083)",-979.9051950537781,6.369020180635017e-54
"(3627083, 3627084)",-980.9051950537781,5.620640581909182e-54
"(3627084, 3627085)",-981.9051950537781,4.9601979040761315e-54
"(3627085, 3627086)",-982.9051950537781,4.377359286553788e-54
"(3627086, 3627087)",-983.9051950537781,3.863006011883632e-54
"(3627087, 3651897)",-984.9051950537781,3.409090840152976e-54
"(3672286, 3672287)",-985.9051950537781,3.0085121070645176e-54
"(3672287, 3672288)",-986.9051950537781,2.6550026158726916e-54
"(3672288, 3672289)",-987.9051950537781,2.3430315848616486e-54
"(3672289, 3672290)",-988.9051950537781,2.0677181162982803e-54
"(3672290, 3672291)",-989.9051950537781,1.8247548330512865e-54
"(3672291, 3672292)",-990.9051950537781,1.6103404881440308e-54
"(3672292, 3672293)",-991.9051950537781,1.4211204928936726e-54
"(3672293, 3672294)",-992.9051950537781,1.2541344331781598e-54
"(3672294, 3672295)",-993.9051950537781,1.1067697527044131e-54
"(3672295, 3672296)",-994.9051950537781,9.767208786359633e-55
"(3672296, 3672297)",-995.9051950537781,8.61953150085942e-55
"(3672297, 3672298)",-996.9051950537781,7.606709851238787e-55
"(3672298, 3672299)",-997.9051950537781,6.712897882577959e-55
"(3672299, 3672300)",-998.9051950537781,5.9241115887417376e-55
"(3672300, 3672301)",-999.9051950537781,5.2280101276300896e-55
"(3672301, 3672302)",-1000.9051950537781,4.6137027443144494e-55
"(3672302, 3672303)",-1001.9051950537781,4.0715783813035495e-55
"(3672303, 3672304)",-1002.9051950537781,3.5931553101307835e-55
"(3672304, 3672305)",-1003.9051950537781,3.1709484316958076e-55
"(3672305, 3672306)",-1004.9051950537781,2.7983521692270305e-55
"(3672306, 3672307)",-1005.9051950537781,2.469537121683738e-55
"(3672307, 3672308)",-1006.9051950537781,2.179358860703576e-55
"(3672308, 3697108)",-1007.9051950537781,1.9232774441911983e-55
"(3717497, 3717498)",-1008.9051950537781,1.6972863873095495e-55
"(3717498, 3717499)",-1009.9051950537781,1.4978499795996754e-55
"(3717499, 3717500)",-1010.9051950537781,1.3218479675331129e-55
"(3717500, 3717501)",-1011.9051950537781,1.1665267370357152e-55
"(3717501, 3717502)",-1012.9051950537781,1.0294562322161333e-55
"(3717502, 3717503)",-1013.9051950537781,9.084919362771457e-56
"(3717503, 3717504)",-1014.9051950537781,8.017413197876627e-56
"(3717504, 3717505)",-1015.9051950537781,7.075342313866978e-56
"(3717505, 3717506)",-1016.9051950537781,6.243967676713333e-56
"(3717506, 3742319)",-1017.9051950537781,5.510282134537849e-56
"(3762708, 3762709)",-1018.9051950537781,4.862806916096884e-56
"(3762709, 3762710)",-1019.9051950537781,4.291412041322448e-56
"(3762710, 3762711)",-1020.9051950537781,3.7871578341812967e-56
"(3762711, 3762712)",-1021.9051950537781,3.342155058263979e-56
"(3762712, 3762713)",-1022.9051950537781,2.9494414868754e-56
"(3762713, 3762714)",-1023.9051950537782,2.6028729765220067e-56
"(3762714, 3762715)",-1024.9051950537782,2.2970273396018174e-56
"(3762715, 3762716)",-1025.9051950537782,2.0271195123507375e-56
"(3762716, 3762717)",-1026.9051950537782,1.7889266908183213e-56
"(3762717, 3762718)",-1027.9051950537782,1.5787222635980786e-56
"(3762718, 3762719)",-1028.9051950537782,1.3932175076666455e-56
"(3762719, 3762720)",-1029.9051950537782,1.2295101351424446e-56
"(3762720, 3762721)",-1030.9051950537782,1.0850388859595746e-56
"(3762721, 3762722)",-1031.9051950537782,9.575434560431646e-57
"(3762722, 3762723)",-1032.9051950537782,8.450291340482414e-57
"(3762723, 3762724)",-1033.9051950537782,7.45735593391316e-57
"(3762724, 3762725)",-1034.9051950537782,6.581093513149216e-57
"(3762725, 3762726)",-1035.9051950537782,5.807794640973755e-57
"(3762726, 3787530)",-1036.9051950537782,5.125360781506753e-57
"(3807919, 3807920)",-1037.9051950537782,4.52311501430827e-57
"(3807920, 3807921)",-1038.9051950537782,3.991634990160926e-57
"(3807921, 3807922)",-1039.9051950537782,3.522605515065309e-57
"(3807922, 3807923)",-1040.9051950537782,3.1086884560725487e-57
"(3807923, 3807924)",-1041.9051950537782,2.743407933584512e-57
"(3807924, 3807925)",-1042.9051950537782,2.4210490039143376e-57
"(3807925, 3807926)",-1043.9051950537782,2.136568246959923e-57
"(3807926, 3807927)",-1044.9051950537782,1.885514860102731e-57
"(3807927, 3807928)",-1045.9051950537782,1.6639610238178868e-57
"(3807928, 3807929)",-1046.9051950537782,1.468440449540777e-57
"(3807929, 3807930)",-1047.9051950537782,1.2958941483496668e-57
"(3807930, 3807931)",-1048.9051950537782,1.1436225719960831e-57
"(3807931, 3807932)",-1049.9051950537782,1.0092433775123718e-57
"(3807932, 3807933)",-1050.9051950537782,8.906541546086835e-58
"(3807933, 3807934)",-1051.9051950537782,7.859995327162646e-58
"(3807934, 3807935)",-1052.9051950537782,6.936421530550428e-58
"(3807935, 3807936)",-1053.9051950537782,6.121370515731852e-58
"(3807936, 3807937)",-1054.9051950537782,5.402090519706027e-58
"(3807937, 3807938)",-1055.9051950537782,4.767328151122176e-58
"(3807938, 3807939)",-1056.9051950537782,4.207152326969666e-58
"(3807939, 3807940)",-1057.9051950537782,3.712798897252303e-58
"(3807940, 3807941)",-1058.9051950537782,3.276533526744659e-58
"(3807941, 3807942)",-1059.9051950537782,2.891530688566742e-58
"(3807942, 3832741)",-1060.9051950537782,2.5517668763884522e-58
"(3853130, 3853131)",-1061.9051950537782,2.2519263645307773e-58
"(3853131, 3853132)",-1062.9051950537782,1.9873180415469994e-58
"(3853132, 3853133)",-1063.9051950537782,1.7538020161157115e-58
"(3853133, 3853134)",-1064.9051950537782,1.547724846968734e-58
"(3853134, 3853135)",-1065.9051950537782,1.3658623835031247e-58
"(3853135, 3853136)",-1066.9051950537782,1.2053693227983204e-58
"(3853136, 3853137)",-1067.9051950537782,1.063734693840009e-58
"(3853137, 3853138)",-1068.9051950537782,9.387425724855808e-59
"(3853138, 3853139)",-1069.9051950537782,8.284374125428201e-59
"(3853139, 3853140)",-1070.9051950537782,7.310934505542353e-59
"(3853140, 3877952)",-1071.9051950537782,6.4518770561399675e-59
"(3898341, 3898342)",-1072.9051950537782,5.6937615179001395e-59
"(3898342, 3898343)",-1073.9051950537782,5.024726903602237e-59
"(3898343, 3898344)",-1074.9051950537782,4.4343059287624596e-59
"(3898344, 3898345)",-1075.9051950537782,3.9132612472453784e-59
"(3898345, 3898346)",-1076.9051950537782,3.4534409296983763e-59
"(3898346, 3898347)",-1077.9051950537782,3.047650923717683e-59
