b_intervals,fb,original_u,shifted_u,num_b,weights,weights with 2
"(1, 231243)",0,-243.4075314342964,-243.0,231242.0,3.9562813216979256e-48,3.9562813216979256e-48
"(231243, 257177)",1,-242.4075314342964,-242.0,25934.0,7.315385147412516e-49,7.315385147412516e-49
"(257177, 377768)",2,-241.4075314342964,-241.0,120591.0,5.608281795658269e-48,5.608281795658269e-48
"(377768, 599071)",3,-240.4075314342964,-240.0,221303.0,1.6968735216588996e-47,1.6968735216588996e-47
"(599071, 892123)",4,-239.4075314342964,-239.0,293052.0,3.7047090156414994e-47,3.7047090156414994e-47
"(892123, 2943487)",5,-238.4075314342964,-238.0,2051364.0,4.2756227890898716e-46,4.2756227890898716e-46
"(2943487, 3187697)",6,-237.4075314342964,-237.0,244210.0,8.392035997455571e-47,8.392035997455571e-47
"(3187697, 3578433)",7,-236.4075314342964,-236.0,390736.0,2.2137805205577864e-46,2.2137805205577864e-46
"(3578433, 3578434)",8,-235.4075314342964,-235.0,1.0,9.341107635091788e-52,9.341107635091788e-52
"(3578434, 3920327)",9,-234.4075314342964,-234.0,341893.0,5.265454040192383e-46,5.265454040192383e-46
"(3920327, 4848325)",10,-233.4075314342964,-233.0,927998.0,2.3563505412388965e-45,2.3563505412388965e-45
"(4848325, 4994851)",11,-232.4075314342964,-232.0,146526.0,6.1341556714205184e-46,6.1341556714205184e-46
"(4994851, 5239061)",12,-231.4075314342964,-231.0,244210.0,1.685585488876139e-45,1.685585488876139e-45
"(5239061, 5239062)",13,-230.4075314342964,-230.0,1.0,1.1379798735078682e-50,1.1379798735078682e-50
"(5239062, 5336745)",14,-229.4075314342964,-229.0,97683.0,1.832739799774275e-45,1.832739799774275e-45
"(5336745, 5336746)",15,-228.4075314342964,-228.0,1.0,3.093350011308561e-50,3.093350011308561e-50
"(5336746, 5532113)",16,-227.4075314342964,-227.0,195367.0,9.963857588759775e-45,9.963857588759775e-45
"(5532113, 5532114)",17,-226.4075314342964,-226.0,1.0,8.408597124803644e-50,8.408597124803644e-50
"(5532114, 5532115)",18,-225.4075314342964,-225.0,1.0,1.3863432936411706e-49,1.3863432936411706e-49
"(5532115, 6362427)",19,-224.4075314342964,-224.0,830312.0,1.8978388881036337e-43,1.8978388881036337e-43
"(6362427, 6362428)",20,-223.4075314342964,-223.0,1.0,3.768471783110857e-49,3.768471783110857e-49
"(6362428, 6850847)",21,-222.4075314342964,-222.0,488419.0,3.0346251922487666e-43,3.0346251922487666e-43
"(6850847, 6850848)",22,-221.4075314342964,-221.0,1.0,1.0243768369090897e-48,1.0243768369090897e-48
"(6850848, 6850849)",23,-220.4075314342964,-220.0,1.0,1.6889118802245324e-48,1.6889118802245324e-48
"(6850849, 7485793)",24,-219.4075314342964,-219.0,634944.0,1.768030103186141e-42,1.768030103186141e-42
"(7485793, 8169581)",25,-218.4075314342964,-218.0,683788.0,3.139228637179472e-42,3.139228637179472e-42
"(8169581, 8169582)",26,-217.4075314342964,-217.0,1.0,7.569177914366397e-48,7.569177914366397e-48
"(8169582, 8218423)",27,-216.4075314342964,-216.0,48841.0,6.0950953195131445e-43,6.0950953195131445e-43
"(8218423, 8316107)",28,-215.4075314342964,-215.0,97684.0,2.0098638103627853e-42,2.0098638103627853e-42
"(8316107, 8316108)",29,-214.4075314342964,-214.0,1.0,3.392270193026015e-47,3.392270193026015e-47
"(8316108, 8316109)",30,-213.4075314342964,-213.0,1.0,5.592908023204021e-47,5.592908023204021e-47
"(8316109, 8316110)",31,-212.4075314342964,-212.0,1.0,9.221146422925874e-47,9.221146422925874e-47
"(8316110, 8364949)",32,-211.4075314342964,-211.0,48839.0,7.425042129983135e-42,7.425042129983135e-42
"(8364949, 8658001)",33,-210.4075314342964,-210.0,293052.0,7.345546119474332e-41,7.345546119474332e-41
"(8658001, 8658002)",34,-209.4075314342964,-209.0,1.0,4.132631113961383e-46,4.132631113961383e-46
"(8658002, 8658003)",35,-208.4075314342964,-208.0,1.0,6.813556821545299e-46,6.813556821545299e-46
"(8658003, 8658004)",36,-207.4075314342964,-207.0,1.0,1.1233656060805691e-45,1.1233656060805691e-45
"(8658004, 8804527)",37,-206.4075314342964,-206.0,146523.0,2.713777054200823e-40,2.713777054200823e-40
"(8804527, 9120485)",38,-205.4075314342964,-205.0,315958.0,9.648170309158265e-40,9.648170309158265e-40
"(9120485, 9120486)",39,-204.4075314342964,-204.0,1.0,5.0345753587649823e-45,5.0345753587649823e-45
"(9120486, 9120487)",40,-203.4075314342964,-203.0,1.0,8.300611482938556e-45,8.300611482938556e-45
"(9120487, 9315854)",41,-202.4075314342964,-202.0,195367.0,2.6736745086482213e-39,2.6736745086482213e-39
"(9315854, 9732525)",42,-201.4075314342964,-201.0,416671.0,9.401515007726873e-39,9.401515007726873e-39
"(9732525, 9732526)",43,-200.4075314342964,-200.0,1.0,3.720075976020836e-44,3.720075976020836e-44
"(9732526, 9732527)",44,-199.4075314342964,-199.0,1.0,6.133368390286091e-44,6.133368390286091e-44
"(9732527, 9732528)",45,-198.4075314342964,-198.0,1.0,1.0112214926104486e-43,1.0112214926104486e-43
"(9732528, 9879051)",46,-197.4075314342964,-197.0,146523.0,2.442864254083388e-38,2.442864254083388e-38
"(9879051, 10318629)",47,-196.4075314342964,-196.0,439578.0,1.2083054162071565e-37,1.2083054162071565e-37
"(10318629, 10318630)",48,-195.4075314342964,-195.0,1.0,4.5319803111231915e-43,4.5319803111231915e-43
"(10318630, 10318631)",49,-194.4075314342964,-194.0,1.0,7.47197233734299e-43,7.47197233734299e-43
"(10318631, 10318632)",50,-193.4075314342964,-193.0,1.0,1.2319199726660341e-42,1.2319199726660341e-42
"(10318632, 10465155)",51,-192.4075314342964,-192.0,146523.0,2.976017902218927e-37,2.976017902218927e-37
"(10465155, 10465156)",52,-191.4075314342964,-191.0,1.0,3.348705675813844e-42,3.348705675813844e-42
"(10465156, 10807049)",53,-190.4075314342964,-190.0,341893.0,1.887619382940116e-36,1.887619382940116e-36
"(10807049, 11148943)",54,-189.4075314342964,-189.0,341894.0,3.112167330365007e-36,3.112167330365007e-36
"(11148943, 11783889)",55,-188.4075314342964,-188.0,634946.0,9.529179168880095e-36,9.529179168880095e-36
"(11783889, 11783890)",56,-187.4075314342964,-187.0,1.0,2.4743774097395967e-41,2.4743774097395967e-41
"(11783890, 11881573)",57,-186.4075314342964,-186.0,97683.0,3.9850352928590565e-36,3.9850352928590565e-36
"(11881573, 12125783)",58,-185.4075314342964,-185.0,244210.0,1.6425699280947341e-35,1.6425699280947341e-35
"(12125783, 12125784)",59,-184.4075314342964,-184.0,1.0,1.1089390193121363e-40,1.1089390193121363e-40
"(12125784, 13395675)",60,-183.4075314342964,-183.0,1269891.0,2.3217815251755133e-34,2.3217815251755133e-34
"(13395675, 13444517)",61,-182.4075314342964,-182.0,48842.0,1.4722975388016301e-35,1.4722975388016301e-35
"(13444517, 13444518)",62,-181.4075314342964,-181.0,1.0,4.9699198825226136e-40,4.9699198825226136e-40
"(13444518, 13444519)",63,-180.4075314342964,-180.0,1.0,8.194012623990516e-40,8.194012623990516e-40
"(13444519, 13639885)",64,-179.4075314342964,-179.0,195366.0,2.6393248958873483e-34,2.6393248958873483e-34
"(13639885, 14030621)",65,-178.4075314342964,-178.0,390736.0,8.703111286818217e-34,8.703111286818217e-34
"(14030621, 14128305)",66,-177.4075314342964,-177.0,97684.0,3.587251174961889e-34,3.587251174961889e-34
"(14128305, 15007461)",67,-176.4075314342964,-176.0,879156.0,5.3229395839533245e-33,5.3229395839533245e-33
"(15007461, 15007462)",68,-175.4075314342964,-175.0,1.0,9.982350930569248e-39,9.982350930569248e-39
"(15007462, 15007463)",69,-174.4075314342964,-174.0,1.0,1.6458114310822734e-38,1.6458114310822734e-38
"(15007463, 15007464)",70,-173.4075314342964,-173.0,1.0,2.7134843139867624e-38,2.7134843139867624e-38
"(15007464, 15153987)",71,-172.4075314342964,-172.0,146523.0,6.555115652795763e-33,6.555115652795763e-33
"(15153987, 15691249)",72,-171.4075314342964,-171.0,537262.0,3.962852626009496e-32,3.962852626009496e-32
"(15691249, 15984301)",73,-170.4075314342964,-170.0,293052.0,3.5638033184463904e-32,3.5638033184463904e-32
"(15984301, 15984302)",74,-169.4075314342964,-169.0,1.0,2.0050087819616537e-37,2.0050087819616537e-37
"(15984302, 16033143)",75,-168.4075314342964,-168.0,48841.0,1.6145372431162101e-32,1.6145372431162101e-32
"(16033143, 16130827)",76,-167.4075314342964,-167.0,97684.0,5.323952793705239e-32,5.323952793705239e-32
"(16130827, 16423879)",77,-166.4075314342964,-166.0,293052.0,2.6333142645555594e-31,2.6333142645555594e-31
"(16423879, 16423880)",78,-165.4075314342964,-165.0,1.0,1.4815122368763274e-36,1.4815122368763274e-36
"(16423880, 16423881)",79,-164.4075314342964,-164.0,1.0,2.4426007377405277e-36,2.4426007377405277e-36
"(16423881, 16863457)",80,-163.4075314342964,-163.0,439576.0,1.770246309398011e-30,1.770246309398011e-30
"(16863457, 16863458)",81,-162.4075314342964,-162.0,1.0,6.639677199580735e-36,6.639677199580735e-36
"(16863458, 16961141)",82,-161.4075314342964,-161.0,97683.0,1.0693335571757174e-30,1.0693335571757174e-30
"(16961141, 17742613)",83,-160.4075314342964,-160.0,781472.0,1.4104408237623325e-29,1.4104408237623325e-29
"(17742613, 17791455)",84,-159.4075314342964,-159.0,48842.0,1.4533898670004798e-30,1.4533898670004798e-30
"(17791455, 17791456)",85,-158.4075314342964,-158.0,1.0,4.906094730649281e-35,4.906094730649281e-35
"(17791456, 17986823)",86,-157.4075314342964,-157.0,195367.0,1.5802812172708268e-29,1.5802812172708268e-29
"(17986823, 17986824)",87,-156.4075314342964,-156.0,1.0,1.3336148155022614e-34,1.3336148155022614e-34
"(17986824, 18328717)",88,-155.4075314342964,-155.0,341893.0,7.5174034950276e-29,7.5174034950276e-29
"(18328717, 18328718)",89,-154.4075314342964,-154.0,1.0,3.6251409191435593e-34,3.6251409191435593e-34
"(18328718, 18914821)",90,-153.4075314342964,-153.0,586103.0,3.5030479236440515e-28,3.5030479236440515e-28
"(18914821, 18963663)",91,-152.4075314342964,-152.0,48842.0,4.8129662317904605e-29,4.8129662317904605e-29
"(18963663, 18963664)",92,-151.4075314342964,-151.0,1.0,1.6246754435760975e-33,1.6246754435760975e-33
"(18963664, 18963665)",93,-150.4075314342964,-150.0,1.0,2.6786369618080778e-33,2.6786369618080778e-33
"(18963665, 19305557)",94,-149.4075314342964,-149.0,341892.0,1.5099064383330335e-27,1.5099064383330335e-27
"(19305557, 19989345)",95,-148.4075314342964,-148.0,683788.0,4.9788588484542e-27,4.9788588484542e-27
"(19989345, 19989346)",96,-147.4075314342964,-147.0,1.0,1.2004817995138824e-32,1.2004817995138824e-32
"(19989346, 19989347)",97,-146.4075314342964,-146.0,1.0,1.9792598779469045e-32,1.9792598779469045e-32
"(19989347, 20233555)",98,-145.4075314342964,-145.0,244208.0,7.969112336426048e-27,7.969112336426048e-27
"(20233555, 20624291)",99,-144.4075314342964,-144.0,390736.0,2.1022324194220196e-26,2.1022324194220196e-26
"(20624291, 20624292)",100,-143.4075314342964,-143.0,1.0,8.870427362353295e-32,8.870427362353295e-32
"(20624292, 21747657)",101,-142.4075314342964,-142.0,1123365.0,1.642905840676079e-25,1.642905840676079e-25
"(21747657, 21747658)",102,-141.4075314342964,-141.0,1.0,2.411232150975086e-31,2.411232150975086e-31
"(21747658, 22187235)",103,-140.4075314342964,-140.0,439577.0,1.7475162685615152e-25,1.7475162685615152e-25
"(22187235, 22187236)",104,-139.4075314342964,-139.0,1.0,6.554408540191793e-31,6.554408540191793e-31
"(22187236, 22871023)",105,-138.4075314342964,-138.0,683787.0,7.389270897856268e-25,7.389270897856268e-25
"(22871023, 23115233)",106,-137.4075314342964,-137.0,244210.0,4.351023543210962e-25,4.351023543210962e-25
"(23115233, 23115234)",107,-136.4075314342964,-136.0,1.0,2.9374821117108028e-30,2.9374821117108028e-30
"(23115234, 23115235)",108,-135.4075314342964,-135.0,1.0,4.843089239878731e-30,4.843089239878731e-30
"(23115235, 23115236)",109,-134.4075314342964,-134.0,1.0,7.984904245686979e-30,7.984904245686979e-30
"(23115236, 23115237)",110,-133.4075314342964,-133.0,1.0,1.3164881474367886e-29,1.3164881474367886e-29
"(23115237, 23505969)",111,-132.4075314342964,-132.0,390732.0,8.480924065206937e-24,8.480924065206937e-24
"(23505969, 23505970)",112,-131.4075314342964,-131.0,1.0,3.5785858085591347e-29,3.5785858085591347e-29
"(23505970, 23505971)",113,-130.4075314342964,-130.0,1.0,5.900090541597061e-29,5.900090541597061e-29
"(23505971, 23505972)",114,-129.4075314342964,-129.0,1.0,9.727604774987715e-29,9.727604774987715e-29
"(23505972, 23750179)",115,-128.4075314342964,-128.0,244207.0,3.9166184614821116e-23,3.9166184614821116e-23
"(23750179, 24433967)",116,-127.4075314342964,-127.0,683788.0,1.8080976182573504e-22,1.8080976182573504e-22
"(24433967, 24531651)",117,-126.4075314342964,-126.0,97684.0,4.25864143246162e-23,4.25864143246162e-23
"(24531651, 24531652)",118,-125.4075314342964,-125.0,1.0,7.187781739060989e-28,7.187781739060989e-28
"(24531652, 24775861)",119,-124.4075314342964,-124.0,244209.0,2.894035054297163e-22,2.894035054297163e-22
"(24775861, 24775862)",120,-123.4075314342964,-123.0,1.0,1.953841648821924e-27,1.953841648821924e-27
"(24775862, 25313123)",121,-122.4075314342964,-122.0,537261.0,1.7307005033926254e-21,1.7307005033926254e-21
"(25313123, 25313124)",122,-121.4075314342964,-121.0,1.0,5.311092249679095e-27,5.311092249679095e-27
"(25313124, 25508491)",123,-120.4075314342964,-120.0,195367.0,1.710733238175731e-21,1.710733238175731e-21
"(25508491, 25557333)",124,-119.4075314342964,-119.0,48842.0,7.05134178829897e-22,7.05134178829897e-22
"(25557333, 26192279)",125,-118.4075314342964,-118.0,634946.0,1.511340635134875e-20,1.511340635134875e-20
"(26192279, 26436489)",126,-117.4075314342964,-117.0,244210.0,9.5837671246935e-21,9.5837671246935e-21
"(26436489, 26583015)",127,-116.4075314342964,-116.0,146526.0,9.480576427151266e-21,9.480576427151266e-21
"(26583015, 26583016)",128,-115.4075314342964,-115.0,1.0,1.0667613948338533e-25,1.0667613948338533e-25
"(26583016, 26583017)",129,-114.4075314342964,-114.0,1.0,1.7587922024243116e-25,1.7587922024243116e-25
"(26583017, 26680699)",130,-113.4075314342964,-113.0,97682.0,2.8325417217756045e-20,2.8325417217756045e-20
"(26680699, 26827225)",131,-112.4075314342964,-112.0,146526.0,7.005251107042022e-20,7.005251107042022e-20
"(26827225, 26924909)",132,-111.4075314342964,-111.0,97684.0,7.699804337850534e-20,7.699804337850534e-20
"(26924909, 27706381)",133,-110.4075314342964,-110.0,781472.0,1.0155864953634635e-18,1.0155864953634635e-18
"(27706381, 27901749)",134,-109.4075314342964,-109.0,195368.0,4.186047642853848e-19,4.186047642853848e-19
"(27901749, 28439011)",135,-108.4075314342964,-108.0,537262.0,1.8979470919577502e-18,1.8979470919577502e-18
"(28439011, 29464693)",136,-107.4075314342964,-107.0,1025682.0,5.973900051332554e-18,5.973900051332554e-18
"(29464693, 29611219)",137,-106.4075314342964,-106.0,146526.0,1.4070422976669384e-18,1.4070422976669384e-18
"(29611219, 29660061)",138,-105.4075314342964,-105.0,48842.0,7.732735216460875e-19,7.732735216460875e-19
"(29660061, 30148481)",139,-104.4075314342964,-104.0,488420.0,1.2749125032071006e-17,1.2749125032071006e-17
"(30148481, 30392691)",140,-103.4075314342964,-103.0,244210.0,1.0509876811595458e-17,1.0509876811595458e-17
"(30392691, 30392692)",141,-102.4075314342964,-102.0,1.0,7.095474162284704e-23,7.095474162284704e-23
"(30392692, 30588059)",142,-101.4075314342964,-101.0,195367.0,2.285492874045065e-17,2.285492874045065e-17
"(30588059, 30734585)",143,-100.4075314342964,-100.0,146526.0,2.82612000222761e-17,2.82612000222761e-17
"(30734585, 31076479)",144,-99.4075314342964,-99.0,341894.0,1.0872129709522093e-16,1.0872129709522093e-16
"(31076479, 31076480)",145,-98.4075314342964,-98.0,1.0,5.242885663363464e-22,5.242885663363464e-22
"(31076480, 31076481)",146,-97.4075314342964,-97.0,1.0,8.644057113036095e-22,8.644057113036095e-22
"(31076481, 31076482)",147,-96.4075314342964,-96.0,1.0,1.425164082740935e-21,1.425164082740935e-21
"(31076482, 31174163)",148,-95.4075314342964,-95.0,97681.0,2.2952088330072865e-16,2.2952088330072865e-16
"(31174163, 31174164)",149,-94.4075314342964,-94.0,1.0,3.873997628687187e-21,3.873997628687187e-21
"(31174164, 31174165)",150,-93.4075314342964,-93.0,1.0,6.387142293058423e-21,6.387142293058423e-21
"(31174165, 31516057)",151,-92.4075314342964,-92.0,341892.0,3.600333829608788e-15,3.600333829608788e-15
"(31516057, 31760267)",152,-91.4075314342964,-91.0,244210.0,4.2399869218592294e-15,4.2399869218592294e-15
"(31760267, 32688265)",153,-90.4075314342964,-90.0,927998.0,2.6564115177126763e-14,2.6564115177126763e-14
"(32688265, 32688266)",154,-89.4075314342964,-89.0,1.0,4.719495271526123e-20,4.719495271526123e-20
"(32688266, 32688267)",155,-88.4075314342964,-88.0,1.0,7.781132241133797e-20,7.781132241133797e-20
"(32688267, 32883633)",156,-87.4075314342964,-87.0,195366.0,2.5063344401115386e-14,2.5063344401115386e-14
"(32883633, 32883634)",157,-86.4075314342964,-86.0,1.0,2.1151310375910807e-19,2.1151310375910807e-19
"(32883634, 33030159)",158,-85.4075314342964,-85.0,146525.0,5.109709959754863e-14,5.109709959754863e-14
"(33030159, 33030160)",159,-84.4075314342964,-84.0,1.0,5.74952226429356e-19,5.74952226429356e-19
"(33030160, 33567421)",160,-83.4075314342964,-83.0,537261.0,5.092890246801619e-13,5.092890246801619e-13
"(33567421, 33860473)",161,-82.4075314342964,-82.0,293052.0,4.580057513489971e-13,4.580057513489971e-13
"(33860473, 33860474)",162,-81.4075314342964,-81.0,1.0,2.576757109154981e-18,2.576757109154981e-18
"(33860474, 33860475)",163,-80.4075314342964,-80.0,1.0,4.248354255291589e-18,4.248354255291589e-18
"(33860475, 34055841)",164,-79.4075314342964,-79.0,195366.0,1.3684122379444635e-12,1.3684122379444635e-12
"(34055841, 34153525)",165,-78.4075314342964,-78.0,97684.0,1.1280767301168741e-12,1.1280767301168741e-12
"(34153525, 34153526)",166,-77.4075314342964,-77.0,1.0,1.9039802832864523e-17,1.9039802832864523e-17
"(34153526, 34153527)",167,-76.4075314342964,-76.0,1.0,3.1391327920480296e-17,3.1391327920480296e-17
"(34153527, 34251209)",168,-75.4075314342964,-75.0,97682.0,5.055585640767382e-12,5.055585640767382e-12
"(34251209, 35374575)",169,-74.4075314342964,-74.0,1123366.0,9.58573557914161e-11,9.58573557914161e-11
"(35374575, 35374576)",170,-73.4075314342964,-73.0,1.0,1.4068617124461467e-16,1.4068617124461467e-16
"(35374576, 35862995)",171,-72.4075314342964,-72.0,488419.0,1.1328990212247338e-10,1.1328990212247338e-10
"(35862995, 35911837)",172,-71.4075314342964,-71.0,48842.0,1.8678385380952026e-11,1.8678385380952026e-11
"(35911837, 35911838)",173,-70.4075314342964,-70.0,1.0,6.30511676014699e-16,6.30511676014699e-16
"(35911838, 35960679)",174,-69.4075314342964,-69.0,48841.0,5.077207602798531e-11,5.077207602798531e-11
"(35960679, 35960680)",175,-68.4075314342964,-68.0,1.0,1.713908431542013e-15,1.713908431542013e-15
"(35960680, 36888677)",176,-67.4075314342964,-67.0,927997.0,2.6222942851714257e-09,2.6222942851714257e-09
"(36888677, 37767833)",177,-66.4075314342964,-66.0,879156.0,4.095887707784522e-09,4.095887707784522e-09
"(37767833, 38109727)",178,-65.4075314342964,-65.0,341894.0,2.626157794642485e-09,2.626157794642485e-09
"(38109727, 38109728)",179,-64.4075314342964,-64.0,1.0,1.2664165549094176e-14,1.2664165549094176e-14
"(38109728, 38549305)",180,-63.4075314342964,-63.0,439577.0,9.178226706975846e-09,9.178226706975846e-09
"(38549305, 38695831)",181,-62.4075314342964,-62.0,146526.0,5.0441240079567175e-09,5.0441240079567175e-09
"(38695831, 39281935)",182,-61.4075314342964,-61.0,586104.0,3.326541817586969e-08,3.326541817586969e-08
"(39281935, 39281936)",183,-60.4075314342964,-60.0,1.0,9.357622968840175e-14,9.357622968840175e-14
"(39281936, 39379619)",184,-59.4075314342964,-59.0,97683.0,1.5070642676139317e-08,1.5070642676139317e-08
"(39379619, 39379620)",185,-58.4075314342964,-58.0,1.0,2.5436656473769233e-13,2.5436656473769233e-13
"(39379620, 39379621)",186,-57.4075314342964,-57.0,1.0,4.1937956583795446e-13,4.1937956583795446e-13
"(39379621, 39379622)",187,-56.4075314342964,-56.0,1.0,6.914400106940203e-13,6.914400106940203e-13
"(39379622, 39526145)",188,-55.4075314342964,-55.0,146523.0,1.6703502628361808e-07,1.6703502628361808e-07
"(39526145, 39574987)",189,-54.4075314342964,-54.0,48842.0,9.17999464574019e-08,9.17999464574019e-08
"(39574987, 39623829)",190,-53.4075314342964,-53.0,48842.0,1.5135252437345139e-07,1.5135252437345139e-07
"(39623829, 39965723)",191,-52.4075314342964,-52.0,341894.0,1.7467668841606822e-06,1.7467668841606822e-06
"(39965723, 40747195)",192,-51.4075314342964,-51.0,781472.0,6.582701067132123e-06,6.582701067132123e-06
"(40747195, 41089089)",193,-50.4075314342964,-50.0,341894.0,4.748204679768009e-06,4.748204679768009e-06
"(41089089, 41089090)",194,-49.4075314342964,-49.0,1.0,2.289734845645553e-11,2.289734845645553e-11
"(41089090, 41089091)",195,-48.4075314342964,-48.0,1.0,3.775134544279098e-11,3.775134544279098e-11
"(41089091, 41089092)",196,-47.4075314342964,-47.0,1.0,6.224144622907783e-11,6.224144622907783e-11
"(41089092, 41089093)",197,-46.4075314342964,-46.0,1.0,1.026187963170189e-10,1.026187963170189e-10
"(41089093, 41089094)",198,-45.4075314342964,-45.0,1.0,1.6918979226151304e-10,1.6918979226151304e-10
"(41089094, 41089095)",199,-44.4075314342964,-44.0,1.0,2.7894680928689246e-10,2.7894680928689246e-10
"(41089095, 41968245)",200,-43.4075314342964,-43.0,879150.0,0.00040432595361421844,0.00040432595361421844
"(41968245, 42310139)",201,-42.4075314342964,-42.0,341894.0,0.00025924319149405134,0.00025924319149405134
"(42310139, 42310140)",202,-41.4075314342964,-41.0,1.0,1.2501528663867426e-09,1.2501528663867426e-09
"(42310140, 42310141)",203,-40.4075314342964,-40.0,1.0,2.061153622438558e-09,2.061153622438558e-09
"(42310141, 42310142)",204,-39.4075314342964,-39.0,1.0,3.398267819495071e-09,3.398267819495071e-09
"(42310142, 42407823)",205,-38.4075314342964,-38.0,97681.0,0.0005472867588150778,0.0005472867588150778
"(42407823, 42407824)",206,-37.4075314342964,-37.0,1.0,9.237449661970594e-09,9.237449661970594e-09
"(42407824, 42554349)",207,-36.4075314342964,-36.0,146525.0,0.002231572782094018,0.002231572782094018
"(42554349, 42700875)",208,-35.4075314342964,-35.0,146526.0,0.0036792666229454266,0.0036792666229454266
"(42700875, 42896243)",209,-34.4075314342964,-34.0,195368.0,0.008088113522436205,0.008088113522436205
"(42896243, 43384663)",210,-33.4075314342964,-33.0,488420.0,0.033337612010694774,0.033337612010694774
"(43384663, 44263819)",211,-32.4075314342964,-32.0,879156.0,0.09893597406548497,0.09893597406548497
"(44263819, 44263820)",212,-31.407531434296402,-31.0,1.0,1.855391362615978e-07,1.855391362615978e-07
"(44263820, 44263821)",213,-30.407531434296402,-30.0,1.0,3.059023205018258e-07,3.059023205018258e-07
"(44263821, 44263822)",214,-29.407531434296402,-29.0,1.0,5.04347662567888e-07,5.04347662567888e-07
"(44263822, 44801081)",215,-28.407531434296402,-28.0,537259.0,0.4467462880968638,0.4467462880968638
"(44801081, 45289501)",216,-27.407531434296402,-27.0,488420.0,0.6696038369717145,0.6696038369717145
"(45289501, 45729079)",217,-26.407531434296402,-26.0,439578.0,0.9935910800619179,0.9935910800619179
"(45729079, 46217499)",218,-25.407531434296402,-25.0,488420.0,1.8201719423066647,1.8201719423066647
"(46217499, 46266341)",219,-24.407531434296402,-24.0,48842.0,0.3000956197612564,0.3000956197612564
"(46266341, 47389707)",220,-23.407531434296402,-23.0,1123366.0,11.379802725519387,11.379802725519387
"(47389707, 47633917)",221,-22.407531434296402,-22.0,244210.0,4.078722349985893,4.078722349985893
"(47633917, 47926969)",222,-21.407531434296402,-21.0,293052.0,8.069611554842105,8.069611554842105
"(47926969, 48122337)",223,-20.407531434296402,-20.0,195368.0,8.86969347783714,8.86969347783714
"(48122337, 48268863)",224,-19.407531434296402,-19.0,146526.0,10.967739226125216,10.967739226125216
"(48268863, 48513073)",225,-18.407531434296402,-18.0,244210.0,30.137908256008014,30.137908256008014
"(48513073, 48561915)",226,-17.407531434296402,-17.0,48842.0,9.937802079217882,9.937802079217882
"(48561915, 48610757)",227,-16.407531434296402,-16.0,48842.0,16.38466567201448,16.38466567201448
"(48610757, 48610758)",228,-15.407531434296402,-15.0,1.0,0.0005530843701478336,0.0005530843701478336
"(48610758, 48659599)",229,-14.407531434296402,-14.0,48841.0,44.537227079648126,44.537227079648126
"(48659599, 49294545)",230,-13.407531434296402,-13.0,634946.0,954.6027018243378,954.6027018243378
"(49294545, 49294546)",231,-12.407531434296402,-12.0,1.0,0.0024787521766663585,0.0024787521766663585
"(49294546, 50271385)",232,-11.407531434296402,-11.0,976839.0,3992.1177251778004,3992.1177251778004
"(50271385, 51004015)",233,-10.407531434296402,-10.0,732630.0,4936.422109939986,4936.422109939986
"(51004015, 51248225)",234,-9.407531434296402,-9.0,244210.0,2712.928044604154,2712.928044604154
"(51248225, 51834329)",235,-8.407531434296402,-8.0,586104.0,10734.869215242657,10734.869215242657
"(51834329, 51834330)",236,-7.407531434296402,-7.0,1.0,0.0301973834223185,0.0301973834223185
"(51834330, 53055379)",237,-6.407531434296402,-6.0,1221049.0,60792.45004351189,60792.45004351189
"(53055379, 53494957)",238,-5.407531434296402,-5.0,439578.0,36082.75952509619,36082.75952509619
"(53494957, 53690325)",239,-4.407531434296402,-4.0,195368.0,26440.183615370544,26440.183615370544
"(53690325, 53690326)",240,-3.407531434296402,-3.0,1.0,0.22313016014842982,0.22313016014842982
"(53690326, 54374113)",241,-2.407531434296402,-2.0,683787.0,251551.17944029707,251551.17944029707
"(54374113, 54716007)",242,-1.407531434296402,-1.0,341894.0,207369.1933717911,207369.1933717911
"(54716007, 54716008)",243,-0.40753143429640204,0.0,1.0,1.0,1.0
"(54716008, 55155585)",244,-0.592468565703598,-0.18493713140719592,439577.0,400752.62238684844,400752.62238684844
"(55155585, 55839373)",245,-1.592468565703598,-1.184937131407196,683788.0,378107.8083975765,378107.8083975765
"(55839373, 55839374)",246,-2.592468565703598,-2.184937131407196,1.0,0.33538754477978566,0.33538754477978566
"(55839374, 56132425)",247,-3.592468565703598,-3.184937131407196,293051.0,59613.26340111088,59613.26340111088
"(56132425, 57206949)",248,-4.592468565703598,-4.184937131407196,1074524.0,132577.11632176483,132577.11632176483
"(57206949, 57255791)",249,-5.592468565703598,-5.184937131407196,48842.0,3655.0948102472075,3655.0948102472075
"(57255791, 57500001)",250,-6.592468565703598,-6.184937131407196,244210.0,11084.635332857308,11084.635332857308
"(57500001, 58330315)",251,-7.592468565703598,-7.184937131407196,830314.0,22858.782015780485,22858.782015780485
"(58330315, 58379157)",252,-8.592468565703598,-8.184937131407196,48842.0,815.561890368154,815.561890368154
"(58379157, 58476841)",253,-9.592468565703598,-9.184937131407196,97684.0,989.3265828029578,989.3265828029578
"(58476841, 59111787)",254,-10.592468565703598,-10.184937131407196,634946.0,3900.369882101701,3900.369882101701
"(59111787, 59111788)",255,-11.592468565703598,-11.184937131407196,1.0,0.003725819073928226,0.003725819073928226
"(59111788, 59404839)",256,-12.592468565703598,-12.184937131407196,293051.0,662.2435367562674,662.2435367562674
"(59404839, 60381679)",257,-13.592468565703598,-13.184937131407196,976840.0,1338.9079329714846,1338.9079329714846
"(60381679, 61065467)",258,-14.592468565703598,-14.184937131407196,683788.0,568.4620983157711,568.4620983157711
"(61065467, 61456203)",259,-15.592468565703598,-15.184937131407196,390736.0,197.02268086462428,197.02268086462428
"(61456203, 61993465)",260,-16.592468565703598,-16.184937131407196,537262.0,164.31290782936176,164.31290782936176
"(61993465, 62091149)",261,-17.592468565703598,-17.184937131407196,97684.0,18.120148433644353,18.120148433644353
"(62091149, 62091150)",262,-18.592468565703598,-18.184937131407196,1.0,0.00011250998713759827,0.00011250998713759827
"(62091150, 62188833)",263,-19.592468565703598,-19.184937131407196,97683.0,6.665961838955947,6.665961838955947
"(62188833, 62188834)",264,-20.592468565703598,-20.184937131407196,1.0,4.1390111194385813e-05,4.1390111194385813e-05
"(62188834, 62530727)",265,-21.592468565703598,-21.184937131407196,341893.0,8.58300886757708,8.58300886757708
"(62530727, 62579569)",266,-22.592468565703598,-22.184937131407196,48842.0,0.7436961796202693,0.7436961796202693
"(62579569, 62579570)",267,-23.592468565703598,-23.184937131407196,1.0,9.235382139364625e-06,9.235382139364625e-06
"(62579570, 62579571)",268,-24.592468565703598,-24.184937131407196,1.0,5.601542421687099e-06,5.601542421687099e-06
"(62579571, 62579572)",269,-25.592468565703598,-25.184937131407196,1.0,3.3975072204341777e-06,3.3975072204341777e-06
"(62579572, 62579573)",270,-26.592468565703598,-26.184937131407196,1.0,2.0606922957883773e-06,2.0606922957883773e-06
"(62579573, 62579574)",271,-27.592468565703598,-27.184937131407196,1.0,1.2498730576292655e-06,1.2498730576292655e-06
"(62579574, 62823779)",272,-28.592468565703598,-28.184937131407196,244205.0,0.18512847226671683,0.18512847226671683
"(62823779, 63214515)",273,-29.592468565703598,-29.184937131407196,390736.0,0.17966142948565378,0.17966142948565378
"(63214515, 63605251)",274,-30.592468565703598,-30.184937131407196,390736.0,0.10897016535084833,0.10897016535084833
"(63605251, 63702935)",275,-31.592468565703598,-31.184937131407196,97684.0,0.0165234365698112,0.0165234365698112
"(63702935, 64484407)",276,-32.5924685657036,-32.184937131407196,781472.0,0.08017576706725951,0.08017576706725951
"(64484407, 64777459)",277,-33.5924685657036,-33.184937131407196,293052.0,0.018235897834601753,0.018235897834601753
"(64777459, 64777460)",278,-34.5924685657036,-34.184937131407196,1.0,3.774289595045652e-08,3.774289595045652e-08
"(64777460, 65314721)",279,-35.5924685657036,-35.184937131407196,537261.0,0.012299098932973236,0.012299098932973236
"(65314721, 65412405)",280,-36.5924685657036,-36.184937131407196,97684.0,0.0013563262680950313,0.0013563262680950313
"(65412405, 65412406)",281,-37.5924685657036,-37.184937131407196,1.0,8.421578417890888e-09,8.421578417890888e-09
"(65412406, 65412407)",282,-38.5924685657036,-38.184937131407196,1.0,5.1079455136250355e-09,5.1079455136250355e-09
"(65412407, 65412408)",283,-39.5924685657036,-39.184937131407196,1.0,3.098125562155179e-09,3.098125562155179e-09
"(65412408, 65412409)",284,-40.5924685657036,-40.184937131407196,1.0,1.879108141086554e-09,1.879108141086554e-09
"(65412409, 65412410)",285,-41.5924685657036,-41.184937131407196,1.0,1.1397367004846077e-09,1.1397367004846077e-09
"(65412410, 65412411)",286,-42.5924685657036,-42.184937131407196,1.0,6.912852528436293e-10,6.912852528436293e-10
"(65412411, 65412412)",287,-43.5924685657036,-43.184937131407196,1.0,4.192857004568611e-10,4.192857004568611e-10
"(65412412, 65412413)",288,-44.5924685657036,-44.184937131407196,1.0,2.5430963250617355e-10,2.5430963250617355e-10
"(65412413, 65558931)",289,-45.5924685657036,-45.184937131407196,146518.0,2.2599901752778814e-05,2.2599901752778814e-05
"(65558931, 65754299)",290,-46.5924685657036,-46.184937131407196,195368.0,1.8277709015783413e-05,1.8277709015783413e-05
"(65754299, 65754300)",291,-47.5924685657036,-47.184937131407196,1.0,5.674414902839084e-11,5.674414902839084e-11
"(65754300, 65754301)",292,-48.5924685657036,-48.184937131407196,1.0,3.441706614502188e-11,3.441706614502188e-11
"(65754301, 65754302)",293,-49.5924685657036,-49.184937131407196,1.0,2.0875005834313464e-11,2.0875005834313464e-11
"(65754302, 65754303)",294,-50.5924685657036,-50.184937131407196,1.0,1.2661331060191216e-11,1.2661331060191216e-11
"(65754303, 65754304)",295,-51.5924685657036,-51.184937131407196,1.0,7.679485480777835e-12,7.679485480777835e-12
"(65754304, 66242719)",296,-52.5924685657036,-52.184937131407196,488415.0,2.2749605817248555e-06,2.2749605817248555e-06
"(66242719, 66242720)",297,-53.5924685657036,-53.184937131407196,1.0,2.825124827152755e-12,2.825124827152755e-12
"(66242720, 66731139)",298,-54.5924685657036,-54.184937131407196,488419.0,8.369180815912999e-07,8.369180815912999e-07
"(66731139, 66779981)",299,-55.5924685657036,-55.184937131407196,48842.0,5.0761751545834534e-08,5.0761751545834534e-08
"(66779981, 66926507)",300,-56.5924685657036,-56.184937131407196,146526.0,9.236567595979144e-08,9.236567595979144e-08
"(66926507, 67512611)",301,-57.5924685657036,-57.184937131407196,586104.0,2.2409045749878248e-07,2.2409045749878248e-07
"(67512611, 67512612)",302,-58.5924685657036,-58.184937131407196,1.0,2.3190036754917625e-13,2.3190036754917625e-13
"(67512612, 67952189)",303,-59.5924685657036,-59.184937131407196,439577.0,6.18285635526958e-08,6.18285635526958e-08
"(67952189, 67952190)",304,-60.5924685657036,-60.184937131407196,1.0,8.531137762144303e-14,8.531137762144303e-14
"(67952190, 67952191)",305,-61.5924685657036,-61.184937131407196,1.0,5.174396614972743e-14,5.174396614972743e-14
"(67952191, 68001031)",306,-62.5924685657036,-62.184937131407196,48840.0,1.5328093060141843e-09,1.5328093060141843e-09
"(68001031, 69124397)",307,-63.5924685657036,-63.184937131407196,1123366.0,2.1383879945482435e-08,2.1383879945482435e-08
"(69124397, 69124398)",308,-64.5924685657036,-64.1849371314072,1.0,1.1545639453703613e-14,1.1545639453703613e-14
"(69124398, 69124399)",309,-65.5924685657036,-65.1849371314072,1.0,7.002784314659062e-15,7.002784314659062e-15
"(69124399, 69515133)",310,-66.5924685657036,-66.1849371314072,390734.0,1.6596049162646256e-09,1.6596049162646256e-09
"(69515133, 69515134)",311,-67.5924685657036,-67.1849371314072,1.0,2.5761803803209172e-15,2.5761803803209172e-15
"(69515134, 69710501)",312,-68.5924685657036,-68.1849371314072,195367.0,3.0526726458040445e-10,3.0526726458040445e-10
"(69710501, 69954711)",313,-69.5924685657036,-69.1849371314072,244210.0,2.3144362887302796e-10,2.3144362887302796e-10
"(69954711, 70198921)",314,-70.5924685657036,-70.1849371314072,244210.0,1.4037765690664356e-10,1.4037765690664356e-10
"(70198921, 70198922)",315,-71.5924685657036,-71.1849371314072,1.0,3.4864810143933594e-16,3.4864810143933594e-16
"(70198922, 70198923)",316,-72.5924685657036,-72.1849371314072,1.0,2.1146576297355755e-16,2.1146576297355755e-16
"(70198923, 70198924)",317,-73.5924685657036,-73.1849371314072,1.0,1.2826046872298724e-16,1.2826046872298724e-16
"(70198924, 70198925)",318,-74.5924685657036,-74.1849371314072,1.0,7.779390670960503e-17,7.779390670960503e-17
"(70198925, 70198926)",319,-75.5924685657036,-75.1849371314072,1.0,4.71843895581998e-17,4.71843895581998e-17
"(70198926, 70198927)",320,-76.5924685657036,-76.1849371314072,1.0,2.8618778926872816e-17,2.8618778926872816e-17
"(70198927, 70247763)",321,-77.5924685657036,-77.1849371314072,48836.0,8.477034369061424e-13,8.477034369061424e-13
"(70247763, 70247764)",322,-78.5924685657036,-78.1849371314072,1.0,1.0528260398627022e-17,1.0528260398627022e-17
"(70247764, 70931551)",323,-79.5924685657036,-79.1849371314072,683787.0,4.3664673472301895e-12,4.3664673472301895e-12
"(70931551, 70931552)",324,-80.5924685657036,-80.1849371314072,1.0,3.873130551954336e-18,3.873130551954336e-18
"(70931552, 71078077)",325,-81.5924685657036,-81.1849371314072,146525.0,3.442124901343185e-13,3.442124901343185e-13
"(71078077, 71175761)",326,-82.5924685657036,-82.1849371314072,97684.0,1.391845690450664e-13,1.391845690450664e-13
"(71175761, 72445653)",327,-83.5924685657036,-83.1849371314072,1269892.0,1.0974562103013952e-12,1.0974562103013952e-12
"(72445653, 72543337)",328,-84.5924685657036,-84.1849371314072,97684.0,5.1203141479987045e-14,5.1203141479987045e-14
"(72543337, 72543338)",329,-85.5924685657036,-85.1849371314072,1.0,3.17925916027352e-19,3.17925916027352e-19
"(72543338, 72836389)",330,-86.5924685657036,-86.1849371314072,293051.0,5.6509556389824213e-14,5.6509556389824213e-14
"(72836389, 72836390)",331,-87.5924685657036,-87.1849371314072,1.0,1.1695840832206115e-19,1.1695840832206115e-19
"(72836390, 73080599)",332,-88.5924685657036,-88.1849371314072,244209.0,1.7323908198135438e-14,1.7323908198135438e-14
"(73080599, 73227125)",333,-89.5924685657036,-89.1849371314072,146526.0,6.304514696886049e-15,6.304514696886049e-15
"(73227125, 73227126)",334,-90.5924685657036,-90.1849371314072,1.0,2.6096948379606954e-20,2.6096948379606954e-20
"(73227126, 73373651)",335,-91.5924685657036,-91.1849371314072,146525.0,2.319285514948267e-15,2.319285514948267e-15
"(73373651, 73471335)",336,-92.5924685657036,-92.1849371314072,97684.0,9.37818249316209e-16,9.37818249316209e-16
"(73471335, 74106281)",337,-93.5924685657036,-93.1849371314072,634946.0,3.6973008894139964e-15,3.6973008894139964e-15
"(74106281, 74448175)",338,-94.5924685657036,-94.1849371314072,341894.0,1.207514187175896e-15,1.207514187175896e-15
"(74448175, 74448176)",339,-95.5924685657036,-95.1849371314072,1.0,2.1421679718279947e-21,2.1421679718279947e-21
"(74448176, 74448177)",340,-96.5924685657036,-96.1849371314072,1.0,1.2992905531681075e-21,1.2992905531681075e-21
"(74448177, 74448178)",341,-97.5924685657036,-97.1849371314072,1.0,7.880595563714446e-22,7.880595563714446e-22
"(74448178, 74545859)",342,-98.5924685657036,-98.1849371314072,97681.0,4.668978734848872e-17,4.668978734848872e-17
"(74545859, 74545860)",343,-99.5924685657036,-99.1849371314072,1.0,2.8991090920774178e-22,2.8991090920774178e-22
"(74545860, 74545861)",344,-100.5924685657036,-100.1849371314072,1.0,1.7583985501966101e-22,1.7583985501966101e-22
"(74545861, 74545862)",345,-101.5924685657036,-101.1849371314072,1.0,1.066522632688488e-22,1.066522632688488e-22
"(74545862, 74545863)",346,-102.5924685657036,-102.1849371314072,1.0,6.468786760030033e-23,6.468786760030033e-23
"(74545863, 74692385)",347,-103.5924685657036,-103.1849371314072,146522.0,5.748816312963741e-18,5.748816312963741e-18
"(74692385, 74692386)",348,-104.5924685657036,-104.1849371314072,1.0,2.3797336583370736e-23,2.3797336583370736e-23
"(74692386, 74692387)",349,-105.5924685657036,-105.1849371314072,1.0,1.443381425731544e-23,1.443381425731544e-23
"(74692387, 74692388)",350,-106.5924685657036,-106.1849371314072,1.0,8.754550883659146e-24,8.754550883659146e-24
"(74692388, 74790069)",351,-107.5924685657036,-107.1849371314072,97681.0,5.186766860256306e-19,5.186766860256306e-19
"(74790069, 74790070)",352,-108.5924685657036,-108.1849371314072,1.0,3.2206192867874836e-24,3.2206192867874836e-24
"(74790070, 75180805)",353,-109.5924685657036,-109.1849371314072,390735.0,7.632634450628062e-19,7.632634450628062e-19
"(75180805, 75180806)",354,-110.5924685657036,-110.1849371314072,1.0,1.1847996234493485e-24,1.1847996234493485e-24
"(75180806, 76304171)",355,-111.5924685657036,-111.1849371314072,1123365.0,8.072695201117805e-19,8.072695201117805e-19
"(76304171, 76450697)",356,-112.5924685657036,-112.1849371314072,146526.0,6.38653239733986e-20,6.38653239733986e-20
"(76450697, 76499539)",357,-113.5924685657036,-113.1849371314072,48842.0,1.2912092360782172e-20,1.2912092360782172e-20
"(76499539, 76499540)",358,-114.5924685657036,-114.1849371314072,1.0,1.6034519261814964e-25,1.6034519261814964e-25
"(76499540, 76841433)",359,-115.5924685657036,-115.1849371314072,341893.0,3.32505559999947e-20,3.32505559999947e-20
"(76841433, 76841434)",360,-116.5924685657036,-116.1849371314072,1.0,5.898769985489217e-26,5.898769985489217e-26
"(76841434, 76841435)",361,-117.5924685657036,-117.1849371314072,1.0,3.5777848507918556e-26,3.5777848507918556e-26
"(76841435, 76939117)",362,-118.5924685657036,-118.1849371314072,97682.0,2.1197347666088003e-21,2.1197347666088003e-21
"(76939117, 76939118)",363,-119.5924685657036,-119.1849371314072,1.0,1.31619349154096e-26,1.31619349154096e-26
"(76939118, 77085643)",364,-120.5924685657036,-120.1849371314072,146525.0,1.1697262282917193e-21,1.1697262282917193e-21
"(77085643, 77622905)",365,-121.5924685657036,-121.1849371314072,537262.0,2.6014254307587645e-21,2.6014254307587645e-21
"(77622905, 77622906)",366,-122.5924685657036,-122.1849371314072,1.0,2.9368246455385546e-27,2.9368246455385546e-27
"(77622906, 77622907)",367,-123.5924685657036,-123.1849371314072,1.0,1.78127418971882e-27,1.78127418971882e-27
"(77622907, 77622908)",368,-124.5924685657036,-124.1849371314072,1.0,1.0803974094192425e-27,1.0803974094192425e-27
"(77622908, 77818273)",369,-125.5924685657036,-125.1849371314072,195365.0,1.28021542295963e-22,1.28021542295963e-22
"(77818273, 78209009)",370,-126.5924685657036,-126.1849371314072,390736.0,1.553003657483698e-22,1.553003657483698e-22
"(78209009, 78404377)",371,-127.5924685657036,-127.1849371314072,195368.0,4.7097216645486e-23,4.7097216645486e-23
"(78404377, 78404378)",372,-128.5924685657036,-128.1849371314072,1.0,1.462158894118558e-28,1.462158894118558e-28
"(78404378, 78941639)",373,-129.5924685657036,-129.1849371314072,537261.0,4.7646680101327424e-23,4.7646680101327424e-23
"(78941639, 78990481)",374,-130.5924685657036,-130.1849371314072,48842.0,2.627202373163146e-24,2.627202373163146e-24
"(78990481, 79088165)",375,-131.5924685657036,-131.1849371314072,97684.0,3.186957577186479e-24,3.186957577186479e-24
"(79088165, 79430059)",376,-132.5924685657036,-132.1849371314072,341894.0,6.765456186184817e-24,6.765456186184817e-24
"(79430059, 79625427)",377,-133.5924685657036,-133.1849371314072,195368.0,2.3448323450649113e-24,2.3448323450649113e-24
"(79625427, 79625428)",378,-134.5924685657036,-134.1849371314072,1.0,7.279660482616098e-30,7.279660482616098e-30
"(79625428, 80065005)",379,-135.5924685657036,-135.1849371314072,439577.0,1.94088071333493e-24,1.94088071333493e-24
"(80065005, 80065006)",380,-136.5924685657036,-136.1849371314072,1.0,2.6780374302626422e-30,2.6780374302626422e-30
"(80065006, 80553425)",381,-137.5924685657036,-137.1849371314072,488419.0,7.93344749592517e-25,7.93344749592517e-25
"(80553425, 81334897)",382,-138.5924685657036,-138.1849371314072,781472.0,7.699022392717065e-25,7.699022392717065e-25
"(81334897, 81432581)",383,-139.5924685657036,-139.1849371314072,97684.0,5.837116413746274e-26,5.837116413746274e-26
"(81432581, 81627949)",384,-140.5924685657036,-140.1849371314072,195368.0,7.080780138497936e-26,7.080780138497936e-26
"(81627949, 82165211)",385,-141.5924685657036,-141.1849371314072,537262.0,1.181045318387898e-25,1.181045318387898e-25
"(82165211, 82165212)",386,-142.5924685657036,-142.1849371314072,1.0,1.3333163263218485e-31,1.3333163263218485e-31
"(82165212, 83972365)",387,-143.5924685657036,-143.1849371314072,1807153.0,1.4614396271107198e-25,1.4614396271107198e-25
"(83972365, 84118891)",388,-144.5924685657036,-144.1849371314072,146526.0,7.1870953918485e-27,7.1870953918485e-27
"(84118891, 84216575)",389,-145.5924685657036,-145.1849371314072,97684.0,2.906129139623665e-27,2.906129139623665e-27
"(84216575, 84363101)",390,-146.5924685657036,-146.1849371314072,146526.0,2.6439846363990743e-27,2.6439846363990743e-27
"(84363101, 84363102)",391,-147.5924685657036,-147.1849371314072,1.0,1.0944526881135072e-32,1.0944526881135072e-32
"(84363102, 84363103)",392,-148.5924685657036,-148.1849371314072,1.0,6.638191109457506e-33,6.638191109457506e-33
"(84363103, 84363104)",393,-149.5924685657036,-149.1849371314072,1.0,4.026266432917799e-33,4.026266432917799e-33
"(84363104, 84656153)",394,-150.5924685657036,-150.1849371314072,293049.0,7.15641493118535e-28,7.15641493118535e-28
"(84656153, 84753837)",395,-151.5924685657036,-151.1849371314072,97684.0,1.4468765016028503e-28,1.4468765016028503e-28
"(84753837, 84753838)",396,-152.5924685657036,-152.1849371314072,1.0,8.983814739771957e-34,8.983814739771957e-34
"(84753838, 85681835)",397,-153.5924685657036,-153.1849371314072,927997.0,5.056617680151526e-28,5.056617680151526e-28
"(85681835, 86609833)",398,-154.5924685657036,-154.1849371314072,927998.0,3.066996962417617e-28,3.066996962417617e-28
"(86609833, 88270461)",399,-155.5924685657036,-155.1849371314072,1660628.0,3.328828499597958e-28,3.328828499597958e-28
"(88270461, 88368145)",400,-156.5924685657036,-156.1849371314072,97684.0,1.1876685564302148e-29,1.1876685564302148e-29
"(88368145, 88368146)",401,-157.5924685657036,-157.1849371314072,1.0,7.374364205515429e-35,7.374364205515429e-35
"(88368146, 88465829)",402,-158.5924685657036,-158.1849371314072,97683.0,4.3691437205845444e-30,4.3691437205845444e-30
"(88465829, 88563513)",403,-159.5924685657036,-159.1849371314072,97684.0,2.6500467519952832e-30,2.6500467519952832e-30
"(88563513, 89442669)",404,-160.5924685657036,-160.1849371314072,879156.0,1.4466011442813182e-29,1.4466011442813182e-29
"(89442669, 89833405)",405,-161.5924685657036,-161.1849371314072,390736.0,3.899590872808882e-30,3.899590872808882e-30
"(89833405, 89833406)",406,-162.5924685657036,-162.1849371314072,1.0,6.053246756618625e-36,6.053246756618625e-36
"(89833406, 90028773)",407,-163.5924685657036,-163.1849371314072,195367.0,7.172859840633455e-31,7.172859840633455e-31
"(90028773, 90321825)",408,-164.5924685657036,-164.1849371314072,293052.0,6.525872519724009e-31,6.525872519724009e-31
"(90321825, 91103297)",409,-165.5924685657036,-165.1849371314072,781472.0,1.0555044705569995e-30,1.0555044705569995e-30
"(91103297, 91249823)",410,-166.5924685657036,-166.1849371314072,146526.0,1.2003671678560701e-31,1.2003671678560701e-31
"(91249823, 91249824)",411,-167.5924685657036,-167.1849371314072,1.0,4.968807516871597e-37,4.968807516871597e-37
"(91249824, 91249825)",412,-168.5924685657036,-168.1849371314072,1.0,3.0137341011932215e-37,3.0137341011932215e-37
"(91249825, 91689401)",413,-169.5924685657036,-169.1849371314072,439576.0,8.035106993576611e-32,8.035106993576611e-32
"(91689401, 91689402)",414,-170.5924685657036,-170.1849371314072,1.0,1.1086908169862812e-37,1.1086908169862812e-37
"(91689402, 92324347)",415,-171.5924685657036,-171.1849371314072,634945.0,4.2697192260546225e-32,4.2697192260546225e-32
"(92324347, 92324348)",416,-172.5924685657036,-172.1849371314072,1.0,4.07864558184823e-38,4.07864558184823e-38
"(92324348, 92666241)",417,-173.5924685657036,-173.1849371314072,341893.0,8.457829705336914e-33,8.457829705336914e-33
"(92666241, 93301187)",418,-174.5924685657036,-174.1849371314072,634946.0,9.52704635148255e-33,9.52704635148255e-33
"(93301187, 93301188)",419,-175.5924685657036,-175.1849371314072,1.0,9.100688418664813e-39,9.100688418664813e-39
"(93301188, 93301189)",420,-176.5924685657036,-176.1849371314072,1.0,5.519846550411892e-39,5.519846550411892e-39
"(93301189, 93301190)",421,-177.5924685657036,-177.1849371314072,1.0,3.3479561697338284e-39,3.3479561697338284e-39
"(93301190, 93301191)",422,-178.5924685657036,-178.1849371314072,1.0,2.0306380643176404e-39,2.0306380643176404e-39
"(93301191, 93301192)",423,-179.5924685657036,-179.1849371314072,1.0,1.2316442447881634e-39,1.2316442447881634e-39
"(93301192, 93301193)",424,-180.5924685657036,-180.1849371314072,1.0,7.470299963226329e-40,7.470299963226329e-40
"(93301193, 93691923)",425,-181.5924685657036,-181.1849371314072,390730.0,1.7703843314837126e-34,1.7703843314837126e-34
"(93691923, 93691924)",426,-182.5924685657036,-182.1849371314072,1.0,2.748169775854748e-40,2.748169775854748e-40
"(93691924, 93691925)",427,-183.5924685657036,-183.1849371314072,1.0,1.6668492271515002e-40,1.6668492271515002e-40
"(93691925, 93691926)",428,-184.5924685657036,-184.1849371314072,1.0,1.0109951613856927e-40,1.0109951613856927e-40
"(93691926, 93691927)",429,-185.5924685657036,-185.1849371314072,1.0,6.131995622015445e-41,6.131995622015445e-41
"(93691927, 93691928)",430,-186.5924685657036,-186.1849371314072,1.0,3.7192433499760076e-41,3.7192433499760076e-41
"(93691928, 93789607)",431,-187.5924685657036,-187.1849371314072,97679.0,2.2034771894950735e-36,2.2034771894950735e-36
"(93789607, 93789608)",432,-188.5924685657036,-188.1849371314072,1.0,1.3682331651697766e-41,1.3682331651697766e-41
"(93789608, 94619921)",433,-189.5924685657036,-189.1849371314072,830313.0,6.890563033672667e-36,6.890563033672667e-36
"(94619921, 94766447)",434,-190.5924685657036,-190.1849371314072,146526.0,7.375310781270863e-37,7.375310781270863e-37
"(94766447, 95450235)",435,-191.5924685657036,-191.1849371314072,683788.0,2.0875643197499597e-36,2.0875643197499597e-36
"(95450235, 95450236)",436,-192.5924685657036,-192.1849371314072,1.0,1.8517022294197882e-42,1.8517022294197882e-42
"(95450236, 95450237)",437,-193.5924685657036,-193.1849371314072,1.0,1.123114174801338e-42,1.123114174801338e-42
"(95450237, 95450238)",438,-194.5924685657036,-194.1849371314072,1.0,6.812031813748655e-43,6.812031813748655e-43
"(95450238, 95450239)",439,-195.5924685657036,-195.1849371314072,1.0,4.131706149976418e-43,4.131706149976418e-43
"(95450239, 95596761)",440,-196.5924685657036,-196.1849371314072,146522.0,3.671850780755489e-38,3.671850780755489e-38
"(95596761, 95792129)",441,-197.5924685657036,-197.1849371314072,195368.0,2.9695345002772753e-38,2.9695345002772753e-38
"(95792129, 96378233)",442,-198.5924685657036,-198.1849371314072,586104.0,5.403341158477804e-38,5.403341158477804e-38
"(96378233, 96475917)",443,-199.5924685657036,-199.1849371314072,97684.0,5.4621534625066114e-39,5.4621534625066114e-39
"(96475917, 96768969)",444,-200.5924685657036,-200.1849371314072,293052.0,9.938890629197341e-39,9.938890629197341e-39
"(96768969, 97159705)",445,-201.5924685657036,-201.1849371314072,390736.0,8.037655853518365e-39,8.037655853518365e-39
"(97159705, 97452757)",446,-202.5924685657036,-202.1849371314072,293052.0,3.6563135305332026e-39,3.6563135305332026e-39
"(97452757, 97501599)",447,-203.5924685657036,-203.1849371314072,48842.0,3.696110429650885e-40,3.696110429650885e-40
"(97501599, 97501600)",448,-204.5924685657036,-204.1849371314072,1.0,4.589910931712248e-45,4.589910931712248e-45
"(97501600, 97501601)",449,-205.5924685657036,-205.1849371314072,1.0,2.7839217054336582e-45,2.7839217054336582e-45
"(97501601, 97501602)",450,-206.5924685657036,-206.1849371314072,1.0,1.688533868584996e-45,1.688533868584996e-45
"(97501602, 97696967)",451,-207.5924685657036,-207.1849371314072,195365.0,2.0008258830555656e-40,2.0008258830555656e-40
"(97696967, 98087703)",452,-208.5924685657036,-208.1849371314072,390736.0,2.427161756253367e-40,2.427161756253367e-40
"(98087703, 98087704)",453,-209.5924685657036,-209.1849371314072,1.0,3.767628325134179e-46,3.767628325134179e-46
"(98087704, 98673807)",454,-210.5924685657036,-210.1849371314072,586103.0,1.3393520806026842e-40,1.3393520806026842e-40
"(98673807, 98966859)",455,-211.5924685657036,-211.1849371314072,293052.0,4.061797435342185e-41,4.061797435342185e-41
"(98966859, 99601805)",456,-212.5924685657036,-212.1849371314072,634946.0,5.337810135833886e-41,5.337810135833886e-41
"(99601805, 99894857)",457,-213.5924685657036,-213.1849371314072,293052.0,1.4942517706652808e-41,1.4942517706652808e-41
"(99894857, 100041383)",458,-214.5924685657036,-214.1849371314072,146526.0,4.5315475611919165e-42,4.5315475611919165e-42
"(100041383, 100041384)",459,-215.5924685657036,-215.1849371314072,1.0,1.875791690081561e-47,1.875791690081561e-47
"(100041384, 100285593)",460,-216.5924685657036,-216.1849371314072,244209.0,2.7784272635034448e-42,2.7784272635034448e-42
"(100285593, 100285594)",461,-217.5924685657036,-217.1849371314072,1.0,6.9006519870124e-48,6.9006519870124e-48
"(100285594, 100285595)",462,-218.5924685657036,-218.1849371314072,1.0,4.185457002129926e-48,4.185457002129926e-48
"(100285595, 100822855)",463,-219.5924685657036,-219.1849371314072,537260.0,1.3638925323074315e-42,1.3638925323074315e-42
"(100822855, 101067065)",464,-220.5924685657036,-220.1849371314072,244210.0,3.7602078040214844e-43,3.7602078040214844e-43
"(101067065, 101067066)",465,-221.5924685657036,-221.1849371314072,1.0,9.339016911796172e-49,9.339016911796172e-49
"(101067066, 101067067)",466,-222.5924685657036,-222.1849371314072,1.0,5.664400088579174e-49,5.664400088579174e-49
"(101067067, 101115907)",467,-223.5924685657036,-223.1849371314072,48840.0,1.6779628263589266e-44,1.6779628263589266e-44
"(101115907, 101506643)",468,-224.5924685657036,-224.1849371314072,390736.0,8.142220610972304e-44,8.142220610972304e-44
"(101506643, 101506644)",469,-225.5924685657036,-225.1849371314072,1.0,1.263898498909451e-49,1.263898498909451e-49
"(101506644, 102434641)",470,-226.5924685657036,-226.1849371314072,927997.0,7.113961808683437e-44,7.113961808683437e-44
"(102434641, 102434642)",471,-227.5924685657036,-227.1849371314072,1.0,4.649622734762337e-50,4.649622734762337e-50
"(102434642, 102630009)",472,-228.5924685657036,-228.1849371314072,195367.0,5.5096204614171646e-45,5.5096204614171646e-45
"(102630009, 102776535)",473,-229.5924685657036,-229.1849371314072,146526.0,2.5063281286767823e-45,2.5063281286767823e-45
"(102776535, 102776536)",474,-230.5924685657036,-230.1849371314072,1.0,1.0374710654373006e-50,1.0374710654373006e-50
"(102776536, 102825377)",475,-231.5924685657036,-231.1849371314072,48841.0,3.073359045431963e-46,3.073359045431963e-46
"(102825377, 103558007)",476,-232.5924685657036,-232.1849371314072,732630.0,2.796186983680825e-45,2.796186983680825e-45
"(103558007, 103997585)",477,-233.5924685657036,-233.1849371314072,439578.0,1.0175838815350854e-45,1.0175838815350854e-45
"(103997585, 103997586)",478,-234.5924685657036,-234.1849371314072,1.0,1.4040644049074738e-51,1.4040644049074738e-51
"(103997586, 103997587)",479,-235.5924685657036,-235.1849371314072,1.0,8.516081097875563e-52,8.516081097875563e-52
"(103997587, 104046427)",480,-236.5924685657036,-236.1849371314072,48840.0,2.522715077507431e-47,2.522715077507431e-47
"(104046427, 104290637)",481,-237.5924685657036,-237.1849371314072,244210.0,7.650833490253474e-47,7.650833490253474e-47
"(104290637, 104339479)",482,-238.5924685657036,-238.1849371314072,48842.0,9.280930168389898e-48,9.280930168389898e-48
"(104339479, 104437163)",483,-239.5924685657036,-239.1849371314072,97684.0,1.1258337395560813e-47,1.1258337395560813e-47
"(104437163, 104583689)",484,-240.5924685657036,-240.1849371314072,146526.0,1.0242790211695369e-47,1.0242790211695369e-47
"(104583689, 104632531)",485,-241.5924685657036,-241.1849371314072,48842.0,2.0708554347992317e-48,2.0708554347992317e-48
"(104632531, 104632532)",486,-242.5924685657036,-242.1849371314072,1.0,2.5716336616810743e-53,2.5716336616810743e-53
"(104632532, 104632533)",487,-243.5924685657036,-243.1849371314072,1.0,1.5597746613586373e-53,1.5597746613586373e-53
"(104632533, 104827899)",488,-244.5924685657036,-244.1849371314072,195366.0,1.8482622982209082e-48,1.8482622982209082e-48
"(104827899, 105218635)",489,-245.5924685657036,-245.1849371314072,390736.0,2.242078454485062e-48,2.242078454485062e-48
"(105218635, 105365161)",490,-246.5924685657036,-246.1849371314072,146526.0,5.0995849654736485e-49,5.0995849654736485e-49
"(105365161, 105365162)",491,-247.5924685657036,-247.1849371314072,1.0,2.1109254558026284e-54,2.1109254558026284e-54
"(105365162, 105365163)",492,-248.5924685657036,-248.1849371314072,1.0,1.2803410093121596e-54,1.2803410093121596e-54
"(105365163, 105560529)",493,-249.5924685657036,-249.1849371314072,195366.0,1.5171460820606729e-49,1.5171460820606729e-49
"(105560529, 105560530)",494,-250.5924685657036,-250.1849371314072,1.0,4.7101113501463774e-55,4.7101113501463774e-55
"(105560530, 105560531)",495,-251.5924685657036,-251.1849371314072,1.0,2.8568269445242444e-55,2.8568269445242444e-55
"(105560531, 105560532)",496,-252.5924685657036,-252.1849371314072,1.0,1.7327531313471167e-55,1.7327531313471167e-55
"(105560532, 105560533)",497,-253.5924685657036,-253.1849371314072,1.0,1.050967899875098e-55,1.050967899875098e-55
"(105560533, 105853581)",498,-254.5924685657036,-254.1849371314072,293048.0,1.86801763643052e-50,1.86801763643052e-50
"(105853581, 106048949)",499,-255.5924685657036,-255.1849371314072,195368.0,7.553502897055904e-51,7.553502897055904e-51
"(106048949, 106244317)",500,-256.5924685657036,-256.1849371314072,195368.0,4.5814310952926046e-51,4.5814310952926046e-51
"(106244317, 106244318)",501,-257.5924685657036,-257.1849371314072,1.0,1.422330384021844e-56,1.422330384021844e-56
"(106244318, 106293159)",502,-258.5924685657036,-258.1849371314072,48841.0,4.213449509055666e-52,4.213449509055666e-52
"(106293159, 106293160)",503,-259.5924685657036,-259.1849371314072,1.0,5.232461068351189e-57,5.232461068351189e-57
"(106293160, 107318841)",504,-260.5924685657036,-260.1849371314072,1025681.0,3.2551505196317954e-51,3.2551505196317954e-51
"(107318841, 107318842)",505,-261.5924685657036,-261.1849371314072,1.0,1.9249148537763637e-57,1.9249148537763637e-57
"(107318842, 107318843)",506,-262.5924685657036,-262.1849371314072,1.0,1.1675198761516252e-57,1.1675198761516252e-57
"(107318843, 107318844)",507,-263.5924685657036,-263.1849371314072,1.0,7.081366007098574e-58,7.081366007098574e-58
"(107318844, 107318845)",508,-264.5924685657036,-264.1849371314072,1.0,4.295065595952114e-58,4.295065595952114e-58
"(107318845, 107318846)",509,-265.5924685657036,-265.1849371314072,1.0,2.605088969421871e-58,2.605088969421871e-58
"(107318846, 107465367)",510,-266.5924685657036,-266.1849371314072,146521.0,2.3151289891867124e-53,2.3151289891867124e-53
"(107465367, 107465368)",511,-267.5924685657036,-267.1849371314072,1.0,9.583586742728063e-59,9.583586742728063e-59
"(107465368, 107465369)",512,-268.5924685657036,-268.1849371314072,1.0,5.812739189480101e-59,5.812739189480101e-59
"(107465369, 107465370)",513,-269.5924685657036,-269.1849371314072,1.0,3.5256045353328433e-59,3.5256045353328433e-59
"(107465370, 108442207)",514,-270.5924685657036,-270.1849371314072,976837.0,2.088855780952266e-53,2.088855780952266e-53
"(108442207, 109028311)",515,-271.5924685657036,-271.1849371314072,586104.0,7.601753795146829e-54,7.601753795146829e-54
"(109028311, 109419047)",516,-272.5924685657036,-272.1849371314072,390736.0,3.07379782956228e-54,3.07379782956228e-54
"(109419047, 109467889)",517,-273.5924685657036,-273.1849371314072,48842.0,2.330440781734589e-55,2.330440781734589e-55
"(109467889, 110053993)",518,-274.5924685657036,-274.1849371314072,586104.0,1.6961805417200462e-54,1.6961805417200462e-54
"(110053993, 110347045)",519,-275.5924685657036,-275.1849371314072,293052.0,5.1439275148059574e-55,5.1439275148059574e-55
"(110347045, 110640097)",520,-276.5924685657036,-276.1849371314072,293052.0,3.1199497490692243e-55,3.1199497490692243e-55
"(110640097, 111177359)",521,-277.5924685657036,-277.1849371314072,537262.0,3.4692994958842396e-55,3.4692994958842396e-55
"(111177359, 111177360)",522,-278.5924685657036,-278.1849371314072,1.0,3.9165928578223934e-61,3.9165928578223934e-61
"(111177360, 111177361)",523,-279.5924685657036,-279.1849371314072,1.0,2.3755336498808045e-61,2.3755336498808045e-61
"(111177361, 111226201)",524,-280.5924685657036,-280.1849371314072,48840.0,7.037033216106336e-57,7.037033216106336e-57
"(111226201, 111226202)",525,-281.5924685657036,-281.1849371314072,1.0,8.739099916021072e-62,8.739099916021072e-62
"(111226202, 111372727)",526,-282.5924685657036,-282.1849371314072,146525.0,7.766604567740098e-57,7.766604567740098e-57
"(111372727, 111519253)",527,-283.5924685657036,-283.1849371314072,146526.0,4.710715941550488e-57,4.710715941550488e-57
"(111519253, 111616937)",528,-284.5924685657036,-284.1849371314072,97684.0,1.904795765164958e-57,1.904795765164958e-57
"(111616937, 112203041)",529,-285.5924685657036,-285.1849371314072,586104.0,6.931902192379993e-57,6.931902192379993e-57
"(112203041, 112203042)",530,-286.5924685657036,-286.1849371314072,1.0,7.173490045807037e-63,7.173490045807037e-63
"(112203042, 112544935)",531,-287.5924685657036,-287.1849371314072,341893.0,1.487556493517928e-57,1.487556493517928e-57
"(112544935, 112544936)",532,-288.5924685657036,-288.1849371314072,1.0,2.6389795093003967e-63,2.6389795093003967e-63
"(112544936, 112691461)",533,-289.5924685657036,-289.1849371314072,146525.0,2.34531136021578e-58,2.34531136021578e-58
"(112691461, 112984513)",534,-290.5924685657036,-290.1849371314072,293052.0,2.845025909612564e-58,2.845025909612564e-58
"(112984513, 113961353)",535,-291.5924685657036,-291.1849371314072,976840.0,5.751984806189479e-58,5.751984806189479e-58
"(113961353, 114059037)",536,-292.5924685657036,-292.1849371314072,97684.0,3.488755139155148e-59,3.488755139155148e-59
"(114059037, 114059038)",537,-293.5924685657036,-293.1849371314072,1.0,2.166206293894202e-64,2.166206293894202e-64
"(114059038, 114059039)",538,-294.5924685657036,-294.1849371314072,1.0,1.3138705325093089e-64,1.3138705325093089e-64
"(114059039, 114059040)",539,-295.5924685657036,-295.1849371314072,1.0,7.969027608598601e-65,7.969027608598601e-65
"(114059040, 114059041)",540,-296.5924685657036,-296.1849371314072,1.0,4.833459572711499e-65,4.833459572711499e-65
"(114059041, 115035877)",541,-297.5924685657036,-297.1849371314072,976836.0,2.8637328814010082e-59,2.8637328814010082e-59
"(115035877, 115035878)",542,-298.5924685657036,-298.1849371314072,1.0,1.7781304065338647e-65,1.7781304065338647e-65
"(115035878, 115035879)",543,-299.5924685657036,-299.1849371314072,1.0,1.0784906085300782e-65,1.0784906085300782e-65
"(115035879, 115426613)",544,-300.5924685657036,-300.1849371314072,390734.0,2.5559380892468446e-60,2.5559380892468446e-60
"(115426613, 115768507)",545,-301.5924685657036,-301.1849371314072,341894.0,1.356479906727736e-60,1.356479906727736e-60
"(115768507, 115866191)",546,-302.5924685657036,-302.1849371314072,97684.0,2.3507047220414433e-61,2.3507047220414433e-61
"(115866191, 116256927)",547,-303.5924685657036,-303.1849371314072,390736.0,5.7030979433975965e-61,5.7030979433975965e-61
"(116256927, 116256928)",548,-304.5924685657036,-304.1849371314072,1.0,8.852790011707924e-67,8.852790011707924e-67
"(116256928, 116745347)",549,-305.5924685657036,-305.1849371314072,488419.0,2.622560235965321e-61,2.622560235965321e-61
"(116745347, 116745348)",550,-306.5924685657036,-306.1849371314072,1.0,3.256759442315237e-67,3.256759442315237e-67
"(116745348, 116745349)",551,-307.5924685657036,-307.1849371314072,1.0,1.975324453072809e-67,1.975324453072809e-67
"(116745349, 117087241)",552,-308.5924685657036,-308.1849371314072,341892.0,4.096190422915955e-62,4.096190422915955e-62
"(117087241, 117673345)",553,-309.5924685657036,-309.1849371314072,586104.0,4.2591079082484065e-62,4.2591079082484065e-62
"(117673345, 117673346)",554,-310.5924685657036,-310.1849371314072,1.0,4.407544615592454e-68,4.407544615592454e-68
"(117673346, 117673347)",555,-311.5924685657036,-311.1849371314072,1.0,2.6733109434081567e-68,2.6733109434081567e-68
"(117673347, 117673348)",556,-312.5924685657036,-312.1849371314072,1.0,1.6214450501223515e-68,1.6214450501223515e-68
"(117673348, 117771029)",557,-313.5924685657036,-313.1849371314072,97681.0,9.6064978814608e-64,9.6064978814608e-64
"(117771029, 117771030)",558,-314.5924685657036,-314.1849371314072,1.0,5.96496298929212e-69,5.96496298929212e-69
"(117771030, 118699027)",559,-315.5924685657036,-315.1849371314072,927997.0,3.357430911789891e-63,3.357430911789891e-63
"(118699027, 118699028)",560,-316.5924685657036,-316.1849371314072,1.0,2.194387251109121e-69,2.194387251109121e-69
"(118699028, 118796711)",561,-317.5924685657036,-317.1849371314072,97683.0,1.300124730962359e-64,1.300124730962359e-64
"(118796711, 118796712)",562,-318.5924685657036,-318.1849371314072,1.0,8.072699556517609e-70,8.072699556517609e-70
"(118796712, 120017761)",563,-319.5924685657036,-319.1849371314072,1221049.0,5.978670801402613e-64,5.978670801402613e-64
"(120017761, 120017762)",564,-320.5924685657036,-320.1849371314072,1.0,2.9697802015966486e-70,2.9697802015966486e-70
"(120017762, 120017763)",565,-321.5924685657036,-321.1849371314072,1.0,1.8012627448759325e-70,1.8012627448759325e-70
"(120017763, 120017764)",566,-322.5924685657036,-322.1849371314072,1.0,1.0925210809653884e-70,1.0925210809653884e-70
"(120017764, 120017765)",567,-323.5924685657036,-323.1849371314072,1.0,6.6264753198789645e-71,6.6264753198789645e-71
"(120017765, 120017766)",568,-324.5924685657036,-324.1849371314072,1.0,4.0191604473356715e-71,4.0191604473356715e-71
"(120017766, 120213129)",569,-325.5924685657036,-325.1849371314072,195363.0,4.762449884202721e-66,4.762449884202721e-66
"(120213129, 120213130)",570,-326.5924685657036,-326.1849371314072,1.0,1.478566499344211e-71,1.478566499344211e-71
"(120213130, 120408497)",571,-327.5924685657036,-327.1849371314072,195367.0,1.7520432738440684e-66,1.7520432738440684e-66
"(120408497, 120408498)",572,-328.5924685657036,-328.1849371314072,1.0,5.439342175135641e-72,5.439342175135641e-72
"(120408498, 120506181)",573,-329.5924685657036,-329.1849371314072,97683.0,3.2226870068107114e-67,3.2226870068107114e-67
"(120506181, 120506182)",574,-330.5924685657036,-330.1849371314072,1.0,2.001022159729157e-72,2.001022159729157e-72
"(120506182, 120506183)",575,-331.5924685657036,-331.1849371314072,1.0,1.213681290640124e-72,1.213681290640124e-72
"(120506183, 121238811)",576,-332.5924685657036,-332.1849371314072,732628.0,5.393130496954798e-67,5.393130496954798e-67
"(121238811, 121238812)",577,-333.5924685657036,-333.1849371314072,1.0,4.464883949609237e-73,4.464883949609237e-73
"(121238812, 121629547)",578,-334.5924685657036,-334.1849371314072,390735.0,1.0581451583442774e-67,1.0581451583442774e-67
"(121629547, 121629548)",579,-335.5924685657036,-335.1849371314072,1.0,1.6425390122775884e-73,1.6425390122775884e-73
"(121629548, 121824915)",580,-336.5924685657036,-336.1849371314072,195367.0,1.946344266398447e-68,1.946344266398447e-68
"(121824915, 122264493)",581,-337.5924685657036,-337.1849371314072,439578.0,2.6561779076022548e-68,2.6561779076022548e-68
"(122264493, 122362177)",582,-338.5924685657036,-338.1849371314072,97684.0,3.5801185302491513e-69,3.5801185302491513e-69
"(122362177, 122801755)",583,-339.5924685657036,-339.1849371314072,439578.0,9.771532443006485e-69,9.771532443006485e-69
"(122801755, 122801756)",584,-340.5924685657036,-340.1849371314072,1.0,1.3482781256250595e-74,1.3482781256250595e-74
"(122801756, 122801757)",585,-341.5924685657036,-341.1849371314072,1.0,8.177720210114801e-75,8.177720210114801e-75
"(122801757, 122801758)",586,-342.5924685657036,-342.1849371314072,1.0,4.960038033986266e-75,4.960038033986266e-75
"(122801758, 122801759)",587,-343.5924685657036,-343.1849371314072,1.0,3.008415140953443e-75,3.008415140953443e-75
"(122801759, 123339017)",588,-344.5924685657036,-344.1849371314072,537258.0,9.803325343840602e-70,9.803325343840602e-70
"(123339017, 123339018)",589,-345.5924685657036,-345.1849371314072,1.0,1.1067340808656584e-75,1.1067340808656584e-75
"(123339018, 123339019)",590,-346.5924685657036,-346.1849371314072,1.0,6.712681521939028e-76,6.712681521939028e-76
"(123339019, 123339020)",591,-347.5924685657036,-347.1849371314072,1.0,4.071447151942484e-76,4.071447151942484e-76
"(123339020, 123973963)",592,-348.5924685657036,-348.1849371314072,634943.0,1.567964770599484e-70,1.567964770599484e-70
"(123973963, 124267015)",593,-349.5924685657036,-349.1849371314072,293052.0,4.389337846721455e-71,4.389337846721455e-71
"(124267015, 124267016)",594,-350.5924685657036,-350.1849371314072,1.0,9.084626550487947e-77,9.084626550487947e-77
"(124267016, 124267017)",595,-351.5924685657036,-351.1849371314072,1.0,5.51010453491036e-77,5.51010453491036e-77
"(124267017, 124267018)",596,-352.5924685657036,-352.1849371314072,1.0,3.342047338644754e-77,3.342047338644754e-77
"(124267018, 124462383)",597,-353.5924685657036,-353.1849371314072,195365.0,3.9601543930895653e-72,3.9601543930895653e-72
"(124462383, 124462384)",598,-354.5924685657036,-354.1849371314072,1.0,1.2294705073091382e-77,1.2294705073091382e-77
"(124462384, 124706593)",599,-355.5924685657036,-355.1849371314072,244209.0,1.8210947384208692e-72,1.8210947384208692e-72
"(124706593, 124706594)",600,-356.5924685657036,-356.1849371314072,1.0,4.522969231656553e-78,4.522969231656553e-78
"(124706594, 124706595)",601,-357.5924685657036,-357.1849371314072,1.0,2.7433195119365923e-78,2.7433195119365923e-78
"(124706595, 125634591)",602,-358.5924685657036,-358.1849371314072,927996.0,1.5440994054246918e-72,1.5440994054246918e-72
"(125634591, 125634592)",603,-359.5924685657036,-359.1849371314072,1.0,1.0092108490059476e-78,1.0092108490059476e-78
"(125634592, 126171853)",604,-360.5924685657036,-360.1849371314072,537261.0,3.288667645547726e-73,3.288667645547726e-73
"(126171853, 126562589)",605,-361.5924685657036,-361.1849371314072,390736.0,1.4506774322246444e-73,1.4506774322246444e-73
"(126562589, 127490587)",606,-362.5924685657036,-362.1849371314072,927998.0,2.0897158074939264e-73,2.0897158074939264e-73
"(127490587, 127783639)",607,-363.5924685657036,-363.1849371314072,293052.0,4.002558023151188e-74,4.002558023151188e-74
"(127783639, 127783640)",608,-364.5924685657036,-364.1849371314072,1.0,8.284107115187694e-80,8.284107115187694e-80
"(127783640, 127783641)",609,-365.5924685657036,-365.1849371314072,1.0,5.024564953704913e-80,5.024564953704913e-80
"(127783641, 127783642)",610,-366.5924685657036,-366.1849371314072,1.0,3.047552696139618e-80,3.047552696139618e-80
"(127783642, 128125533)",611,-367.5924685657036,-367.1849371314072,341891.0,6.319629990540579e-75,6.319629990540579e-75
"(128125533, 128418585)",612,-368.5924685657036,-368.1849371314072,293052.0,3.2854996982244034e-75,3.2854996982244034e-75
"(128418585, 128760479)",613,-369.5924685657036,-369.1849371314072,341894.0,2.32488234935799e-75,2.32488234935799e-75
"(128760479, 128809321)",614,-370.5924685657036,-370.1849371314072,48842.0,2.014446321586227e-76,2.014446321586227e-76
"(128809321, 128809322)",615,-371.5924685657036,-371.1849371314072,1.0,2.5015835886887963e-81,2.5015835886887963e-81
"(128809322, 129004689)",616,-372.5924685657036,-372.1849371314072,195367.0,2.964278375348591e-76,2.964278375348591e-76
"(129004689, 129590793)",617,-373.5924685657036,-373.1849371314072,586104.0,5.3938047641514014e-76,5.3938047641514014e-76
"(129590793, 129786161)",618,-374.5924685657036,-374.1849371314072,195368.0,1.0905026539872981e-76,1.0905026539872981e-76
"(129786161, 130030371)",619,-375.5924685657036,-375.1849371314072,244210.0,8.26779117676617e-77,8.26779117676617e-77
"(130030371, 130079213)",620,-376.5924685657036,-376.1849371314072,48842.0,1.0029337673620551e-77,1.0029337673620551e-77
"(130079213, 130176897)",621,-377.5924685657036,-377.1849371314072,97684.0,1.216620159132368e-77,1.216620159132368e-77
"(130176897, 130176898)",622,-378.5924685657036,-378.1849371314072,1.0,7.554127879061507e-83,7.554127879061507e-83
"(130176898, 131642157)",623,-379.5924685657036,-379.1849371314072,1465259.0,6.713538582082736e-77,6.713538582082736e-77
"(131642157, 132716681)",624,-380.5924685657036,-380.1849371314072,1074524.0,2.9861111604171482e-77,2.9861111604171482e-77
"(132716681, 132716682)",625,-381.5924685657036,-381.1849371314072,1.0,1.6855537634367127e-83,1.6855537634367127e-83
"(132716682, 132716683)",626,-382.5924685657036,-382.1849371314072,1.0,1.0223400361183814e-83,1.0223400361183814e-83
"(132716683, 133156259)",627,-383.5924685657036,-383.1849371314072,439576.0,2.7257253952084814e-78,2.7257253952084814e-78
"(133156259, 133205101)",628,-384.5924685657036,-384.1849371314072,48842.0,1.8369372712321134e-79,1.8369372712321134e-79
"(133205101, 133302785)",629,-385.5924685657036,-385.1849371314072,97684.0,2.2283175499422772e-79,2.2283175499422772e-79
"(133302785, 133302786)",630,-386.5924685657036,-386.1849371314072,1.0,1.3835867835221e-84,1.3835867835221e-84
"(133302786, 133302787)",631,-387.5924685657036,-387.1849371314072,1.0,8.391878045793398e-85,8.391878045793398e-85
"(133302787, 133791205)",632,-388.5924685657036,-388.1849371314072,488418.0,2.4860140790382305e-79,2.4860140790382305e-79
"(133791205, 133791206)",633,-389.5924685657036,-389.1849371314072,1.0,3.087199405865371e-85,3.087199405865371e-85
"(133791206, 133937731)",634,-390.59246856570365,-390.18493713140725,146525.0,2.7436529204983194e-80,2.7436529204983194e-80
"(133937731, 134035415)",635,-391.59246856570365,-391.18493713140725,97684.0,1.1094139820428406e-80,1.1094139820428406e-80
"(134035415, 134670361)",636,-392.59246856570365,-392.18493713140725,634946.0,4.373808363748614e-80,4.373808363748614e-80
"(134670361, 135256465)",637,-393.59246856570365,-393.18493713140725,586104.0,2.4487835744502283e-80,2.4487835744502283e-80
"(135256465, 135500675)",638,-394.59246856570365,-394.18493713140725,244210.0,6.188592987103156e-81,6.188592987103156e-81
"(135500675, 135549517)",639,-395.59246856570365,-395.18493713140725,48842.0,7.507142774321309e-82,7.507142774321309e-82
"(135549517, 135696043)",640,-396.59246856570365,-396.18493713140725,146526.0,1.3659936778398096e-81,1.3659936778398096e-81
"(135696043, 135696044)",641,-397.59246856570365,-397.18493713140725,1.0,5.654402949534323e-87,5.654402949534323e-87
"(135696044, 136086779)",642,-398.59246856570365,-398.18493713140725,390735.0,1.3400525460244018e-81,1.3400525460244018e-81
"(136086779, 136086780)",643,-399.59246856570365,-399.18493713140725,1.0,2.080138597232842e-87,2.080138597232842e-87
"(136086780, 136233305)",644,-400.59246856570365,-400.18493713140725,146525.0,1.8486587962203725e-82,1.8486587962203725e-82
"(136233305, 136233306)",645,-401.59246856570365,-401.18493713140725,1.0,7.652402247091659e-88,7.652402247091659e-88
"(136233306, 137112461)",646,-402.59246856570365,-402.18493713140725,879155.0,4.080524596304248e-82,4.080524596304248e-82
"(137112461, 137356671)",647,-403.59246856570365,-403.18493713140725,244210.0,6.874905807031958e-83,6.874905807031958e-83
"(137356671, 137405513)",648,-404.59246856570365,-404.18493713140725,48842.0,8.339682309202616e-84,8.339682309202616e-84
"(137405513, 137503197)",649,-405.59246856570365,-405.18493713140725,97684.0,1.0116546025588883e-83,1.0116546025588883e-83
"(137503197, 138431195)",650,-406.59246856570365,-406.18493713140725,927998.0,5.829195568167963e-83,5.829195568167963e-83
"(138431195, 138626563)",651,-407.59246856570365,-407.18493713140725,195368.0,7.443338596957628e-84,7.443338596957628e-84
"(138626563, 138870773)",652,-408.59246856570365,-408.18493713140725,244210.0,5.643266337096522e-84,5.643266337096522e-84
"(138870773, 138870774)",653,-409.59246856570365,-409.18493713140725,1.0,1.4015863618906882e-89,1.4015863618906882e-89
"(138870774, 138870775)",654,-410.59246856570365,-410.18493713140725,1.0,8.501051007217887e-90,8.501051007217887e-90
"(138870775, 138870776)",655,-411.59246856570365,-411.18493713140725,1.0,5.156148075658612e-90,5.156148075658612e-90
"(138870776, 138870777)",656,-412.59246856570365,-412.18493713140725,1.0,3.1273618939052436e-90,3.1273618939052436e-90
"(138870777, 138870778)",657,-413.59246856570365,-413.18493713140725,1.0,1.8968408726704984e-90,1.8968408726704984e-90
"(138870778, 139017299)",658,-414.59246856570365,-414.18493713140725,146521.0,1.685712597051244e-85,1.685712597051244e-85
"(139017299, 139994139)",659,-415.59246856570365,-415.18493713140725,976840.0,6.816475093422663e-85,6.816475093422663e-85
"(139994139, 140287191)",660,-416.59246856570365,-416.18493713140725,293052.0,1.2403203405985145e-85,1.2403203405985145e-85
"(140287191, 140336033)",661,-417.59246856570365,-417.18493713140725,48842.0,1.253820524063692e-86,1.253820524063692e-86
"(140336033, 140336034)",662,-418.59246856570365,-418.18493713140725,1.0,1.5570218042291284e-91,1.5570218042291284e-91
"(140336034, 140336035)",663,-419.59246856570365,-419.18493713140725,1.0,9.44381462106048e-92,9.44381462106048e-92
"(140336035, 140580243)",664,-420.59246856570365,-420.18493713140725,244208.0,1.3988144157323744e-86,1.3988144157323744e-86
"(140580243, 140580244)",665,-421.59246856570365,-421.18493713140725,1.0,3.474185245322426e-92,3.474185245322426e-92
"(140580244, 140580245)",666,-422.59246856570365,-422.18493713140725,1.0,2.107199868809308e-92,2.107199868809308e-92
"(140580245, 140970979)",667,-423.59246856570365,-423.18493713140725,390734.0,4.993898290580671e-87,4.993898290580671e-87
"(140970979, 141117505)",668,-424.59246856570365,-424.18493713140725,146526.0,1.135862973237709e-87,1.135862973237709e-87
"(141117505, 141166347)",669,-425.59246856570365,-425.18493713140725,48842.0,2.2964523950034026e-88,2.2964523950034026e-88
"(141166347, 141215189)",670,-426.59246856570365,-426.18493713140725,48842.0,1.3928687861400707e-88,1.3928687861400707e-88
"(141215189, 142240871)",671,-427.59246856570365,-427.18493713140725,1025682.0,1.7741170098764114e-87,1.7741170098764114e-87
"(142240871, 142240872)",672,-428.59246856570365,-428.18493713140725,1.0,1.0491130393316296e-93,1.0491130393316296e-93
"(142240872, 142680449)",673,-429.59246856570365,-429.18493713140725,439577.0,2.797112954662409e-88,2.797112954662409e-88
"(142680449, 142778133)",674,-430.59246856570365,-430.18493713140725,97684.0,3.770085833674068e-89,3.770085833674068e-89
"(142778133, 143022343)",675,-431.59246856570365,-431.18493713140725,244210.0,5.716681619678966e-89,5.716681619678966e-89
"(143022343, 143559605)",676,-432.59246856570365,-432.18493713140725,537262.0,7.62815388313213e-89,7.62815388313213e-89
"(143559605, 143852657)",677,-433.59246856570365,-433.18493713140725,293052.0,2.5236595675230643e-89,2.5236595675230643e-89
"(143852657, 144048025)",678,-434.59246856570365,-434.18493713140725,195368.0,1.0204512682532421e-89,1.0204512682532421e-89
"(144048025, 144048026)",679,-435.59246856570365,-435.18493713140725,1.0,3.1680468702051124e-95,3.1680468702051124e-95
"(144048026, 144048027)",680,-436.59246856570365,-436.18493713140725,1.0,1.9215175581860503e-95,1.9215175581860503e-95
"(144048027, 144048028)",681,-437.59246856570365,-437.18493713140725,1.0,1.1654593122159936e-95,1.1654593122159936e-95
"(144048028, 144048029)",682,-438.59246856570365,-438.18493713140725,1.0,7.0688680550659866e-96,7.0688680550659866e-96
"(144048029, 144048030)",683,-439.59246856570365,-439.18493713140725,1.0,4.287485204860733e-96,4.287485204860733e-96
"(144048030, 144048031)",684,-440.59246856570365,-440.18493713140725,1.0,2.6004912298123354e-96,2.6004912298123354e-96
"(144048031, 144048032)",685,-441.59246856570365,-441.18493713140725,1.0,1.5772776611949932e-96,1.5772776611949932e-96
"(144048032, 144048033)",686,-442.59246856570365,-442.18493713140725,1.0,9.566672603945988e-97,9.566672603945988e-97
"(144048033, 144048034)",687,-443.59246856570365,-443.18493713140725,1.0,5.802480245726136e-97,5.802480245726136e-97
"(144048034, 144048035)",688,-444.59246856570365,-444.18493713140725,1.0,3.519382171409797e-97,3.519382171409797e-97
"(144048035, 144292235)",689,-445.59246856570365,-445.18493713140725,244200.0,5.2127254104832097e-92,5.2127254104832097e-92
"(144292235, 144292236)",690,-446.59246856570365,-446.18493713140725,1.0,1.2947083464869733e-97,1.2947083464869733e-97
"(144292236, 144438761)",691,-447.59246856570365,-447.18493713140725,146525.0,1.1506319706086206e-92,1.1506319706086206e-92
"(144438761, 144438762)",692,-448.59246856570365,-448.18493713140725,1.0,4.762965829856299e-98,4.762965829856299e-98
"(144438762, 145366759)",693,-449.59246856570365,-449.18493713140725,927997.0,2.6808764342151047e-92,2.6808764342151047e-92
"(145366759, 145415601)",694,-450.59246856570365,-450.18493713140725,48842.0,8.558081602367092e-94,8.558081602367092e-94
"(145415601, 145904021)",695,-451.59246856570365,-451.18493713140725,488420.0,5.190738880158264e-93,5.190738880158264e-93
"(145904021, 145952863)",696,-452.59246856570365,-452.18493713140725,48842.0,3.148342277378407e-94,3.148342277378407e-94
"(145952863, 146050547)",697,-453.59246856570365,-453.18493713140725,97684.0,3.819132236999e-94,3.819132236999e-94
"(146050547, 146050548)",698,-454.59246856570365,-454.18493713140725,1.0,2.3713410540485537e-99,2.3713410540485537e-99
"(146050548, 146050549)",699,-455.59246856570365,-455.18493713140725,1.0,1.4382910539157208e-99,1.4382910539157208e-99
"(146050549, 146392441)",700,-456.59246856570365,-456.18493713140725,341892.0,2.9825551094912273e-94,2.9825551094912273e-94
"(146392441, 146392442)",701,-457.59246856570365,-457.18493713140725,1.0,5.291177091564001e-100,5.291177091564001e-100
"(146392442, 146392443)",702,-458.59246856570365,-458.18493713140725,1.0,3.2092611320026866e-100,3.2092611320026866e-100
"(146392443, 146734335)",703,-459.59246856570365,-459.18493713140725,341892.0,6.654979992322951e-95,6.654979992322951e-95
"(146734335, 147027387)",704,-460.59246856570365,-460.18493713140725,293052.0,3.459834015035873e-95,3.459834015035873e-95
"(147027387, 147076229)",705,-461.59246856570365,-461.18493713140725,48842.0,3.497492346059863e-96,3.497492346059863e-96
"(147076229, 147076230)",706,-462.59246856570365,-462.18493713140725,1.0,4.343262642798359e-101,4.343262642798359e-101
"(147076230, 147662333)",707,-463.59246856570365,-463.18493713140725,586103.0,1.5439840014019227e-95,1.5439840014019227e-95
"(147662333, 148346121)",708,-464.59246856570365,-464.18493713140725,683788.0,1.0925544382119427e-95,1.0925544382119427e-95
"(148346121, 149176435)",709,-465.59246856570365,-465.18493713140725,830314.0,8.046679993622241e-96,8.046679993622241e-96
"(149176435, 149371803)",710,-466.59246856570365,-466.18493713140725,195368.0,1.1483666176536816e-96,1.1483666176536816e-96
"(149371803, 149371804)",711,-467.59246856570365,-467.18493713140725,1.0,3.565167080573344e-102,3.565167080573344e-102
"(149371804, 149957907)",712,-468.59246856570365,-468.18493713140725,586103.0,1.2673792463039857e-96,1.2673792463039857e-96
"(149957907, 149957908)",713,-469.59246856570365,-469.18493713140725,1.0,1.3115516732841442e-102,1.3115516732841442e-102
"(149957908, 150299801)",714,-470.59246856570365,-470.18493713140725,341893.0,2.719746170580542e-97,2.719746170580542e-97
"(150299801, 150348643)",715,-471.59246856570365,-471.18493713140725,48842.0,2.356591805745844e-98,2.356591805745844e-98
"(150348643, 150348644)",716,-472.59246856570365,-472.18493713140725,1.0,2.9264673490283217e-103,2.9264673490283217e-103
"(150348644, 150348645)",717,-473.59246856570365,-473.18493713140725,1.0,1.7749921718336294e-103,1.7749921718336294e-103
"(150348645, 150934747)",718,-474.59246856570365,-474.18493713140725,586102.0,6.309898952503112e-98,6.309898952503112e-98
"(150934747, 151423167)",719,-475.59246856570365,-475.18493713140725,488420.0,3.1893001950369435e-98,3.1893001950369435e-98
"(151423167, 151423168)",720,-476.59246856570365,-476.18493713140725,1.0,3.960542875634471e-104,3.960542875634471e-104
"(151423168, 151423169)",721,-477.59246856570365,-477.18493713140725,1.0,2.4021906831787455e-104,2.4021906831787455e-104
"(151423169, 151423170)",722,-478.59246856570365,-478.18493713140725,1.0,1.4570022998239462e-104,1.4570022998239462e-104
"(151423170, 151618535)",723,-479.59246856570365,-479.18493713140725,195365.0,1.7264728693906521e-99,1.7264728693906521e-99
"(151618535, 152546533)",724,-480.59246856570365,-480.18493713140725,927998.0,4.974080340295347e-99,4.974080340295347e-99
"(152546533, 152546534)",725,-481.59246856570365,-481.18493713140725,1.0,3.251011564963477e-105,3.251011564963477e-105
"(152546534, 152546535)",726,-482.59246856570365,-482.18493713140725,1.0,1.9718381892306986e-105,1.9718381892306986e-105
"(152546535, 152546536)",727,-483.59246856570365,-483.18493713140725,1.0,1.1959803177606598e-105,1.1959803177606598e-105
"(152546536, 153279163)",728,-484.59246856570365,-484.18493713140725,732627.0,5.314466961950204e-100,5.314466961950204e-100
"(153279163, 153279164)",729,-485.59246856570365,-485.18493713140725,1.0,4.399765709498356e-106,4.399765709498356e-106
"(153279164, 153376847)",730,-486.59246856570365,-486.18493713140725,97683.0,2.6067615032249883e-101,2.6067615032249883e-101
"(153376847, 153474531)",731,-487.59246856570365,-487.18493713140725,97684.0,1.5810969600980534e-101,1.5810969600980534e-101
"(153474531, 153816425)",732,-488.59246856570365,-488.18493713140725,341894.0,3.35644323797269e-101,3.35644323797269e-101
"(153816425, 153816426)",733,-489.59246856570365,-489.18493713140725,1.0,5.954435384696963e-107,5.954435384696963e-107
"(153816426, 153816427)",734,-490.59246856570365,-490.18493713140725,1.0,3.611547622096497e-107,3.611547622096497e-107
"(153816427, 154304845)",735,-491.59246856570365,-491.18493713140725,488418.0,1.069886643568363e-101,1.069886643568363e-101
"(154304845, 154597897)",736,-492.59246856570365,-492.18493713140725,293052.0,3.893530253816978e-102,3.893530253816978e-102
"(154597897, 154597898)",737,-493.59246856570365,-493.18493713140725,1.0,8.058451993020722e-108,8.058451993020722e-108
"(154597898, 154597899)",738,-494.59246856570365,-494.18493713140725,1.0,4.8876982035894446e-108,4.8876982035894446e-108
"(154597899, 154597900)",739,-495.59246856570365,-495.18493713140725,1.0,2.9645388158993587e-108,2.9645388158993587e-108
"(154597900, 154597901)",740,-496.59246856570365,-496.18493713140725,1.0,1.798083683751147e-108,1.798083683751147e-108
"(154597901, 154793265)",741,-497.59246856570365,-497.18493713140725,195364.0,2.1306258797958495e-103,2.1306258797958495e-103
"(154793265, 154890949)",742,-498.59246856570365,-498.18493713140725,97684.0,6.461581897971084e-104,6.461581897971084e-104
"(154890949, 155086317)",743,-499.59246856570365,-499.18493713140725,195368.0,7.838295062727224e-104,7.838295062727224e-104
"(155086317, 155086318)",744,-500.59246856570365,-500.18493713140725,1.0,2.433441646235934e-109,2.433441646235934e-109
"(155086318, 155330527)",745,-501.59246856570365,-501.18493713140725,244209.0,3.6044197496965375e-104,3.6044197496965375e-104
"(155330527, 156063157)",746,-502.59246856570365,-502.18493713140725,732630.0,6.558600122388646e-104,6.558600122388646e-104
"(156063157, 156307367)",747,-503.59246856570365,-503.18493713140725,244210.0,1.3259973530079145e-104,1.3259973530079145e-104
"(156307367, 156405051)",748,-504.59246856570365,-504.18493713140725,97684.0,3.2170321971883847e-105,3.2170321971883847e-105
"(156405051, 156844629)",749,-505.59246856570365,-505.18493713140725,439578.0,8.780528973948541e-105,8.780528973948541e-105
"(156844629, 157333049)",750,-506.59246856570365,-506.18493713140725,488420.0,5.917400034661001e-105,5.917400034661001e-105
"(157333049, 157333050)",751,-507.59246856570365,-507.18493713140725,1.0,7.348357042722445e-111,7.348357042722445e-111
"(157333050, 157333051)",752,-508.59246856570365,-508.18493713140725,1.0,4.4570038449264204e-111,4.4570038449264204e-111
"(157333051, 157333052)",753,-509.59246856570365,-509.18493713140725,1.0,2.7033094824049653e-111,2.7033094824049653e-111
"(157333052, 157674943)",754,-510.59246856570365,-510.18493713140725,341891.0,5.605781878803805e-106,5.605781878803805e-106
"(157674943, 157772627)",755,-511.5924685657037,-511.1849371314073,97684.0,9.714595474043862e-107,9.714595474043862e-107
"(157772627, 157772628)",756,-512.5924685657037,-512.1849371314073,1.0,6.031898777397718e-112,6.031898777397718e-112
"(157772628, 157772629)",757,-513.5924685657037,-513.1849371314073,1.0,3.6585315447748645e-112,3.6585315447748645e-112
"(157772629, 157772630)",758,-514.5924685657037,-514.1849371314073,1.0,2.219011551431778e-112,2.219011551431778e-112
"(157772630, 157772631)",759,-515.5924685657037,-515.1849371314073,1.0,1.3458985401998708e-112,1.3458985401998708e-112
"(157772631, 157772632)",760,-516.5924685657037,-516.1849371314073,1.0,8.163287294936979e-113,8.163287294936979e-113
"(157772632, 158261047)",761,-517.5924685657037,-517.1849371314073,488415.0,2.4182813887416748e-107,2.4182813887416748e-107
"(158261047, 158261048)",762,-518.5924685657037,-518.1849371314073,1.0,3.0031055681833505e-113,3.0031055681833505e-113
"(158261048, 158358731)",763,-519.5924685657037,-519.1849371314073,97683.0,1.7792720117711736e-108,1.7792720117711736e-108
"(158358731, 158554099)",764,-520.5924685657037,-520.1849371314073,195368.0,2.1583881498315526e-108,2.1583881498315526e-108
"(158554099, 158554100)",765,-521.5924685657037,-521.1849371314073,1.0,6.700834263713925e-114,6.700834263713925e-114
"(158554100, 158554101)",766,-522.5924685657037,-522.1849371314073,1.0,4.0642614265954244e-114,4.0642614265954244e-114
"(158554101, 159384413)",767,-523.5924685657037,-523.1849371314073,830312.0,2.0468014173228186e-108,2.0468014173228186e-108
"(159384413, 159530939)",768,-524.5924685657037,-524.1849371314073,146526.0,2.190795536940012e-109,2.190795536940012e-109
"(159530939, 159775149)",769,-525.5924685657037,-525.1849371314073,244210.0,2.2146411038595314e-109,2.2146411038595314e-109
"(159775149, 160800831)",770,-526.5924685657037,-526.1849371314073,1025682.0,5.641640464952672e-109,5.641640464952672e-109
"(160800831, 160849673)",771,-527.5924685657037,-527.1849371314073,48842.0,1.6294418633663008e-110,1.6294418633663008e-110
"(160849673, 162070723)",772,-528.5924685657037,-528.1849371314073,1221050.0,2.470766120877363e-109,2.470766120877363e-109
"(162070723, 162363775)",773,-529.5924685657037,-529.1849371314073,293052.0,3.59662897269929e-110,3.59662897269929e-110
"(162363775, 162363776)",774,-530.5924685657037,-530.1849371314073,1.0,7.443954463893342e-116,7.443954463893342e-116
"(162363776, 163291773)",775,-531.5924685657037,-531.1849371314073,927997.0,4.189894030842561e-110,4.189894030842561e-110
"(163291773, 163731351)",776,-532.5924685657037,-532.1849371314073,439578.0,1.2037745980093129e-110,1.2037745980093129e-110
"(163731351, 163926719)",777,-533.5924685657037,-533.1849371314073,195368.0,3.245005338115105e-111,3.245005338115105e-111
"(163926719, 164415139)",778,-534.5924685657037,-534.1849371314073,488420.0,4.9204880712449296e-111,4.9204880712449296e-111
"(164415139, 165391979)",779,-535.5924685657037,-535.1849371314073,976840.0,5.9688537519206616e-111,5.9688537519206616e-111
"(165391979, 165391980)",780,-536.5924685657037,-536.1849371314073,1.0,3.706126698211238e-117,3.706126698211238e-117
"(165391980, 165489663)",781,-537.5924685657037,-537.1849371314073,97683.0,2.1957961038959276e-112,2.1957961038959276e-112
"(165489663, 166271135)",782,-538.5924685657037,-538.1849371314073,781472.0,1.0654650348548907e-111,1.0654650348548907e-111
"(166271135, 166319977)",783,-539.5924685657037,-539.1849371314073,48842.0,4.038982565570505e-113,4.038982565570505e-113
"(166319977, 166613029)",784,-540.5924685657037,-540.1849371314073,293052.0,1.469860056037982e-112,1.469860056037982e-112
"(166613029, 166613030)",785,-541.5924685657037,-541.1849371314073,1.0,3.042174049226641e-118,3.042174049226641e-118
"(166613030, 166613031)",786,-542.5924685657037,-542.1849371314073,1.0,1.8451718330380877e-118,1.8451718330380877e-118
"(166613031, 166808397)",787,-543.5924685657037,-543.1849371314073,195366.0,2.1864450149311165e-113,2.1864450149311165e-113
"(166808397, 166808398)",788,-544.5924685657037,-544.1849371314073,1.0,6.788007828033376e-119,6.788007828033376e-119
"(166808398, 166808399)",789,-545.5924685657037,-545.1849371314073,1.0,4.117134866071603e-119,4.117134866071603e-119
"(166808399, 167003765)",790,-546.5924685657037,-546.1849371314073,195366.0,4.87861826337316e-114,4.87861826337316e-114
"(167003765, 167247975)",791,-547.5924685657037,-547.1849371314073,244210.0,3.6988273074441245e-114,3.6988273074441245e-114
"(167247975, 167541027)",792,-548.5924685657037,-548.1849371314073,293052.0,2.6921426003366264e-114,2.6921426003366264e-114
"(167541027, 167736395)",793,-549.5924685657037,-549.1849371314073,195368.0,1.0885780182817723e-114,1.0885780182817723e-114
"(167736395, 167834079)",794,-550.5924685657037,-550.1849371314073,97684.0,3.3012797178855724e-115,3.3012797178855724e-115
"(167834079, 167931763)",795,-551.5924685657037,-551.1849371314073,97684.0,2.0023273651850724e-115,2.0023273651850724e-115
"(167931763, 168175973)",796,-552.5924685657037,-552.1849371314073,244210.0,3.036182344415903e-115,3.036182344415903e-115
"(168175973, 168371341)",797,-553.5924685657037,-553.1849371314073,195368.0,1.473230144293142e-115,1.473230144293142e-115
"(168371341, 168762077)",798,-554.5924685657037,-554.1849371314073,390736.0,1.7871185026533148e-115,1.7871185026533148e-115
"(168762077, 168762078)",799,-555.5924685657037,-555.1849371314073,1.0,2.7741036515677306e-121,2.7741036515677306e-121
"(168762078, 168810919)",800,-556.5924685657037,-556.1849371314073,48841.0,8.217883692898789e-117,8.217883692898789e-117
"(168810919, 169299339)",801,-557.5924685657037,-557.1849371314073,488420.0,4.984500471265703e-116,4.984500471265703e-116
"(169299339, 169543549)",802,-558.5924685657037,-558.1849371314073,244210.0,1.5116261795873598e-116,1.5116261795873598e-116
"(169543549, 170276179)",803,-559.5924685657037,-559.1849371314073,732630.0,2.750542871832027e-116,2.750542871832027e-116
"(170276179, 170911125)",804,-560.5924685657037,-560.1849371314073,634946.0,1.4458501049374727e-116,1.4458501049374727e-116
"(170911125, 171399545)",805,-561.5924685657037,-561.1849371314073,488420.0,6.745787830717734e-117,6.745787830717734e-117
"(171399545, 171399546)",806,-562.5924685657037,-562.1849371314073,1.0,8.37706716196446e-123,8.37706716196446e-123
"(171399546, 171448387)",807,-563.5924685657037,-563.1849371314073,48841.0,2.4815858479448344e-118,2.4815858479448344e-118
"(171448387, 171448388)",808,-564.5924685657037,-564.1849371314073,1.0,3.081750786199126e-123,3.081750786199126e-123
"(171448388, 171448389)",809,-565.5924685657037,-565.1849371314073,1.0,1.8691763374232827e-123,1.8691763374232827e-123
"(171448389, 171594913)",810,-566.5924685657037,-566.1849371314073,146524.0,1.6611612801495945e-118,1.6611612801495945e-118
"(171594913, 171692597)",811,-567.5924685657037,-567.1849371314073,97684.0,6.717059998460969e-119,6.717059998460969e-119
"(171692597, 171790281)",812,-568.5924685657037,-568.1849371314073,97684.0,4.074102832195872e-119,4.074102832195872e-119
"(171790281, 171790282)",813,-569.5924685657037,-569.1849371314073,1.0,2.529655090443543e-124,2.529655090443543e-124
"(171790282, 171790283)",814,-570.5924685657037,-570.1849371314073,1.0,1.5343133708521435e-124,1.5343133708521435e-124
"(171790283, 171790284)",815,-571.5924685657037,-571.1849371314073,1.0,9.30608101028865e-125,9.30608101028865e-125
"(171790284, 171790285)",816,-572.5924685657037,-572.1849371314073,1.0,5.644423454509584e-125,5.644423454509584e-125
"(171790285, 171887965)",817,-573.5924685657037,-573.1849371314073,97680.0,3.344090313108941e-120,3.344090313108941e-120
"(171887965, 171887966)",818,-574.5924685657037,-574.1849371314073,1.0,2.076467346179968e-125,2.076467346179968e-125
"(171887966, 172083333)",819,-575.5924685657037,-575.1849371314073,195367.0,2.4605323121043558e-120,2.4605323121043558e-120
"(172083333, 172132175)",820,-576.5924685657037,-576.1849371314073,48842.0,3.730989813503439e-121,3.730989813503439e-121
"(172132175, 172132176)",821,-577.5924685657037,-577.1849371314073,1.0,4.6332249149612134e-126,4.6332249149612134e-126
"(172132176, 172132177)",822,-578.5924685657037,-578.1849371314073,1.0,2.8101929642684348e-126,2.8101929642684348e-126
"(172132177, 172132178)",823,-579.5924685657037,-579.1849371314073,1.0,1.7044681925375345e-126,1.7044681925375345e-126
"(172132178, 172181017)",824,-580.5924685657037,-580.1849371314073,48839.0,5.049035487968863e-122,5.049035487968863e-122
"(172181017, 172571753)",825,-581.5924685657037,-581.1849371314073,390736.0,2.4500663496576813e-121,2.4500663496576813e-121
"(172571753, 172669437)",826,-582.5924685657037,-582.1849371314073,97684.0,3.715100898493993e-122,3.715100898493993e-122
"(172669437, 172669438)",827,-583.5924685657037,-583.1849371314073,1.0,2.3067468560486452e-127,2.3067468560486452e-127
"(172669438, 173353225)",828,-584.5924685657037,-584.1849371314073,683787.0,9.566950705907531e-122,9.566950705907531e-122
"(173353225, 174037013)",829,-585.5924685657037,-585.1849371314073,683788.0,5.802657409139781e-122,5.802657409139781e-122
"(174037013, 174037014)",830,-586.5924685657037,-586.1849371314073,1.0,5.147047954120213e-128,5.147047954120213e-128
"(174037014, 174037015)",831,-587.5924685657037,-587.1849371314073,1.0,3.1218423911850926e-128,3.1218423911850926e-128
"(174037015, 174037016)",832,-588.5924685657037,-588.1849371314073,1.0,1.8934931250443593e-128,1.8934931250443593e-128
"(174037016, 174037017)",833,-589.5924685657037,-589.1849371314073,1.0,1.1484616342944912e-128,1.1484616342944912e-128
"(174037017, 174037018)",834,-590.5924685657037,-590.1849371314073,1.0,6.965771927032868e-129,6.965771927032868e-129
"(174037018, 174037019)",835,-591.5924685657037,-591.1849371314073,1.0,4.224954242310988e-129,4.224954242310988e-129
"(174037019, 174378907)",836,-592.5924685657037,-592.1849371314073,341888.0,8.761099778750532e-124,8.761099778750532e-124
"(174378907, 174574275)",837,-593.5924685657037,-593.1849371314073,195368.0,3.0365536485954887e-124,3.0365536485954887e-124
"(174574275, 174623117)",838,-594.5924685657037,-594.1849371314073,48842.0,4.6044072193385646e-125,4.6044072193385646e-125
"(174623117, 174623118)",839,-595.5924685657037,-595.1849371314073,1.0,5.7178537904488584e-130,5.7178537904488584e-130
"(174623118, 174818485)",840,-596.5924685657037,-596.1849371314073,195367.0,6.775432338567788e-125,6.775432338567788e-125
"(174818485, 174818486)",841,-597.5924685657037,-597.1849371314073,1.0,2.1034808571303393e-130,2.1034808571303393e-130
"(174818486, 174916169)",842,-598.5924685657037,-598.1849371314073,97683.0,1.2462647520754582e-125,1.2462647520754582e-125
"(174916169, 176283745)",843,-599.5924685657037,-599.1849371314073,1367576.0,1.058267728737172e-124,1.058267728737172e-124
"(176283745, 176479113)",844,-600.5924685657037,-600.1849371314073,195368.0,9.169597480907817e-126,9.169597480907817e-126
"(176479113, 176479114)",845,-601.5924685657037,-601.1849371314073,1.0,2.8467517758252733e-131,2.8467517758252733e-131
"(176479114, 176479115)",846,-602.5924685657037,-602.1849371314073,1.0,1.7266422326294138e-131,1.7266422326294138e-131
"(176479115, 176625639)",847,-603.5924685657037,-603.1849371314073,146524.0,1.534489370579651e-126,1.534489370579651e-126
"(176625639, 176625640)",848,-604.5924685657037,-604.1849371314073,1.0,6.351961796427202e-132,6.351961796427202e-132
"(176625640, 176625641)",849,-605.5924685657037,-605.1849371314073,1.0,3.852659578856435e-132,3.852659578856435e-132
"(176625641, 176625642)",850,-606.5924685657037,-606.1849371314073,1.0,2.33675615601199e-132,2.33675615601199e-132
"(176625642, 176772165)",851,-607.5924685657037,-607.1849371314073,146523.0,2.076691362767157e-127,2.076691362767157e-127
"(176772165, 176772166)",852,-608.5924685657037,-608.1849371314073,1.0,8.596445488276186e-133,8.596445488276186e-133
"(176772166, 176821007)",853,-609.5924685657037,-609.1849371314073,48841.0,2.546573526734476e-128,2.546573526734476e-128
"(176821007, 176821008)",854,-610.5924685657037,-610.1849371314073,1.0,3.16245556228781e-133,3.16245556228781e-133
"(176821008, 177309427)",855,-611.5924685657037,-611.1849371314073,488419.0,9.368493090533945e-128,9.368493090533945e-128
"(177309427, 177309428)",856,-612.5924685657037,-612.1849371314073,1.0,1.163402384983959e-133,1.163402384983959e-133
"(177309428, 177358269)",857,-613.5924685657037,-613.1849371314073,48841.0,3.4464124952347e-129,3.4464124952347e-129
"(177358269, 177504795)",858,-614.5924685657037,-614.1849371314073,146526.0,6.27119293067547e-129,6.27119293067547e-129
"(177504795, 177504796)",859,-615.5924685657037,-615.1849371314073,1.0,2.5959016047853596e-134,2.5959016047853596e-134
"(177504796, 177504797)",860,-616.5924685657037,-616.1849371314073,1.0,1.5744939128995482e-134,1.5744939128995482e-134
"(177504797, 177749005)",861,-617.5924685657037,-617.1849371314073,244208.0,2.3321347053288967e-129,2.3321347053288967e-129
"(177749005, 177797847)",862,-618.5924685657037,-618.1849371314073,48842.0,2.82904557168136e-130,2.82904557168136e-130
"(177797847, 178481635)",863,-619.5924685657037,-619.1849371314073,683788.0,2.4022640277285992e-129,2.4022640277285992e-129
"(178481635, 178481636)",864,-620.5924685657037,-620.1849371314073,1.0,2.130845796565829e-135,2.130845796565829e-135
"(178481636, 179165423)",865,-621.5924685657037,-621.1849371314073,683787.0,8.837422556437487e-130,8.837422556437487e-130
"(179165423, 179360791)",866,-622.5924685657037,-622.1849371314073,195368.0,1.5314787349311269e-130,1.5314787349311269e-130
"(179360791, 179360792)",867,-623.5924685657037,-623.1849371314073,1.0,4.75455963839342e-136,4.75455963839342e-136
"(179360792, 179360793)",868,-624.5924685657037,-624.1849371314073,1.0,2.883786194117821e-136,2.883786194117821e-136
"(179360793, 179653843)",869,-625.5924685657037,-625.1849371314073,293050.0,5.1257514487416e-131,5.1257514487416e-131
"(179653843, 179653844)",870,-626.5924685657037,-626.1849371314073,1.0,1.0608856535499845e-136,1.0608856535499845e-136
"(179653844, 179653845)",871,-627.5924685657037,-627.1849371314073,1.0,6.434596753273403e-137,6.434596753273403e-137
"(179653845, 179653846)",872,-628.5924685657037,-628.1849371314073,1.0,3.9027802137476863e-137,3.9027802137476863e-137
"(179653846, 179653847)",873,-629.5924685657037,-629.1849371314073,1.0,2.367155857757797e-137,2.367155857757797e-137
"(179653847, 179653848)",874,-630.5924685657037,-630.1849371314073,1.0,1.4357526040484612e-137,1.4357526040484612e-137
"(179653848, 179653849)",875,-631.5924685657037,-631.1849371314073,1.0,8.708279741176445e-138,8.708279741176445e-138
"(179653849, 179751527)",876,-632.5924685657037,-632.1849371314073,97678.0,5.1591943627768154e-133,5.1591943627768154e-133
"(179751527, 179751528)",877,-633.5924685657037,-633.1849371314073,1.0,3.2035970847485826e-138,3.2035970847485826e-138
